{
  "generatedAt": "2026-04-24T15:06:33.120219+00:00",
  "horizon": "1yr",
  "targetColumn": "price_1yr_later",
  "targetMode": "forward_log_return",
  "featureNames": [
    "most_expensive_card_price",
    "set_age_years",
    "community_score",
    "reddit_score",
    "price_trajectory_24mo",
    "market_cycle_score",
    "era_encoded",
    "price_volatility_6mo",
    "drawdown_12mo",
    "history_window_missing_flag",
    "chase_value_share"
  ],
  "baseScore": 0.33682704,
  "trees": [
    {
      "nodeid": 0,
      "depth": 0,
      "split": "era_encoded",
      "split_condition": 2,
      "yes": 1,
      "no": 2,
      "missing": 2,
      "gain": 35.0321579,
      "cover": 892,
      "children": [
        {
          "nodeid": 1,
          "depth": 1,
          "split": "market_cycle_score",
          "split_condition": 63,
          "yes": 3,
          "no": 4,
          "missing": 4,
          "gain": 35.7498474,
          "cover": 581,
          "children": [
            {
              "nodeid": 3,
              "depth": 2,
              "split": "reddit_score",
              "split_condition": 12,
              "yes": 7,
              "no": 8,
              "missing": 8,
              "gain": 2.97074175,
              "cover": 271,
              "children": [
                {
                  "nodeid": 7,
                  "depth": 3,
                  "split": "drawdown_12mo",
                  "split_condition": -43.5299988,
                  "yes": 13,
                  "no": 14,
                  "missing": 14,
                  "gain": 1.11876965,
                  "cover": 129,
                  "children": [
                    {
                      "nodeid": 13,
                      "leaf": 0.0112603996,
                      "cover": 10
                    },
                    {
                      "nodeid": 14,
                      "leaf": -0.0505380407,
                      "cover": 119
                    }
                  ]
                },
                {
                  "nodeid": 8,
                  "depth": 3,
                  "split": "history_window_missing_flag",
                  "split_condition": 1,
                  "yes": 15,
                  "no": 16,
                  "missing": 16,
                  "gain": 1.35661781,
                  "cover": 142,
                  "children": [
                    {
                      "nodeid": 15,
                      "leaf": 0.0124722188,
                      "cover": 84
                    },
                    {
                      "nodeid": 16,
                      "leaf": -0.0258077886,
                      "cover": 58
                    }
                  ]
                }
              ]
            },
            {
              "nodeid": 4,
              "depth": 2,
              "split": "market_cycle_score",
              "split_condition": 92,
              "yes": 9,
              "no": 10,
              "missing": 10,
              "gain": 14.3842926,
              "cover": 310,
              "children": [
                {
                  "nodeid": 9,
                  "depth": 3,
                  "split": "community_score",
                  "split_condition": 41,
                  "yes": 17,
                  "no": 18,
                  "missing": 18,
                  "gain": 6.39649963,
                  "cover": 284,
                  "children": [
                    {
                      "nodeid": 17,
                      "leaf": 0.046119459,
                      "cover": 109
                    },
                    {
                      "nodeid": 18,
                      "leaf": 0.111765876,
                      "cover": 175
                    }
                  ]
                },
                {
                  "nodeid": 10,
                  "depth": 3,
                  "split": "community_score",
                  "split_condition": 41,
                  "yes": 19,
                  "no": 20,
                  "missing": 20,
                  "gain": 0.361918926,
                  "cover": 26,
                  "children": [
                    {
                      "nodeid": 19,
                      "leaf": -0.0759745836,
                      "cover": 15
                    },
                    {
                      "nodeid": 20,
                      "leaf": -0.0150790801,
                      "cover": 11
                    }
                  ]
                }
              ]
            }
          ]
        },
        {
          "nodeid": 2,
          "depth": 1,
          "split": "drawdown_12mo",
          "split_condition": -0.0329999998,
          "yes": 5,
          "no": 6,
          "missing": 6,
          "gain": 10.0255604,
          "cover": 311,
          "children": [
            {
              "nodeid": 5,
              "depth": 2,
              "split": "drawdown_12mo",
              "split_condition": -46.3279991,
              "yes": 11,
              "no": 12,
              "missing": 12,
              "gain": 2.13437319,
              "cover": 217,
              "children": [
                {
                  "nodeid": 11,
                  "leaf": 0.0288556069,
                  "cover": 19
                },
                {
                  "nodeid": 12,
                  "depth": 3,
                  "split": "market_cycle_score",
                  "split_condition": 63,
                  "yes": 21,
                  "no": 22,
                  "missing": 22,
                  "gain": 0.366407394,
                  "cover": 198,
                  "children": [
                    {
                      "nodeid": 21,
                      "leaf": -0.045259323,
                      "cover": 91
                    },
                    {
                      "nodeid": 22,
                      "leaf": -0.0240288321,
                      "cover": 107
                    }
                  ]
                }
              ]
            },
            {
              "nodeid": 6,
              "leaf": -0.10684295,
              "cover": 94
            }
          ]
        }
      ]
    },
    {
      "nodeid": 0,
      "depth": 0,
      "split": "era_encoded",
      "split_condition": 2,
      "yes": 1,
      "no": 2,
      "missing": 2,
      "gain": 22.7627296,
      "cover": 892,
      "children": [
        {
          "nodeid": 1,
          "depth": 1,
          "split": "market_cycle_score",
          "split_condition": 63,
          "yes": 3,
          "no": 4,
          "missing": 4,
          "gain": 23.0917816,
          "cover": 581,
          "children": [
            {
              "nodeid": 3,
              "depth": 2,
              "split": "reddit_score",
              "split_condition": 12,
              "yes": 7,
              "no": 8,
              "missing": 8,
              "gain": 1.91602874,
              "cover": 271,
              "children": [
                {
                  "nodeid": 7,
                  "depth": 3,
                  "split": "chase_value_share",
                  "split_condition": 1.88719714,
                  "yes": 15,
                  "no": 16,
                  "missing": 16,
                  "gain": 1.51546097,
                  "cover": 129,
                  "children": [
                    {
                      "nodeid": 15,
                      "leaf": -0.0449464731,
                      "cover": 111
                    },
                    {
                      "nodeid": 16,
                      "leaf": 0.012881062,
                      "cover": 18
                    }
                  ]
                },
                {
                  "nodeid": 8,
                  "depth": 3,
                  "split": "chase_value_share",
                  "split_condition": 0.949999988,
                  "yes": 17,
                  "no": 18,
                  "missing": 18,
                  "gain": 2.08488178,
                  "cover": 142,
                  "children": [
                    {
                      "nodeid": 17,
                      "leaf": 0.010943057,
                      "cover": 108
                    },
                    {
                      "nodeid": 18,
                      "leaf": -0.0426305495,
                      "cover": 34
                    }
                  ]
                }
              ]
            },
            {
              "nodeid": 4,
              "depth": 2,
              "split": "market_cycle_score",
              "split_condition": 92,
              "yes": 9,
              "no": 10,
              "missing": 10,
              "gain": 9.85354042,
              "cover": 310,
              "children": [
                {
                  "nodeid": 9,
                  "depth": 3,
                  "split": "set_age_years",
                  "split_condition": 0.312099993,
                  "yes": 19,
                  "no": 20,
                  "missing": 20,
                  "gain": 4.52226257,
                  "cover": 284,
                  "children": [
                    {
                      "nodeid": 19,
                      "leaf": -0.0388696752,
                      "cover": 11
                    },
                    {
                      "nodeid": 20,
                      "leaf": 0.0761157572,
                      "cover": 273
                    }
                  ]
                },
                {
                  "nodeid": 10,
                  "depth": 3,
                  "split": "reddit_score",
                  "split_condition": 8,
                  "yes": 21,
                  "no": 22,
                  "missing": 22,
                  "gain": 0.24110961,
                  "cover": 26,
                  "children": [
                    {
                      "nodeid": 21,
                      "leaf": -0.0645783991,
                      "cover": 15
                    },
                    {
                      "nodeid": 22,
                      "leaf": -0.0130057065,
                      "cover": 11
                    }
                  ]
                }
              ]
            }
          ]
        },
        {
          "nodeid": 2,
          "depth": 1,
          "split": "set_age_years",
          "split_condition": 22.0615997,
          "yes": 5,
          "no": 6,
          "missing": 6,
          "gain": 8.53219414,
          "cover": 311,
          "children": [
            {
              "nodeid": 5,
              "depth": 2,
              "split": "chase_value_share",
              "split_condition": 0.00873922557,
              "yes": 11,
              "no": 12,
              "missing": 12,
              "gain": 2.4035759,
              "cover": 72,
              "children": [
                {
                  "nodeid": 11,
                  "leaf": -0.153326854,
                  "cover": 24
                },
                {
                  "nodeid": 12,
                  "depth": 3,
                  "split": "set_age_years",
                  "split_condition": 20.3395004,
                  "yes": 23,
                  "no": 24,
                  "missing": 24,
                  "gain": 0.191029549,
                  "cover": 48,
                  "children": [
                    {
                      "nodeid": 23,
                      "leaf": -0.0736565515,
                      "cover": 33
                    },
                    {
                      "nodeid": 24,
                      "leaf": -0.0254418738,
                      "cover": 15
                    }
                  ]
                }
              ]
            },
            {
              "nodeid": 6,
              "depth": 2,
              "split": "chase_value_share",
              "split_condition": 0.0128557887,
              "yes": 13,
              "no": 14,
              "missing": 14,
              "gain": 3.45283675,
              "cover": 239,
              "children": [
                {
                  "nodeid": 13,
                  "depth": 3,
                  "split": "set_age_years",
                  "split_condition": 25.2292995,
                  "yes": 25,
                  "no": 26,
                  "missing": 26,
                  "gain": 2.88204575,
                  "cover": 220,
                  "children": [
                    {
                      "nodeid": 25,
                      "leaf": -0.0397896431,
                      "cover": 194
                    },
                    {
                      "nodeid": 26,
                      "leaf": 0.0264354181,
                      "cover": 26
                    }
                  ]
                },
                {
                  "nodeid": 14,
                  "leaf": 0.0486998856,
                  "cover": 19
                }
              ]
            }
          ]
        }
      ]
    },
    {
      "nodeid": 0,
      "depth": 0,
      "split": "era_encoded",
      "split_condition": 2,
      "yes": 1,
      "no": 2,
      "missing": 2,
      "gain": 14.8401794,
      "cover": 892,
      "children": [
        {
          "nodeid": 1,
          "depth": 1,
          "split": "market_cycle_score",
          "split_condition": 63,
          "yes": 3,
          "no": 4,
          "missing": 4,
          "gain": 14.7856331,
          "cover": 581,
          "children": [
            {
              "nodeid": 3,
              "depth": 2,
              "split": "reddit_score",
              "split_condition": 12,
              "yes": 7,
              "no": 8,
              "missing": 8,
              "gain": 1.22085416,
              "cover": 271,
              "children": [
                {
                  "nodeid": 7,
                  "depth": 3,
                  "split": "chase_value_share",
                  "split_condition": 1.92405069,
                  "yes": 15,
                  "no": 16,
                  "missing": 16,
                  "gain": 1.04150057,
                  "cover": 129,
                  "children": [
                    {
                      "nodeid": 15,
                      "leaf": -0.0359981582,
                      "cover": 113
                    },
                    {
                      "nodeid": 16,
                      "leaf": 0.0134140942,
                      "cover": 16
                    }
                  ]
                },
                {
                  "nodeid": 8,
                  "depth": 3,
                  "split": "set_age_years",
                  "split_condition": 0.479099989,
                  "yes": 17,
                  "no": 18,
                  "missing": 18,
                  "gain": 1.44087839,
                  "cover": 142,
                  "children": [
                    {
                      "nodeid": 17,
                      "leaf": -0.0380035378,
                      "cover": 30
                    },
                    {
                      "nodeid": 18,
                      "leaf": 0.00818474963,
                      "cover": 112
                    }
                  ]
                }
              ]
            },
            {
              "nodeid": 4,
              "depth": 2,
              "split": "market_cycle_score",
              "split_condition": 92,
              "yes": 9,
              "no": 10,
              "missing": 10,
              "gain": 6.71948242,
              "cover": 310,
              "children": [
                {
                  "nodeid": 9,
                  "depth": 3,
                  "split": "market_cycle_score",
                  "split_condition": 67,
                  "yes": 19,
                  "no": 20,
                  "missing": 20,
                  "gain": 3.87370682,
                  "cover": 284,
                  "children": [
                    {
                      "nodeid": 19,
                      "leaf": 0.0204003379,
                      "cover": 90
                    },
                    {
                      "nodeid": 20,
                      "leaf": 0.0726121962,
                      "cover": 194
                    }
                  ]
                },
                {
                  "nodeid": 10,
                  "depth": 3,
                  "split": "reddit_score",
                  "split_condition": 8,
                  "yes": 21,
                  "no": 22,
                  "missing": 22,
                  "gain": 0.15743494,
                  "cover": 26,
                  "children": [
                    {
                      "nodeid": 21,
                      "leaf": -0.0548916347,
                      "cover": 15
                    },
                    {
                      "nodeid": 22,
                      "leaf": -0.0112174219,
                      "cover": 11
                    }
                  ]
                }
              ]
            }
          ]
        },
        {
          "nodeid": 2,
          "depth": 1,
          "split": "set_age_years",
          "split_condition": 22.0615997,
          "yes": 5,
          "no": 6,
          "missing": 6,
          "gain": 6.13242912,
          "cover": 311,
          "children": [
            {
              "nodeid": 5,
              "depth": 2,
              "split": "chase_value_share",
              "split_condition": 0.00756681804,
              "yes": 11,
              "no": 12,
              "missing": 12,
              "gain": 1.80269146,
              "cover": 72,
              "children": [
                {
                  "nodeid": 11,
                  "leaf": -0.133526891,
                  "cover": 21
                },
                {
                  "nodeid": 12,
                  "depth": 3,
                  "split": "history_window_missing_flag",
                  "split_condition": 1,
                  "yes": 23,
                  "no": 24,
                  "missing": 24,
                  "gain": 0.19914484,
                  "cover": 51,
                  "children": [
                    {
                      "nodeid": 23,
                      "leaf": -0.0658887997,
                      "cover": 31
                    },
                    {
                      "nodeid": 24,
                      "leaf": -0.0244856533,
                      "cover": 20
                    }
                  ]
                }
              ]
            },
            {
              "nodeid": 6,
              "depth": 2,
              "split": "chase_value_share",
              "split_condition": 0.0155325728,
              "yes": 13,
              "no": 14,
              "missing": 14,
              "gain": 2.49176455,
              "cover": 239,
              "children": [
                {
                  "nodeid": 13,
                  "depth": 3,
                  "split": "set_age_years",
                  "split_condition": 25.2292995,
                  "yes": 25,
                  "no": 26,
                  "missing": 26,
                  "gain": 1.87669206,
                  "cover": 225,
                  "children": [
                    {
                      "nodeid": 25,
                      "leaf": -0.0311701186,
                      "cover": 199
                    },
                    {
                      "nodeid": 26,
                      "leaf": 0.0220010914,
                      "cover": 26
                    }
                  ]
                },
                {
                  "nodeid": 14,
                  "leaf": 0.0509548374,
                  "cover": 14
                }
              ]
            }
          ]
        }
      ]
    },
    {
      "nodeid": 0,
      "depth": 0,
      "split": "price_volatility_6mo",
      "split_condition": 0.934400022,
      "yes": 1,
      "no": 2,
      "missing": 1,
      "gain": 10.1386881,
      "cover": 892,
      "children": [
        {
          "nodeid": 1,
          "depth": 1,
          "split": "set_age_years",
          "split_condition": 18.5844994,
          "yes": 3,
          "no": 4,
          "missing": 4,
          "gain": 1.67778206,
          "cover": 118,
          "children": [
            {
              "nodeid": 3,
              "depth": 2,
              "split": "set_age_years",
              "split_condition": 0.391499996,
              "yes": 7,
              "no": 8,
              "missing": 8,
              "gain": 0.979143739,
              "cover": 60,
              "children": [
                {
                  "nodeid": 7,
                  "depth": 3,
                  "split": "most_expensive_card_price",
                  "split_condition": 120,
                  "yes": 15,
                  "no": 16,
                  "missing": 16,
                  "gain": 0.65018034,
                  "cover": 34,
                  "children": [
                    {
                      "nodeid": 15,
                      "leaf": -0.0775384158,
                      "cover": 12
                    },
                    {
                      "nodeid": 16,
                      "leaf": -0.0165850446,
                      "cover": 22
                    }
                  ]
                },
                {
                  "nodeid": 8,
                  "depth": 3,
                  "split": "set_age_years",
                  "split_condition": 2.03419995,
                  "yes": 17,
                  "no": 18,
                  "missing": 18,
                  "gain": 0.484199852,
                  "cover": 26,
                  "children": [
                    {
                      "nodeid": 17,
                      "leaf": 0.0301998202,
                      "cover": 10
                    },
                    {
                      "nodeid": 18,
                      "leaf": -0.016644055,
                      "cover": 16
                    }
                  ]
                }
              ]
            },
            {
              "nodeid": 4,
              "depth": 2,
              "split": "set_age_years",
              "split_condition": 21.6044006,
              "yes": 9,
              "no": 10,
              "missing": 10,
              "gain": 1.18574142,
              "cover": 58,
              "children": [
                {
                  "nodeid": 9,
                  "leaf": -0.111590639,
                  "cover": 24
                },
                {
                  "nodeid": 10,
                  "leaf": -0.0417070016,
                  "cover": 34
                }
              ]
            }
          ]
        },
        {
          "nodeid": 2,
          "depth": 1,
          "split": "set_age_years",
          "split_condition": 6.24779987,
          "yes": 5,
          "no": 6,
          "missing": 6,
          "gain": 5.24954891,
          "cover": 774,
          "children": [
            {
              "nodeid": 5,
              "depth": 2,
              "split": "community_score",
              "split_condition": 41,
              "yes": 11,
              "no": 12,
              "missing": 12,
              "gain": 4.53370953,
              "cover": 506,
              "children": [
                {
                  "nodeid": 11,
                  "depth": 3,
                  "split": "reddit_score",
                  "split_condition": 8,
                  "yes": 19,
                  "no": 20,
                  "missing": 20,
                  "gain": 1.21610975,
                  "cover": 180,
                  "children": [
                    {
                      "nodeid": 19,
                      "leaf": -0.0165377036,
                      "cover": 124
                    },
                    {
                      "nodeid": 20,
                      "leaf": 0.0176316462,
                      "cover": 56
                    }
                  ]
                },
                {
                  "nodeid": 12,
                  "depth": 3,
                  "split": "price_volatility_6mo",
                  "split_condition": 17.5837994,
                  "yes": 21,
                  "no": 22,
                  "missing": 22,
                  "gain": 3.62067318,
                  "cover": 326,
                  "children": [
                    {
                      "nodeid": 21,
                      "leaf": 0.0434185565,
                      "cover": 267
                    },
                    {
                      "nodeid": 22,
                      "leaf": -0.00998220127,
                      "cover": 59
                    }
                  ]
                }
              ]
            },
            {
              "nodeid": 6,
              "depth": 2,
              "split": "set_age_years",
              "split_condition": 25.3799,
              "yes": 13,
              "no": 14,
              "missing": 14,
              "gain": 0.949922681,
              "cover": 268,
              "children": [
                {
                  "nodeid": 13,
                  "depth": 3,
                  "split": "community_score",
                  "split_condition": 49,
                  "yes": 23,
                  "no": 24,
                  "missing": 24,
                  "gain": 0.687003851,
                  "cover": 246,
                  "children": [
                    {
                      "nodeid": 23,
                      "leaf": -0.00438515563,
                      "cover": 97
                    },
                    {
                      "nodeid": 24,
                      "leaf": -0.0267011467,
                      "cover": 149
                    }
                  ]
                },
                {
                  "nodeid": 14,
                  "depth": 3,
                  "split": "most_expensive_card_price",
                  "split_condition": 95,
                  "yes": 25,
                  "no": 26,
                  "missing": 26,
                  "gain": 0.103325754,
                  "cover": 22,
                  "children": [
                    {
                      "nodeid": 25,
                      "leaf": 0.000380912825,
                      "cover": 10
                    },
                    {
                      "nodeid": 26,
                      "leaf": 0.030825261,
                      "cover": 12
                    }
                  ]
                }
              ]
            }
          ]
        }
      ]
    },
    {
      "nodeid": 0,
      "depth": 0,
      "split": "price_volatility_6mo",
      "split_condition": 0.934400022,
      "yes": 1,
      "no": 2,
      "missing": 1,
      "gain": 7.06084585,
      "cover": 892,
      "children": [
        {
          "nodeid": 1,
          "depth": 1,
          "split": "drawdown_12mo",
          "split_condition": -0.0659999996,
          "yes": 3,
          "no": 4,
          "missing": 4,
          "gain": 2.09544897,
          "cover": 118,
          "children": [
            {
              "nodeid": 3,
              "depth": 2,
              "split": "most_expensive_card_price",
              "split_condition": 95,
              "yes": 7,
              "no": 8,
              "missing": 8,
              "gain": 0.248734355,
              "cover": 29,
              "children": [
                {
                  "nodeid": 7,
                  "leaf": -0.0188754387,
                  "cover": 10
                },
                {
                  "nodeid": 8,
                  "leaf": 0.0138560282,
                  "cover": 19
                }
              ]
            },
            {
              "nodeid": 4,
              "leaf": -0.0598236285,
              "cover": 89
            }
          ]
        },
        {
          "nodeid": 2,
          "depth": 1,
          "split": "market_cycle_score",
          "split_condition": 63,
          "yes": 5,
          "no": 6,
          "missing": 6,
          "gain": 7.02900982,
          "cover": 774,
          "children": [
            {
              "nodeid": 5,
              "depth": 2,
              "split": "drawdown_12mo",
              "split_condition": -45.2029991,
              "yes": 9,
              "no": 10,
              "missing": 10,
              "gain": 2.63590622,
              "cover": 352,
              "children": [
                {
                  "nodeid": 9,
                  "depth": 3,
                  "split": "most_expensive_card_price",
                  "split_condition": 300,
                  "yes": 13,
                  "no": 14,
                  "missing": 14,
                  "gain": 0.36337924,
                  "cover": 39,
                  "children": [
                    {
                      "nodeid": 13,
                      "leaf": 0.0426414423,
                      "cover": 27
                    },
                    {
                      "nodeid": 14,
                      "leaf": 0,
                      "cover": 12
                    }
                  ]
                },
                {
                  "nodeid": 10,
                  "depth": 3,
                  "split": "most_expensive_card_price",
                  "split_condition": 1000,
                  "yes": 15,
                  "no": 16,
                  "missing": 16,
                  "gain": 1.84468389,
                  "cover": 313,
                  "children": [
                    {
                      "nodeid": 15,
                      "leaf": -0.026125703,
                      "cover": 279
                    },
                    {
                      "nodeid": 16,
                      "leaf": 0.0204106532,
                      "cover": 34
                    }
                  ]
                }
              ]
            },
            {
              "nodeid": 6,
              "depth": 2,
              "split": "era_encoded",
              "split_condition": 2,
              "yes": 11,
              "no": 12,
              "missing": 12,
              "gain": 5.5600481,
              "cover": 422,
              "children": [
                {
                  "nodeid": 11,
                  "depth": 3,
                  "split": "market_cycle_score",
                  "split_condition": 92,
                  "yes": 17,
                  "no": 18,
                  "missing": 18,
                  "gain": 3.59025574,
                  "cover": 293,
                  "children": [
                    {
                      "nodeid": 17,
                      "leaf": 0.0441468731,
                      "cover": 277
                    },
                    {
                      "nodeid": 18,
                      "leaf": -0.0428440236,
                      "cover": 16
                    }
                  ]
                },
                {
                  "nodeid": 12,
                  "depth": 3,
                  "split": "price_volatility_6mo",
                  "split_condition": 16.073,
                  "yes": 19,
                  "no": 20,
                  "missing": 20,
                  "gain": 0.67972517,
                  "cover": 129,
                  "children": [
                    {
                      "nodeid": 19,
                      "leaf": -0.00331429066,
                      "cover": 110
                    },
                    {
                      "nodeid": 20,
                      "leaf": -0.041215349,
                      "cover": 19
                    }
                  ]
                }
              ]
            }
          ]
        }
      ]
    },
    {
      "nodeid": 0,
      "depth": 0,
      "split": "chase_value_share",
      "split_condition": 0.00756681804,
      "yes": 1,
      "no": 2,
      "missing": 2,
      "gain": 5.58013248,
      "cover": 892,
      "children": [
        {
          "nodeid": 1,
          "depth": 1,
          "split": "price_volatility_6mo",
          "split_condition": 16.073,
          "yes": 3,
          "no": 4,
          "missing": 4,
          "gain": 1.34691954,
          "cover": 60,
          "children": [
            {
              "nodeid": 3,
              "depth": 2,
              "split": "price_volatility_6mo",
              "split_condition": 8.12100029,
              "yes": 7,
              "no": 8,
              "missing": 8,
              "gain": 0.839546323,
              "cover": 39,
              "children": [
                {
                  "nodeid": 7,
                  "leaf": -0.0469038896,
                  "cover": 25
                },
                {
                  "nodeid": 8,
                  "leaf": 0.00794354081,
                  "cover": 14
                }
              ]
            },
            {
              "nodeid": 4,
              "leaf": -0.094599545,
              "cover": 21
            }
          ]
        },
        {
          "nodeid": 2,
          "depth": 1,
          "split": "community_score",
          "split_condition": 37,
          "yes": 5,
          "no": 6,
          "missing": 6,
          "gain": 2.27028728,
          "cover": 832,
          "children": [
            {
              "nodeid": 5,
              "depth": 2,
              "split": "reddit_score",
              "split_condition": 7,
              "yes": 9,
              "no": 10,
              "missing": 10,
              "gain": 1.15730071,
              "cover": 173,
              "children": [
                {
                  "nodeid": 9,
                  "depth": 3,
                  "split": "price_volatility_6mo",
                  "split_condition": 5.63950014,
                  "yes": 13,
                  "no": 14,
                  "missing": 13,
                  "gain": 0.741064548,
                  "cover": 113,
                  "children": [
                    {
                      "nodeid": 13,
                      "leaf": -0.0518795624,
                      "cover": 33
                    },
                    {
                      "nodeid": 14,
                      "leaf": -0.0151047949,
                      "cover": 80
                    }
                  ]
                },
                {
                  "nodeid": 10,
                  "depth": 3,
                  "split": "drawdown_12mo",
                  "split_condition": -19.6240005,
                  "yes": 15,
                  "no": 16,
                  "missing": 16,
                  "gain": 0.955482483,
                  "cover": 60,
                  "children": [
                    {
                      "nodeid": 15,
                      "leaf": 0.0500812605,
                      "cover": 10
                    },
                    {
                      "nodeid": 16,
                      "leaf": -0.00665091584,
                      "cover": 50
                    }
                  ]
                }
              ]
            },
            {
              "nodeid": 6,
              "depth": 2,
              "split": "chase_value_share",
              "split_condition": 1.52030408,
              "yes": 11,
              "no": 12,
              "missing": 12,
              "gain": 4.32664728,
              "cover": 659,
              "children": [
                {
                  "nodeid": 11,
                  "depth": 3,
                  "split": "chase_value_share",
                  "split_condition": 0.0122724632,
                  "yes": 17,
                  "no": 18,
                  "missing": 18,
                  "gain": 1.87680221,
                  "cover": 641,
                  "children": [
                    {
                      "nodeid": 17,
                      "leaf": -0.0104295649,
                      "cover": 191
                    },
                    {
                      "nodeid": 18,
                      "leaf": 0.0129336715,
                      "cover": 450
                    }
                  ]
                },
                {
                  "nodeid": 12,
                  "leaf": 0.0944445953,
                  "cover": 18
                }
              ]
            }
          ]
        }
      ]
    },
    {
      "nodeid": 0,
      "depth": 0,
      "split": "market_cycle_score",
      "split_condition": 63,
      "yes": 1,
      "no": 2,
      "missing": 2,
      "gain": 4.22118473,
      "cover": 892,
      "children": [
        {
          "nodeid": 1,
          "depth": 1,
          "split": "chase_value_share",
          "split_condition": 0.00720925815,
          "yes": 3,
          "no": 4,
          "missing": 4,
          "gain": 1.4073925,
          "cover": 432,
          "children": [
            {
              "nodeid": 3,
              "leaf": -0.0571654625,
              "cover": 25
            },
            {
              "nodeid": 4,
              "depth": 2,
              "split": "most_expensive_card_price",
              "split_condition": 120,
              "yes": 7,
              "no": 8,
              "missing": 8,
              "gain": 2.11839914,
              "cover": 407,
              "children": [
                {
                  "nodeid": 7,
                  "depth": 3,
                  "split": "set_age_years",
                  "split_condition": 6.82819986,
                  "yes": 13,
                  "no": 14,
                  "missing": 14,
                  "gain": 0.486920595,
                  "cover": 143,
                  "children": [
                    {
                      "nodeid": 13,
                      "leaf": -0.0394231975,
                      "cover": 91
                    },
                    {
                      "nodeid": 14,
                      "leaf": -0.0122786677,
                      "cover": 52
                    }
                  ]
                },
                {
                  "nodeid": 8,
                  "depth": 3,
                  "split": "chase_value_share",
                  "split_condition": 1.25,
                  "yes": 15,
                  "no": 16,
                  "missing": 16,
                  "gain": 1.71329296,
                  "cover": 264,
                  "children": [
                    {
                      "nodeid": 15,
                      "leaf": -0.00458340487,
                      "cover": 253
                    },
                    {
                      "nodeid": 16,
                      "leaf": 0.062839888,
                      "cover": 11
                    }
                  ]
                }
              ]
            }
          ]
        },
        {
          "nodeid": 2,
          "depth": 1,
          "split": "market_cycle_score",
          "split_condition": 92,
          "yes": 5,
          "no": 6,
          "missing": 6,
          "gain": 4.70447111,
          "cover": 460,
          "children": [
            {
              "nodeid": 5,
              "depth": 2,
              "split": "set_age_years",
              "split_condition": 6.24779987,
              "yes": 9,
              "no": 10,
              "missing": 10,
              "gain": 3.08666372,
              "cover": 403,
              "children": [
                {
                  "nodeid": 9,
                  "depth": 3,
                  "split": "market_cycle_score",
                  "split_condition": 67,
                  "yes": 17,
                  "no": 18,
                  "missing": 18,
                  "gain": 2.60404396,
                  "cover": 267,
                  "children": [
                    {
                      "nodeid": 17,
                      "leaf": 0.00295222783,
                      "cover": 85
                    },
                    {
                      "nodeid": 18,
                      "leaf": 0.0458793119,
                      "cover": 182
                    }
                  ]
                },
                {
                  "nodeid": 10,
                  "depth": 3,
                  "split": "most_expensive_card_price",
                  "split_condition": 400,
                  "yes": 19,
                  "no": 20,
                  "missing": 20,
                  "gain": 0.952739656,
                  "cover": 136,
                  "children": [
                    {
                      "nodeid": 19,
                      "leaf": 0.00278105261,
                      "cover": 119
                    },
                    {
                      "nodeid": 20,
                      "leaf": -0.0422399454,
                      "cover": 17
                    }
                  ]
                }
              ]
            },
            {
              "nodeid": 6,
              "depth": 2,
              "split": "most_expensive_card_price",
              "split_condition": 82,
              "yes": 11,
              "no": 12,
              "missing": 12,
              "gain": 0.790256262,
              "cover": 57,
              "children": [
                {
                  "nodeid": 11,
                  "leaf": 0,
                  "cover": 15
                },
                {
                  "nodeid": 12,
                  "depth": 3,
                  "split": "most_expensive_card_price",
                  "split_condition": 175,
                  "yes": 21,
                  "no": 22,
                  "missing": 22,
                  "gain": 0.226915359,
                  "cover": 42,
                  "children": [
                    {
                      "nodeid": 21,
                      "leaf": -0.0652234852,
                      "cover": 24
                    },
                    {
                      "nodeid": 22,
                      "leaf": -0.0212861337,
                      "cover": 18
                    }
                  ]
                }
              ]
            }
          ]
        }
      ]
    },
    {
      "nodeid": 0,
      "depth": 0,
      "split": "price_volatility_6mo",
      "split_condition": 0.934400022,
      "yes": 1,
      "no": 2,
      "missing": 1,
      "gain": 2.92412066,
      "cover": 892,
      "children": [
        {
          "nodeid": 1,
          "depth": 1,
          "split": "chase_value_share",
          "split_condition": 0.423554331,
          "yes": 3,
          "no": 4,
          "missing": 4,
          "gain": 1.56737924,
          "cover": 118,
          "children": [
            {
              "nodeid": 3,
              "depth": 2,
              "split": "price_volatility_6mo",
              "split_condition": 0.0878000036,
              "yes": 7,
              "no": 8,
              "missing": 7,
              "gain": 0.245560169,
              "cover": 83,
              "children": [
                {
                  "nodeid": 7,
                  "leaf": -0.048692923,
                  "cover": 69
                },
                {
                  "nodeid": 8,
                  "leaf": -0.0104368841,
                  "cover": 14
                }
              ]
            },
            {
              "nodeid": 4,
              "depth": 2,
              "split": "chase_value_share",
              "split_condition": 1.34328353,
              "yes": 9,
              "no": 10,
              "missing": 10,
              "gain": 0.34434402,
              "cover": 35,
              "children": [
                {
                  "nodeid": 9,
                  "depth": 3,
                  "split": "chase_value_share",
                  "split_condition": 0.949999988,
                  "yes": 15,
                  "no": 16,
                  "missing": 16,
                  "gain": 0.484740674,
                  "cover": 25,
                  "children": [
                    {
                      "nodeid": 15,
                      "leaf": 0.0129951062,
                      "cover": 15
                    },
                    {
                      "nodeid": 16,
                      "leaf": -0.0341769457,
                      "cover": 10
                    }
                  ]
                },
                {
                  "nodeid": 10,
                  "leaf": 0.0296496283,
                  "cover": 10
                }
              ]
            }
          ]
        },
        {
          "nodeid": 2,
          "depth": 1,
          "split": "market_cycle_score",
          "split_condition": 63,
          "yes": 5,
          "no": 6,
          "missing": 6,
          "gain": 2.78732634,
          "cover": 774,
          "children": [
            {
              "nodeid": 5,
              "depth": 2,
              "split": "price_volatility_6mo",
              "split_condition": 43.6114006,
              "yes": 11,
              "no": 12,
              "missing": 12,
              "gain": 0.522216678,
              "cover": 352,
              "children": [
                {
                  "nodeid": 11,
                  "depth": 3,
                  "split": "reddit_score",
                  "split_condition": 15,
                  "yes": 17,
                  "no": 18,
                  "missing": 18,
                  "gain": 0.725557804,
                  "cover": 299,
                  "children": [
                    {
                      "nodeid": 17,
                      "leaf": -0.025350986,
                      "cover": 107
                    },
                    {
                      "nodeid": 18,
                      "leaf": -0.00459582312,
                      "cover": 192
                    }
                  ]
                },
                {
                  "nodeid": 12,
                  "depth": 3,
                  "split": "price_volatility_6mo",
                  "split_condition": 75.2843018,
                  "yes": 19,
                  "no": 20,
                  "missing": 20,
                  "gain": 0.451401532,
                  "cover": 53,
                  "children": [
                    {
                      "nodeid": 19,
                      "leaf": 0.017474886,
                      "cover": 43
                    },
                    {
                      "nodeid": 20,
                      "leaf": -0.0219193995,
                      "cover": 10
                    }
                  ]
                }
              ]
            },
            {
              "nodeid": 6,
              "depth": 2,
              "split": "market_cycle_score",
              "split_condition": 92,
              "yes": 13,
              "no": 14,
              "missing": 14,
              "gain": 2.26199055,
              "cover": 422,
              "children": [
                {
                  "nodeid": 13,
                  "depth": 3,
                  "split": "era_encoded",
                  "split_condition": 2,
                  "yes": 21,
                  "no": 22,
                  "missing": 22,
                  "gain": 1.73047137,
                  "cover": 392,
                  "children": [
                    {
                      "nodeid": 21,
                      "leaf": 0.0274052378,
                      "cover": 277
                    },
                    {
                      "nodeid": 22,
                      "leaf": -0.00132683234,
                      "cover": 115
                    }
                  ]
                },
                {
                  "nodeid": 14,
                  "depth": 3,
                  "split": "price_volatility_6mo",
                  "split_condition": 7.02320004,
                  "yes": 23,
                  "no": 24,
                  "missing": 24,
                  "gain": 0.012147069,
                  "cover": 30,
                  "children": [
                    {
                      "nodeid": 23,
                      "leaf": -0.0106466794,
                      "cover": 10
                    },
                    {
                      "nodeid": 24,
                      "leaf": -0.0396755375,
                      "cover": 20
                    }
                  ]
                }
              ]
            }
          ]
        }
      ]
    },
    {
      "nodeid": 0,
      "depth": 0,
      "split": "market_cycle_score",
      "split_condition": 63,
      "yes": 1,
      "no": 2,
      "missing": 2,
      "gain": 1.67935574,
      "cover": 892,
      "children": [
        {
          "nodeid": 1,
          "depth": 1,
          "split": "drawdown_12mo",
          "split_condition": -45.2029991,
          "yes": 3,
          "no": 4,
          "missing": 4,
          "gain": 1.82747817,
          "cover": 432,
          "children": [
            {
              "nodeid": 3,
              "depth": 2,
              "split": "most_expensive_card_price",
              "split_condition": 300,
              "yes": 7,
              "no": 8,
              "missing": 8,
              "gain": 0.28667444,
              "cover": 41,
              "children": [
                {
                  "nodeid": 7,
                  "leaf": 0.0374416485,
                  "cover": 29
                },
                {
                  "nodeid": 8,
                  "leaf": 0,
                  "cover": 12
                }
              ]
            },
            {
              "nodeid": 4,
              "depth": 2,
              "split": "most_expensive_card_price",
              "split_condition": 1000,
              "yes": 9,
              "no": 10,
              "missing": 10,
              "gain": 1.41618133,
              "cover": 391,
              "children": [
                {
                  "nodeid": 9,
                  "depth": 3,
                  "split": "drawdown_12mo",
                  "split_condition": -0.0659999996,
                  "yes": 15,
                  "no": 16,
                  "missing": 16,
                  "gain": 0.52926898,
                  "cover": 355,
                  "children": [
                    {
                      "nodeid": 15,
                      "leaf": -0.0122082876,
                      "cover": 250
                    },
                    {
                      "nodeid": 16,
                      "leaf": -0.0299393125,
                      "cover": 105
                    }
                  ]
                },
                {
                  "nodeid": 10,
                  "depth": 3,
                  "split": "market_cycle_score",
                  "split_condition": 55,
                  "yes": 17,
                  "no": 18,
                  "missing": 18,
                  "gain": 0.0102186203,
                  "cover": 36,
                  "children": [
                    {
                      "nodeid": 17,
                      "leaf": 0.029586954,
                      "cover": 13
                    },
                    {
                      "nodeid": 18,
                      "leaf": 0.0107016517,
                      "cover": 23
                    }
                  ]
                }
              ]
            }
          ]
        },
        {
          "nodeid": 2,
          "depth": 1,
          "split": "history_window_missing_flag",
          "split_condition": 1,
          "yes": 5,
          "no": 6,
          "missing": 6,
          "gain": 2.42286634,
          "cover": 460,
          "children": [
            {
              "nodeid": 5,
              "depth": 2,
              "split": "community_score",
              "split_condition": 37,
              "yes": 11,
              "no": 12,
              "missing": 12,
              "gain": 1.84014535,
              "cover": 376,
              "children": [
                {
                  "nodeid": 11,
                  "depth": 3,
                  "split": "most_expensive_card_price",
                  "split_condition": 110,
                  "yes": 19,
                  "no": 20,
                  "missing": 20,
                  "gain": 1.5987463,
                  "cover": 79,
                  "children": [
                    {
                      "nodeid": 19,
                      "leaf": 0.0121572632,
                      "cover": 45
                    },
                    {
                      "nodeid": 20,
                      "leaf": -0.0417597257,
                      "cover": 34
                    }
                  ]
                },
                {
                  "nodeid": 12,
                  "depth": 3,
                  "split": "most_expensive_card_price",
                  "split_condition": 95,
                  "yes": 21,
                  "no": 22,
                  "missing": 22,
                  "gain": 1.19302297,
                  "cover": 297,
                  "children": [
                    {
                      "nodeid": 21,
                      "leaf": -0.00502218027,
                      "cover": 51
                    },
                    {
                      "nodeid": 22,
                      "leaf": 0.0274686106,
                      "cover": 246
                    }
                  ]
                }
              ]
            },
            {
              "nodeid": 6,
              "depth": 2,
              "split": "most_expensive_card_price",
              "split_condition": 160,
              "yes": 13,
              "no": 14,
              "missing": 14,
              "gain": 0.73807025,
              "cover": 84,
              "children": [
                {
                  "nodeid": 13,
                  "depth": 3,
                  "split": "market_cycle_score",
                  "split_condition": 92,
                  "yes": 23,
                  "no": 24,
                  "missing": 24,
                  "gain": 0.858660758,
                  "cover": 46,
                  "children": [
                    {
                      "nodeid": 23,
                      "leaf": 0.0295923855,
                      "cover": 15
                    },
                    {
                      "nodeid": 24,
                      "leaf": -0.0219345447,
                      "cover": 31
                    }
                  ]
                },
                {
                  "nodeid": 14,
                  "leaf": -0.0409697592,
                  "cover": 38
                }
              ]
            }
          ]
        }
      ]
    },
    {
      "nodeid": 0,
      "depth": 0,
      "split": "market_cycle_score",
      "split_condition": 67,
      "yes": 1,
      "no": 2,
      "missing": 2,
      "gain": 1.19248128,
      "cover": 892,
      "children": [
        {
          "nodeid": 1,
          "depth": 1,
          "split": "drawdown_12mo",
          "split_condition": -45.2029991,
          "yes": 3,
          "no": 4,
          "missing": 4,
          "gain": 1.1976701,
          "cover": 557,
          "children": [
            {
              "nodeid": 3,
              "depth": 2,
              "split": "reddit_score",
              "split_condition": 7,
              "yes": 7,
              "no": 8,
              "missing": 8,
              "gain": 0.246640921,
              "cover": 46,
              "children": [
                {
                  "nodeid": 7,
                  "leaf": -0.000141609096,
                  "cover": 11
                },
                {
                  "nodeid": 8,
                  "depth": 3,
                  "split": "most_expensive_card_price",
                  "split_condition": 300,
                  "yes": 15,
                  "no": 16,
                  "missing": 16,
                  "gain": 0.35494709,
                  "cover": 35,
                  "children": [
                    {
                      "nodeid": 15,
                      "leaf": 0.0425948277,
                      "cover": 23
                    },
                    {
                      "nodeid": 16,
                      "leaf": 0,
                      "cover": 12
                    }
                  ]
                }
              ]
            },
            {
              "nodeid": 4,
              "depth": 2,
              "split": "most_expensive_card_price",
              "split_condition": 1000,
              "yes": 9,
              "no": 10,
              "missing": 10,
              "gain": 0.992015719,
              "cover": 511,
              "children": [
                {
                  "nodeid": 9,
                  "depth": 3,
                  "split": "price_trajectory_24mo",
                  "split_condition": 246.587997,
                  "yes": 17,
                  "no": 18,
                  "missing": 18,
                  "gain": 0.430069923,
                  "cover": 465,
                  "children": [
                    {
                      "nodeid": 17,
                      "leaf": -0.00249614613,
                      "cover": 145
                    },
                    {
                      "nodeid": 18,
                      "leaf": -0.016051393,
                      "cover": 320
                    }
                  ]
                },
                {
                  "nodeid": 10,
                  "depth": 3,
                  "split": "price_trajectory_24mo",
                  "split_condition": 232.690002,
                  "yes": 19,
                  "no": 20,
                  "missing": 19,
                  "gain": 0.253031731,
                  "cover": 46,
                  "children": [
                    {
                      "nodeid": 19,
                      "leaf": 0.0264985319,
                      "cover": 31
                    },
                    {
                      "nodeid": 20,
                      "leaf": -0.00165744592,
                      "cover": 15
                    }
                  ]
                }
              ]
            }
          ]
        },
        {
          "nodeid": 2,
          "depth": 1,
          "split": "era_encoded",
          "split_condition": 2,
          "yes": 5,
          "no": 6,
          "missing": 6,
          "gain": 2.43384814,
          "cover": 335,
          "children": [
            {
              "nodeid": 5,
              "depth": 2,
              "split": "reddit_score",
              "split_condition": 12,
              "yes": 11,
              "no": 12,
              "missing": 12,
              "gain": 1.22071552,
              "cover": 220,
              "children": [
                {
                  "nodeid": 11,
                  "depth": 3,
                  "split": "reddit_score",
                  "split_condition": 4,
                  "yes": 21,
                  "no": 22,
                  "missing": 22,
                  "gain": 2.21900606,
                  "cover": 106,
                  "children": [
                    {
                      "nodeid": 21,
                      "leaf": 0.0672595799,
                      "cover": 14
                    },
                    {
                      "nodeid": 22,
                      "leaf": -0.00737126032,
                      "cover": 92
                    }
                  ]
                },
                {
                  "nodeid": 12,
                  "depth": 3,
                  "split": "most_expensive_card_price",
                  "split_condition": 100,
                  "yes": 23,
                  "no": 24,
                  "missing": 24,
                  "gain": 0.363363028,
                  "cover": 114,
                  "children": [
                    {
                      "nodeid": 23,
                      "leaf": 0.0085559357,
                      "cover": 24
                    },
                    {
                      "nodeid": 24,
                      "leaf": 0.0407858342,
                      "cover": 90
                    }
                  ]
                }
              ]
            },
            {
              "nodeid": 6,
              "depth": 2,
              "split": "price_trajectory_24mo",
              "split_condition": -2.63100004,
              "yes": 13,
              "no": 14,
              "missing": 14,
              "gain": 1.03566742,
              "cover": 115,
              "children": [
                {
                  "nodeid": 13,
                  "depth": 3,
                  "split": "drawdown_12mo",
                  "split_condition": -36.3359985,
                  "yes": 25,
                  "no": 26,
                  "missing": 26,
                  "gain": 0.0603521168,
                  "cover": 29,
                  "children": [
                    {
                      "nodeid": 25,
                      "leaf": 0,
                      "cover": 10
                    },
                    {
                      "nodeid": 26,
                      "leaf": 0.0212850161,
                      "cover": 19
                    }
                  ]
                },
                {
                  "nodeid": 14,
                  "depth": 3,
                  "split": "drawdown_12mo",
                  "split_condition": -0.762000024,
                  "yes": 27,
                  "no": 28,
                  "missing": 28,
                  "gain": 0.386108041,
                  "cover": 86,
                  "children": [
                    {
                      "nodeid": 27,
                      "leaf": -0.0135422293,
                      "cover": 61
                    },
                    {
                      "nodeid": 28,
                      "leaf": -0.0449208915,
                      "cover": 25
                    }
                  ]
                }
              ]
            }
          ]
        }
      ]
    },
    {
      "nodeid": 0,
      "depth": 0,
      "split": "price_volatility_6mo",
      "split_condition": 0.934400022,
      "yes": 1,
      "no": 2,
      "missing": 1,
      "gain": 0.868209183,
      "cover": 892,
      "children": [
        {
          "nodeid": 1,
          "depth": 1,
          "split": "drawdown_12mo",
          "split_condition": -0.0659999996,
          "yes": 3,
          "no": 4,
          "missing": 4,
          "gain": 0.401135623,
          "cover": 118,
          "children": [
            {
              "nodeid": 3,
              "depth": 2,
              "split": "reddit_score",
              "split_condition": 39,
              "yes": 7,
              "no": 8,
              "missing": 8,
              "gain": 0.0661495551,
              "cover": 29,
              "children": [
                {
                  "nodeid": 7,
                  "leaf": -0.00262612198,
                  "cover": 19
                },
                {
                  "nodeid": 8,
                  "leaf": 0.0136186024,
                  "cover": 10
                }
              ]
            },
            {
              "nodeid": 4,
              "depth": 2,
              "split": "reddit_score",
              "split_condition": 42,
              "yes": 9,
              "no": 10,
              "missing": 10,
              "gain": 0.163749933,
              "cover": 89,
              "children": [
                {
                  "nodeid": 9,
                  "depth": 3,
                  "split": "reddit_score",
                  "split_condition": 15,
                  "yes": 13,
                  "no": 14,
                  "missing": 14,
                  "gain": 0.451733708,
                  "cover": 69,
                  "children": [
                    {
                      "nodeid": 13,
                      "leaf": -0.0231585074,
                      "cover": 54
                    },
                    {
                      "nodeid": 14,
                      "leaf": 0.0115235085,
                      "cover": 15
                    }
                  ]
                },
                {
                  "nodeid": 10,
                  "leaf": -0.0386321582,
                  "cover": 20
                }
              ]
            }
          ]
        },
        {
          "nodeid": 2,
          "depth": 1,
          "split": "reddit_score",
          "split_condition": 4,
          "yes": 5,
          "no": 6,
          "missing": 6,
          "gain": 1.15368211,
          "cover": 774,
          "children": [
            {
              "nodeid": 5,
              "leaf": 0.0420193188,
              "cover": 23
            },
            {
              "nodeid": 6,
              "depth": 2,
              "split": "reddit_score",
              "split_condition": 12,
              "yes": 11,
              "no": 12,
              "missing": 12,
              "gain": 1.11962378,
              "cover": 751,
              "children": [
                {
                  "nodeid": 11,
                  "depth": 3,
                  "split": "price_trajectory_24mo",
                  "split_condition": 88.8550034,
                  "yes": 15,
                  "no": 16,
                  "missing": 15,
                  "gain": 0.672303081,
                  "cover": 244,
                  "children": [
                    {
                      "nodeid": 15,
                      "leaf": -0.00674645323,
                      "cover": 227
                    },
                    {
                      "nodeid": 16,
                      "leaf": -0.0442234874,
                      "cover": 17
                    }
                  ]
                },
                {
                  "nodeid": 12,
                  "depth": 3,
                  "split": "era_encoded",
                  "split_condition": 2,
                  "yes": 17,
                  "no": 18,
                  "missing": 18,
                  "gain": 0.785708785,
                  "cover": 507,
                  "children": [
                    {
                      "nodeid": 17,
                      "leaf": 0.0129808215,
                      "cover": 281
                    },
                    {
                      "nodeid": 18,
                      "leaf": -0.00262672617,
                      "cover": 226
                    }
                  ]
                }
              ]
            }
          ]
        }
      ]
    },
    {
      "nodeid": 0,
      "depth": 0,
      "split": "market_cycle_score",
      "split_condition": 67,
      "yes": 1,
      "no": 2,
      "missing": 2,
      "gain": 0.75198853,
      "cover": 892,
      "children": [
        {
          "nodeid": 1,
          "depth": 1,
          "split": "drawdown_12mo",
          "split_condition": -62.144001,
          "yes": 3,
          "no": 4,
          "missing": 4,
          "gain": 0.780623436,
          "cover": 557,
          "children": [
            {
              "nodeid": 3,
              "depth": 2,
              "split": "reddit_score",
              "split_condition": 7,
              "yes": 7,
              "no": 8,
              "missing": 8,
              "gain": 0.278501928,
              "cover": 30,
              "children": [
                {
                  "nodeid": 7,
                  "leaf": 0,
                  "cover": 11
                },
                {
                  "nodeid": 8,
                  "leaf": 0.0360808745,
                  "cover": 19
                }
              ]
            },
            {
              "nodeid": 4,
              "depth": 2,
              "split": "most_expensive_card_price",
              "split_condition": 450,
              "yes": 9,
              "no": 10,
              "missing": 10,
              "gain": 0.587795377,
              "cover": 527,
              "children": [
                {
                  "nodeid": 9,
                  "depth": 3,
                  "split": "drawdown_12mo",
                  "split_condition": -14.2620001,
                  "yes": 15,
                  "no": 16,
                  "missing": 16,
                  "gain": 0.515565276,
                  "cover": 430,
                  "children": [
                    {
                      "nodeid": 15,
                      "leaf": 0,
                      "cover": 138
                    },
                    {
                      "nodeid": 16,
                      "leaf": -0.0146240862,
                      "cover": 292
                    }
                  ]
                },
                {
                  "nodeid": 10,
                  "depth": 3,
                  "split": "market_cycle_score",
                  "split_condition": 55,
                  "yes": 17,
                  "no": 18,
                  "missing": 18,
                  "gain": 0.278159201,
                  "cover": 97,
                  "children": [
                    {
                      "nodeid": 17,
                      "leaf": 0.0198914576,
                      "cover": 35
                    },
                    {
                      "nodeid": 18,
                      "leaf": -0.00088618556,
                      "cover": 62
                    }
                  ]
                }
              ]
            }
          ]
        },
        {
          "nodeid": 2,
          "depth": 1,
          "split": "era_encoded",
          "split_condition": 2,
          "yes": 5,
          "no": 6,
          "missing": 6,
          "gain": 1.41365004,
          "cover": 335,
          "children": [
            {
              "nodeid": 5,
              "depth": 2,
              "split": "community_score",
              "split_condition": 41,
              "yes": 11,
              "no": 12,
              "missing": 12,
              "gain": 1.21797752,
              "cover": 220,
              "children": [
                {
                  "nodeid": 11,
                  "depth": 3,
                  "split": "most_expensive_card_price",
                  "split_condition": 75,
                  "yes": 19,
                  "no": 20,
                  "missing": 20,
                  "gain": 0.322363108,
                  "cover": 89,
                  "children": [
                    {
                      "nodeid": 19,
                      "leaf": 0.0160596501,
                      "cover": 24
                    },
                    {
                      "nodeid": 20,
                      "leaf": -0.00891555194,
                      "cover": 65
                    }
                  ]
                },
                {
                  "nodeid": 12,
                  "depth": 3,
                  "split": "most_expensive_card_price",
                  "split_condition": 220,
                  "yes": 21,
                  "no": 22,
                  "missing": 22,
                  "gain": 0.652380228,
                  "cover": 131,
                  "children": [
                    {
                      "nodeid": 21,
                      "leaf": 0.0429354422,
                      "cover": 62
                    },
                    {
                      "nodeid": 22,
                      "leaf": 0.0126981353,
                      "cover": 69
                    }
                  ]
                }
              ]
            },
            {
              "nodeid": 6,
              "depth": 2,
              "split": "drawdown_12mo",
              "split_condition": -17.9839993,
              "yes": 13,
              "no": 14,
              "missing": 14,
              "gain": 0.496979684,
              "cover": 115,
              "children": [
                {
                  "nodeid": 13,
                  "depth": 3,
                  "split": "community_score",
                  "split_condition": 49,
                  "yes": 23,
                  "no": 24,
                  "missing": 24,
                  "gain": 0.0479951948,
                  "cover": 30,
                  "children": [
                    {
                      "nodeid": 23,
                      "leaf": 0.0148323746,
                      "cover": 19
                    },
                    {
                      "nodeid": 24,
                      "leaf": 0,
                      "cover": 11
                    }
                  ]
                },
                {
                  "nodeid": 14,
                  "depth": 3,
                  "split": "most_expensive_card_price",
                  "split_condition": 300,
                  "yes": 25,
                  "no": 26,
                  "missing": 26,
                  "gain": 0.256847084,
                  "cover": 85,
                  "children": [
                    {
                      "nodeid": 25,
                      "leaf": -0.0106264008,
                      "cover": 70
                    },
                    {
                      "nodeid": 26,
                      "leaf": -0.0395136252,
                      "cover": 15
                    }
                  ]
                }
              ]
            }
          ]
        }
      ]
    },
    {
      "nodeid": 0,
      "depth": 0,
      "split": "history_window_missing_flag",
      "split_condition": 1,
      "yes": 1,
      "no": 2,
      "missing": 2,
      "gain": 0.802920043,
      "cover": 892,
      "children": [
        {
          "nodeid": 1,
          "depth": 1,
          "split": "reddit_score",
          "split_condition": 4,
          "yes": 3,
          "no": 4,
          "missing": 4,
          "gain": 0.76153326,
          "cover": 669,
          "children": [
            {
              "nodeid": 3,
              "leaf": 0.0465459749,
              "cover": 11
            },
            {
              "nodeid": 4,
              "depth": 2,
              "split": "reddit_score",
              "split_condition": 12,
              "yes": 7,
              "no": 8,
              "missing": 8,
              "gain": 0.857707739,
              "cover": 658,
              "children": [
                {
                  "nodeid": 7,
                  "depth": 3,
                  "split": "price_trajectory_24mo",
                  "split_condition": 88.8550034,
                  "yes": 13,
                  "no": 14,
                  "missing": 13,
                  "gain": 0.442142338,
                  "cover": 217,
                  "children": [
                    {
                      "nodeid": 13,
                      "leaf": -0.00461162068,
                      "cover": 200
                    },
                    {
                      "nodeid": 14,
                      "leaf": -0.0352139734,
                      "cover": 17
                    }
                  ]
                },
                {
                  "nodeid": 8,
                  "depth": 3,
                  "split": "era_encoded",
                  "split_condition": 2,
                  "yes": 15,
                  "no": 16,
                  "missing": 16,
                  "gain": 0.523375034,
                  "cover": 441,
                  "children": [
                    {
                      "nodeid": 15,
                      "leaf": 0.0137735028,
                      "cover": 229
                    },
                    {
                      "nodeid": 16,
                      "leaf": 0,
                      "cover": 212
                    }
                  ]
                }
              ]
            }
          ]
        },
        {
          "nodeid": 2,
          "depth": 1,
          "split": "reddit_score",
          "split_condition": 42,
          "yes": 5,
          "no": 6,
          "missing": 6,
          "gain": 0.748286188,
          "cover": 223,
          "children": [
            {
              "nodeid": 5,
              "depth": 2,
              "split": "most_expensive_card_price",
              "split_condition": 55,
              "yes": 9,
              "no": 10,
              "missing": 10,
              "gain": 0.503540039,
              "cover": 168,
              "children": [
                {
                  "nodeid": 9,
                  "leaf": -0.0382373296,
                  "cover": 10
                },
                {
                  "nodeid": 10,
                  "depth": 3,
                  "split": "drawdown_12mo",
                  "split_condition": -18.066,
                  "yes": 17,
                  "no": 18,
                  "missing": 18,
                  "gain": 0.763359666,
                  "cover": 158,
                  "children": [
                    {
                      "nodeid": 17,
                      "leaf": 0.0273688585,
                      "cover": 28
                    },
                    {
                      "nodeid": 18,
                      "leaf": -0.00656341761,
                      "cover": 130
                    }
                  ]
                }
              ]
            },
            {
              "nodeid": 6,
              "depth": 2,
              "split": "drawdown_12mo",
              "split_condition": -27.6830006,
              "yes": 11,
              "no": 12,
              "missing": 12,
              "gain": 0.275114894,
              "cover": 55,
              "children": [
                {
                  "nodeid": 11,
                  "leaf": -0.000488241756,
                  "cover": 13
                },
                {
                  "nodeid": 12,
                  "leaf": -0.036892157,
                  "cover": 42
                }
              ]
            }
          ]
        }
      ]
    },
    {
      "nodeid": 0,
      "depth": 0,
      "split": "price_trajectory_24mo",
      "split_condition": 326.278015,
      "yes": 1,
      "no": 2,
      "missing": 1,
      "gain": 0.541753709,
      "cover": 892,
      "children": [
        {
          "nodeid": 1,
          "depth": 1,
          "split": "price_trajectory_24mo",
          "split_condition": 99.0920029,
          "yes": 3,
          "no": 4,
          "missing": 3,
          "gain": 0.5117715,
          "cover": 863,
          "children": [
            {
              "nodeid": 3,
              "depth": 2,
              "split": "drawdown_12mo",
              "split_condition": -14.6829996,
              "yes": 7,
              "no": 8,
              "missing": 8,
              "gain": 0.480182618,
              "cover": 777,
              "children": [
                {
                  "nodeid": 7,
                  "depth": 3,
                  "split": "community_score",
                  "split_condition": 54,
                  "yes": 11,
                  "no": 12,
                  "missing": 12,
                  "gain": 0.241668701,
                  "cover": 238,
                  "children": [
                    {
                      "nodeid": 11,
                      "leaf": 0.0101444656,
                      "cover": 179
                    },
                    {
                      "nodeid": 12,
                      "leaf": -0.00389388739,
                      "cover": 59
                    }
                  ]
                },
                {
                  "nodeid": 8,
                  "depth": 3,
                  "split": "price_volatility_6mo",
                  "split_condition": 18.1343002,
                  "yes": 13,
                  "no": 14,
                  "missing": 14,
                  "gain": 0.347156107,
                  "cover": 539,
                  "children": [
                    {
                      "nodeid": 13,
                      "leaf": -0.00135919615,
                      "cover": 423
                    },
                    {
                      "nodeid": 14,
                      "leaf": -0.013672254,
                      "cover": 116
                    }
                  ]
                }
              ]
            },
            {
              "nodeid": 4,
              "depth": 2,
              "split": "reddit_score",
              "split_condition": 15,
              "yes": 9,
              "no": 10,
              "missing": 10,
              "gain": 0.659114718,
              "cover": 86,
              "children": [
                {
                  "nodeid": 9,
                  "leaf": -0.0198210925,
                  "cover": 13
                },
                {
                  "nodeid": 10,
                  "depth": 3,
                  "split": "community_score",
                  "split_condition": 50,
                  "yes": 15,
                  "no": 16,
                  "missing": 16,
                  "gain": 0.17099762,
                  "cover": 73,
                  "children": [
                    {
                      "nodeid": 15,
                      "leaf": 0.0359628275,
                      "cover": 25
                    },
                    {
                      "nodeid": 16,
                      "leaf": 0.0120985704,
                      "cover": 48
                    }
                  ]
                }
              ]
            }
          ]
        },
        {
          "nodeid": 2,
          "depth": 1,
          "split": "price_volatility_6mo",
          "split_condition": 11.0467997,
          "yes": 5,
          "no": 6,
          "missing": 6,
          "gain": 0.430879593,
          "cover": 29,
          "children": [
            {
              "nodeid": 5,
              "leaf": 0,
              "cover": 15
            },
            {
              "nodeid": 6,
              "leaf": -0.0449675731,
              "cover": 14
            }
          ]
        }
      ]
    },
    {
      "nodeid": 0,
      "depth": 0,
      "split": "market_cycle_score",
      "split_condition": 67,
      "yes": 1,
      "no": 2,
      "missing": 2,
      "gain": 0.404745281,
      "cover": 892,
      "children": [
        {
          "nodeid": 1,
          "depth": 1,
          "split": "drawdown_12mo",
          "split_condition": -62.144001,
          "yes": 3,
          "no": 4,
          "missing": 4,
          "gain": 0.519628823,
          "cover": 557,
          "children": [
            {
              "nodeid": 3,
              "depth": 2,
              "split": "reddit_score",
              "split_condition": 7,
              "yes": 7,
              "no": 8,
              "missing": 8,
              "gain": 0.15788427,
              "cover": 30,
              "children": [
                {
                  "nodeid": 7,
                  "leaf": 0,
                  "cover": 11
                },
                {
                  "nodeid": 8,
                  "leaf": 0.0290327352,
                  "cover": 19
                }
              ]
            },
            {
              "nodeid": 4,
              "depth": 2,
              "split": "most_expensive_card_price",
              "split_condition": 1000,
              "yes": 9,
              "no": 10,
              "missing": 10,
              "gain": 0.35392049,
              "cover": 527,
              "children": [
                {
                  "nodeid": 9,
                  "depth": 3,
                  "split": "community_score",
                  "split_condition": 51,
                  "yes": 13,
                  "no": 14,
                  "missing": 14,
                  "gain": 0.182549655,
                  "cover": 481,
                  "children": [
                    {
                      "nodeid": 13,
                      "leaf": -0.00434369547,
                      "cover": 369
                    },
                    {
                      "nodeid": 14,
                      "leaf": -0.0138537958,
                      "cover": 112
                    }
                  ]
                },
                {
                  "nodeid": 10,
                  "depth": 3,
                  "split": "market_cycle_score",
                  "split_condition": 55,
                  "yes": 15,
                  "no": 16,
                  "missing": 16,
                  "gain": 0.0278666914,
                  "cover": 46,
                  "children": [
                    {
                      "nodeid": 15,
                      "leaf": 0.0183670204,
                      "cover": 13
                    },
                    {
                      "nodeid": 16,
                      "leaf": 0.00444710394,
                      "cover": 33
                    }
                  ]
                }
              ]
            }
          ]
        },
        {
          "nodeid": 2,
          "depth": 1,
          "split": "reddit_score",
          "split_condition": 4,
          "yes": 5,
          "no": 6,
          "missing": 6,
          "gain": 0.784347355,
          "cover": 335,
          "children": [
            {
              "nodeid": 5,
              "leaf": 0.0448859781,
              "cover": 14
            },
            {
              "nodeid": 6,
              "depth": 2,
              "split": "reddit_score",
              "split_condition": 8,
              "yes": 11,
              "no": 12,
              "missing": 12,
              "gain": 0.632365227,
              "cover": 321,
              "children": [
                {
                  "nodeid": 11,
                  "depth": 3,
                  "split": "most_expensive_card_price",
                  "split_condition": 110,
                  "yes": 17,
                  "no": 18,
                  "missing": 18,
                  "gain": 0.725047171,
                  "cover": 75,
                  "children": [
                    {
                      "nodeid": 17,
                      "leaf": 0.000888307404,
                      "cover": 51
                    },
                    {
                      "nodeid": 18,
                      "leaf": -0.0379250683,
                      "cover": 24
                    }
                  ]
                },
                {
                  "nodeid": 12,
                  "depth": 3,
                  "split": "reddit_score",
                  "split_condition": 60,
                  "yes": 19,
                  "no": 20,
                  "missing": 20,
                  "gain": 0.645398259,
                  "cover": 246,
                  "children": [
                    {
                      "nodeid": 19,
                      "leaf": 0.0139075387,
                      "cover": 180
                    },
                    {
                      "nodeid": 20,
                      "leaf": -0.00838418677,
                      "cover": 66
                    }
                  ]
                }
              ]
            }
          ]
        }
      ]
    },
    {
      "nodeid": 0,
      "depth": 0,
      "split": "set_age_years",
      "split_condition": 0.479099989,
      "yes": 1,
      "no": 2,
      "missing": 2,
      "gain": 0.615410209,
      "cover": 892,
      "children": [
        {
          "nodeid": 1,
          "depth": 1,
          "split": "most_expensive_card_price",
          "split_condition": 220,
          "yes": 3,
          "no": 4,
          "missing": 4,
          "gain": 0.794885576,
          "cover": 70,
          "children": [
            {
              "nodeid": 3,
              "depth": 2,
              "split": "most_expensive_card_price",
              "split_condition": 120,
              "yes": 7,
              "no": 8,
              "missing": 8,
              "gain": 1.07321334,
              "cover": 51,
              "children": [
                {
                  "nodeid": 7,
                  "depth": 3,
                  "split": "reddit_score",
                  "split_condition": 7,
                  "yes": 11,
                  "no": 12,
                  "missing": 12,
                  "gain": 0.109184027,
                  "cover": 24,
                  "children": [
                    {
                      "nodeid": 11,
                      "leaf": -0.0445359498,
                      "cover": 10
                    },
                    {
                      "nodeid": 12,
                      "leaf": -0.00934452098,
                      "cover": 14
                    }
                  ]
                },
                {
                  "nodeid": 8,
                  "depth": 3,
                  "split": "reddit_score",
                  "split_condition": 10,
                  "yes": 13,
                  "no": 14,
                  "missing": 14,
                  "gain": 0.222976238,
                  "cover": 27,
                  "children": [
                    {
                      "nodeid": 13,
                      "leaf": 0.0363381505,
                      "cover": 14
                    },
                    {
                      "nodeid": 14,
                      "leaf": 0,
                      "cover": 13
                    }
                  ]
                }
              ]
            },
            {
              "nodeid": 4,
              "leaf": -0.0475772023,
              "cover": 19
            }
          ]
        },
        {
          "nodeid": 2,
          "depth": 1,
          "split": "reddit_score",
          "split_condition": 4,
          "yes": 5,
          "no": 6,
          "missing": 6,
          "gain": 0.823166132,
          "cover": 822,
          "children": [
            {
              "nodeid": 5,
              "leaf": 0.042649664,
              "cover": 14
            },
            {
              "nodeid": 6,
              "depth": 2,
              "split": "drawdown_12mo",
              "split_condition": -59.4020004,
              "yes": 9,
              "no": 10,
              "missing": 10,
              "gain": 0.42742911,
              "cover": 808,
              "children": [
                {
                  "nodeid": 9,
                  "depth": 3,
                  "split": "reddit_score",
                  "split_condition": 7,
                  "yes": 15,
                  "no": 16,
                  "missing": 16,
                  "gain": 0.128196806,
                  "cover": 33,
                  "children": [
                    {
                      "nodeid": 15,
                      "leaf": 0.00265585515,
                      "cover": 15
                    },
                    {
                      "nodeid": 16,
                      "leaf": 0.0309654362,
                      "cover": 18
                    }
                  ]
                },
                {
                  "nodeid": 10,
                  "depth": 3,
                  "split": "reddit_score",
                  "split_condition": 15,
                  "yes": 17,
                  "no": 18,
                  "missing": 18,
                  "gain": 0.420777768,
                  "cover": 775,
                  "children": [
                    {
                      "nodeid": 17,
                      "leaf": -0.00661216304,
                      "cover": 284
                    },
                    {
                      "nodeid": 18,
                      "leaf": 0.00297681522,
                      "cover": 491
                    }
                  ]
                }
              ]
            }
          ]
        }
      ]
    },
    {
      "nodeid": 0,
      "depth": 0,
      "split": "price_trajectory_24mo",
      "split_condition": 326.278015,
      "yes": 1,
      "no": 2,
      "missing": 1,
      "gain": 0.394569337,
      "cover": 892,
      "children": [
        {
          "nodeid": 1,
          "depth": 1,
          "split": "most_expensive_card_price",
          "split_condition": 1000,
          "yes": 3,
          "no": 4,
          "missing": 4,
          "gain": 0.419460744,
          "cover": 863,
          "children": [
            {
              "nodeid": 3,
              "depth": 2,
              "split": "community_score",
              "split_condition": 54,
              "yes": 7,
              "no": 8,
              "missing": 8,
              "gain": 0.528989196,
              "cover": 804,
              "children": [
                {
                  "nodeid": 7,
                  "depth": 3,
                  "split": "reddit_score",
                  "split_condition": 15,
                  "yes": 11,
                  "no": 12,
                  "missing": 12,
                  "gain": 0.388036966,
                  "cover": 635,
                  "children": [
                    {
                      "nodeid": 11,
                      "leaf": -0.00214466685,
                      "cover": 352
                    },
                    {
                      "nodeid": 12,
                      "leaf": 0.00767434621,
                      "cover": 283
                    }
                  ]
                },
                {
                  "nodeid": 8,
                  "depth": 3,
                  "split": "price_trajectory_24mo",
                  "split_condition": 162.356003,
                  "yes": 13,
                  "no": 14,
                  "missing": 14,
                  "gain": 0.445693225,
                  "cover": 169,
                  "children": [
                    {
                      "nodeid": 13,
                      "leaf": 0.000716192066,
                      "cover": 76
                    },
                    {
                      "nodeid": 14,
                      "leaf": -0.0191669948,
                      "cover": 93
                    }
                  ]
                }
              ]
            },
            {
              "nodeid": 4,
              "depth": 2,
              "split": "price_volatility_6mo",
              "split_condition": 4.54759979,
              "yes": 9,
              "no": 10,
              "missing": 9,
              "gain": 0.486305147,
              "cover": 59,
              "children": [
                {
                  "nodeid": 9,
                  "leaf": 0.0368215255,
                  "cover": 22
                },
                {
                  "nodeid": 10,
                  "depth": 3,
                  "split": "price_volatility_6mo",
                  "split_condition": 5.1402998,
                  "yes": 15,
                  "no": 16,
                  "missing": 16,
                  "gain": 0.107100531,
                  "cover": 37,
                  "children": [
                    {
                      "nodeid": 15,
                      "leaf": -0.0120562902,
                      "cover": 11
                    },
                    {
                      "nodeid": 16,
                      "leaf": 0.00795729179,
                      "cover": 26
                    }
                  ]
                }
              ]
            }
          ]
        },
        {
          "nodeid": 2,
          "depth": 1,
          "split": "price_volatility_6mo",
          "split_condition": 11.0467997,
          "yes": 5,
          "no": 6,
          "missing": 6,
          "gain": 0.31640321,
          "cover": 29,
          "children": [
            {
              "nodeid": 5,
              "leaf": 0,
              "cover": 15
            },
            {
              "nodeid": 6,
              "leaf": -0.038332656,
              "cover": 14
            }
          ]
        }
      ]
    },
    {
      "nodeid": 0,
      "depth": 0,
      "split": "set_age_years",
      "split_condition": 0.479099989,
      "yes": 1,
      "no": 2,
      "missing": 2,
      "gain": 0.446718425,
      "cover": 892,
      "children": [
        {
          "nodeid": 1,
          "depth": 1,
          "split": "most_expensive_card_price",
          "split_condition": 220,
          "yes": 3,
          "no": 4,
          "missing": 4,
          "gain": 0.495480567,
          "cover": 70,
          "children": [
            {
              "nodeid": 3,
              "depth": 2,
              "split": "most_expensive_card_price",
              "split_condition": 120,
              "yes": 7,
              "no": 8,
              "missing": 8,
              "gain": 0.810100436,
              "cover": 51,
              "children": [
                {
                  "nodeid": 7,
                  "leaf": -0.0271568093,
                  "cover": 24
                },
                {
                  "nodeid": 8,
                  "leaf": 0.018863488,
                  "cover": 27
                }
              ]
            },
            {
              "nodeid": 4,
              "leaf": -0.0387116075,
              "cover": 19
            }
          ]
        },
        {
          "nodeid": 2,
          "depth": 1,
          "split": "set_age_years",
          "split_condition": 18.5844994,
          "yes": 5,
          "no": 6,
          "missing": 6,
          "gain": 0.506033719,
          "cover": 822,
          "children": [
            {
              "nodeid": 5,
              "depth": 2,
              "split": "market_cycle_score",
              "split_condition": 63,
              "yes": 9,
              "no": 10,
              "missing": 10,
              "gain": 0.359602153,
              "cover": 524,
              "children": [
                {
                  "nodeid": 9,
                  "depth": 3,
                  "split": "most_expensive_card_price",
                  "split_condition": 120,
                  "yes": 13,
                  "no": 14,
                  "missing": 14,
                  "gain": 0.515721321,
                  "cover": 237,
                  "children": [
                    {
                      "nodeid": 13,
                      "leaf": -0.0136731742,
                      "cover": 77
                    },
                    {
                      "nodeid": 14,
                      "leaf": 0.00570937572,
                      "cover": 160
                    }
                  ]
                },
                {
                  "nodeid": 10,
                  "depth": 3,
                  "split": "community_score",
                  "split_condition": 36,
                  "yes": 15,
                  "no": 16,
                  "missing": 16,
                  "gain": 0.262916148,
                  "cover": 287,
                  "children": [
                    {
                      "nodeid": 15,
                      "leaf": -0.000367633853,
                      "cover": 70
                    },
                    {
                      "nodeid": 16,
                      "leaf": 0.0131288348,
                      "cover": 217
                    }
                  ]
                }
              ]
            },
            {
              "nodeid": 6,
              "depth": 2,
              "split": "price_trajectory_24mo",
              "split_condition": -15.0299997,
              "yes": 11,
              "no": 12,
              "missing": 12,
              "gain": 0.755399227,
              "cover": 298,
              "children": [
                {
                  "nodeid": 11,
                  "depth": 3,
                  "split": "community_score",
                  "split_condition": 60,
                  "yes": 17,
                  "no": 18,
                  "missing": 18,
                  "gain": 0.164300352,
                  "cover": 45,
