{
  "generatedAt": "2026-04-23T04:43:19.348609+00:00",
  "horizon": "1yr",
  "targetColumn": "price_1yr_later",
  "targetMode": "forward_log_return",
  "featureNames": [
    "current_price",
    "most_expensive_card_price",
    "chase_card_count",
    "chase_card_index_score",
    "set_age_years",
    "google_trends_score",
    "print_run_type_encoded",
    "price_trajectory_6mo",
    "price_trajectory_24mo",
    "collector_demand_ratio",
    "market_cycle_score",
    "popularity_score",
    "product_type_encoded",
    "era_encoded",
    "price_momentum_1mo",
    "price_momentum_12mo",
    "price_volatility_6mo",
    "price_volatility_12mo",
    "drawdown_12mo",
    "history_density_12mo",
    "available_provider_count",
    "provider_spread_pct",
    "provider_agreement_score",
    "snapshot_freshness_days",
    "liquidity_proxy_score",
    "history_window_missing_flag",
    "provider_context_missing_flag"
  ],
  "baseScore": 0.33682704,
  "trees": [
    {
      "nodeid": 0,
      "depth": 0,
      "split": "era_encoded",
      "split_condition": 2,
      "yes": 1,
      "no": 2,
      "missing": 2,
      "gain": 23.6071835,
      "cover": 626,
      "children": [
        {
          "nodeid": 1,
          "depth": 1,
          "split": "price_trajectory_24mo",
          "split_condition": 5.69000006,
          "yes": 3,
          "no": 4,
          "missing": 3,
          "gain": 10.7810326,
          "cover": 398,
          "children": [
            {
              "nodeid": 3,
              "leaf": 0.000503680378,
              "cover": 260
            },
            {
              "nodeid": 4,
              "leaf": 0.0178176016,
              "cover": 138
            }
          ]
        },
        {
          "nodeid": 2,
          "depth": 1,
          "split": "price_volatility_6mo",
          "split_condition": 0.0878000036,
          "yes": 5,
          "no": 6,
          "missing": 5,
          "gain": 6.49424171,
          "cover": 228,
          "children": [
            {
              "nodeid": 5,
              "leaf": -0.0297566149,
              "cover": 45
            },
            {
              "nodeid": 6,
              "leaf": -0.0081889797,
              "cover": 183
            }
          ]
        }
      ]
    },
    {
      "nodeid": 0,
      "depth": 0,
      "split": "era_encoded",
      "split_condition": 2,
      "yes": 1,
      "no": 2,
      "missing": 2,
      "gain": 23.0770073,
      "cover": 607,
      "children": [
        {
          "nodeid": 1,
          "depth": 1,
          "split": "price_volatility_12mo",
          "split_condition": 16.9776993,
          "yes": 3,
          "no": 4,
          "missing": 4,
          "gain": 7.97279644,
          "cover": 397,
          "children": [
            {
              "nodeid": 3,
              "leaf": 0.012429486,
              "cover": 276
            },
            {
              "nodeid": 4,
              "leaf": -0.00252567721,
              "cover": 121
            }
          ]
        },
        {
          "nodeid": 2,
          "depth": 1,
          "split": "price_volatility_12mo",
          "split_condition": 3.36420012,
          "yes": 5,
          "no": 6,
          "missing": 5,
          "gain": 4.51328373,
          "cover": 210,
          "children": [
            {
              "nodeid": 5,
              "leaf": -0.0256103855,
              "cover": 49
            },
            {
              "nodeid": 6,
              "leaf": -0.00757108023,
              "cover": 161
            }
          ]
        }
      ]
    },
    {
      "nodeid": 0,
      "depth": 0,
      "split": "market_cycle_score",
      "split_condition": 63,
      "yes": 1,
      "no": 2,
      "missing": 2,
      "gain": 21.8657227,
      "cover": 616,
      "children": [
        {
          "nodeid": 1,
          "depth": 1,
          "split": "price_trajectory_6mo",
          "split_condition": -45.2029991,
          "yes": 3,
          "no": 4,
          "missing": 4,
          "gain": 3.35912323,
          "cover": 296,
          "children": [
            {
              "nodeid": 3,
              "leaf": 0.0117798634,
              "cover": 12
            },
            {
              "nodeid": 4,
              "leaf": -0.0104039628,
              "cover": 284
            }
          ]
        },
        {
          "nodeid": 2,
          "depth": 1,
          "split": "set_age_years",
          "split_condition": 8.49279976,
          "yes": 5,
          "no": 6,
          "missing": 6,
          "gain": 23.3684139,
          "cover": 320,
          "children": [
            {
              "nodeid": 5,
              "leaf": 0.0191686507,
              "cover": 211
            },
            {
              "nodeid": 6,
              "leaf": -0.00869254861,
              "cover": 109
            }
          ]
        }
      ]
    },
    {
      "nodeid": 0,
      "depth": 0,
      "split": "set_age_years",
      "split_condition": 8.49279976,
      "yes": 1,
      "no": 2,
      "missing": 2,
      "gain": 16.9259453,
      "cover": 633,
      "children": [
        {
          "nodeid": 1,
          "depth": 1,
          "split": "price_volatility_12mo",
          "split_condition": 16.9776993,
          "yes": 3,
          "no": 4,
          "missing": 4,
          "gain": 10.47925,
          "cover": 410,
          "children": [
            {
              "nodeid": 3,
              "leaf": 0.011377993,
              "cover": 279
            },
            {
              "nodeid": 4,
              "leaf": -0.005365449,
              "cover": 131
            }
          ]
        },
        {
          "nodeid": 2,
          "depth": 1,
          "split": "set_age_years",
          "split_condition": 22.0615997,
          "yes": 5,
          "no": 6,
          "missing": 6,
          "gain": 5.09187412,
          "cover": 223,
          "children": [
            {
              "nodeid": 5,
              "leaf": -0.0242511202,
              "cover": 53
            },
            {
              "nodeid": 6,
              "leaf": -0.00607143855,
              "cover": 170
            }
          ]
        }
      ]
    },
    {
      "nodeid": 0,
      "depth": 0,
      "split": "era_encoded",
      "split_condition": 2,
      "yes": 1,
      "no": 2,
      "missing": 2,
      "gain": 16.8808002,
      "cover": 635,
      "children": [
        {
          "nodeid": 1,
          "depth": 1,
          "split": "market_cycle_score",
          "split_condition": 63,
          "yes": 3,
          "no": 4,
          "missing": 4,
          "gain": 14.5290527,
          "cover": 403,
          "children": [
            {
              "nodeid": 3,
              "leaf": -0.00410875538,
              "cover": 202
            },
            {
              "nodeid": 4,
              "leaf": 0.0145482318,
              "cover": 201
            }
          ]
        },
        {
          "nodeid": 2,
          "depth": 1,
          "split": "set_age_years",
          "split_condition": 22.0615997,
          "yes": 5,
          "no": 6,
          "missing": 6,
          "gain": 5.82065964,
          "cover": 232,
          "children": [
            {
              "nodeid": 5,
              "leaf": -0.0251757409,
              "cover": 57
            },
            {
              "nodeid": 6,
              "leaf": -0.00635177037,
              "cover": 175
            }
          ]
        }
      ]
    },
    {
      "nodeid": 0,
      "depth": 0,
      "split": "market_cycle_score",
      "split_condition": 63,
      "yes": 1,
      "no": 2,
      "missing": 2,
      "gain": 16.7042313,
      "cover": 642,
      "children": [
        {
          "nodeid": 1,
          "depth": 1,
          "split": "drawdown_12mo",
          "split_condition": -45.2029991,
          "yes": 3,
          "no": 4,
          "missing": 4,
          "gain": 3.69647408,
          "cover": 302,
          "children": [
            {
              "nodeid": 3,
              "leaf": 0.00726185134,
              "cover": 25
            },
            {
              "nodeid": 4,
              "leaf": -0.0106983334,
              "cover": 277
            }
          ]
        },
        {
          "nodeid": 2,
          "depth": 1,
          "split": "market_cycle_score",
          "split_condition": 92,
          "yes": 5,
          "no": 6,
          "missing": 6,
          "gain": 15.9986534,
          "cover": 340,
          "children": [
            {
              "nodeid": 5,
              "leaf": 0.0115523627,
              "cover": 293
            },
            {
              "nodeid": 6,
              "leaf": -0.018331496,
              "cover": 47
            }
          ]
        }
      ]
    },
    {
      "nodeid": 0,
      "depth": 0,
      "split": "era_encoded",
      "split_condition": 2,
      "yes": 1,
      "no": 2,
      "missing": 2,
      "gain": 14.2728109,
      "cover": 630,
      "children": [
        {
          "nodeid": 1,
          "depth": 1,
          "split": "market_cycle_score",
          "split_condition": 63,
          "yes": 3,
          "no": 4,
          "missing": 4,
          "gain": 15.7879248,
          "cover": 410,
          "children": [
            {
              "nodeid": 3,
              "leaf": -0.00472854543,
              "cover": 187
            },
            {
              "nodeid": 4,
              "leaf": 0.0146299778,
              "cover": 223
            }
          ]
        },
        {
          "nodeid": 2,
          "depth": 1,
          "split": "drawdown_12mo",
          "split_condition": -0.0329999998,
          "yes": 5,
          "no": 6,
          "missing": 6,
          "gain": 4.94042587,
          "cover": 220,
          "children": [
            {
              "nodeid": 5,
              "leaf": -0.00445569865,
              "cover": 157
            },
            {
              "nodeid": 6,
              "leaf": -0.0214232337,
              "cover": 63
            }
          ]
        }
      ]
    },
    {
      "nodeid": 0,
      "depth": 0,
      "split": "price_volatility_12mo",
      "split_condition": 2.9691,
      "yes": 1,
      "no": 2,
      "missing": 1,
      "gain": 12.7703743,
      "cover": 628,
      "children": [
        {
          "nodeid": 1,
          "leaf": -0.0177320149,
          "cover": 83
        },
        {
          "nodeid": 2,
          "depth": 1,
          "split": "market_cycle_score",
          "split_condition": 63,
          "yes": 3,
          "no": 4,
          "missing": 4,
          "gain": 10.3028917,
          "cover": 545,
          "children": [
            {
              "nodeid": 3,
              "leaf": -0.00461500743,
              "cover": 246
            },
            {
              "nodeid": 4,
              "leaf": 0.00900802854,
              "cover": 299
            }
          ]
        }
      ]
    },
    {
      "nodeid": 0,
      "depth": 0,
      "split": "era_encoded",
      "split_condition": 2,
      "yes": 1,
      "no": 2,
      "missing": 2,
      "gain": 12.6312599,
      "cover": 629,
      "children": [
        {
          "nodeid": 1,
          "depth": 1,
          "split": "price_momentum_12mo",
          "split_condition": 4828.91309,
          "yes": 3,
          "no": 4,
          "missing": 4,
          "gain": 8.45480633,
          "cover": 407,
          "children": [
            {
              "nodeid": 3,
              "leaf": 0.00979259517,
              "cover": 290
            },
            {
              "nodeid": 4,
              "leaf": -0.00571325608,
              "cover": 117
            }
          ]
        },
        {
          "nodeid": 2,
          "depth": 1,
          "split": "price_momentum_12mo",
          "split_condition": -3.52600002,
          "yes": 5,
          "no": 6,
          "missing": 6,
          "gain": 3.76522541,
          "cover": 222,
          "children": [
            {
              "nodeid": 5,
              "leaf": 2.62415833e-05,
              "cover": 64
            },
            {
              "nodeid": 6,
              "leaf": -0.013534084,
              "cover": 158
            }
          ]
        }
      ]
    },
    {
      "nodeid": 0,
      "depth": 0,
      "split": "current_price",
      "split_condition": 6000,
      "yes": 1,
      "no": 2,
      "missing": 2,
      "gain": 12.0411329,
      "cover": 633,
      "children": [
        {
          "nodeid": 1,
          "depth": 1,
          "split": "market_cycle_score",
          "split_condition": 63,
          "yes": 3,
          "no": 4,
          "missing": 4,
          "gain": 8.72931099,
          "cover": 459,
          "children": [
            {
              "nodeid": 3,
              "leaf": -0.00328037934,
              "cover": 224
            },
            {
              "nodeid": 4,
              "leaf": 0.0102731381,
              "cover": 235
            }
          ]
        },
        {
          "nodeid": 2,
          "depth": 1,
          "split": "price_momentum_12mo",
          "split_condition": 33.1430016,
          "yes": 5,
          "no": 6,
          "missing": 6,
          "gain": 4.86829948,
          "cover": 174,
          "children": [
            {
              "nodeid": 5,
              "leaf": -0.00471536675,
              "cover": 115
            },
            {
              "nodeid": 6,
              "leaf": -0.0229993518,
              "cover": 59
            }
          ]
        }
      ]
    },
    {
      "nodeid": 0,
      "depth": 0,
      "split": "set_age_years",
      "split_condition": 6.24779987,
      "yes": 1,
      "no": 2,
      "missing": 2,
      "gain": 13.8707561,
      "cover": 645,
      "children": [
        {
          "nodeid": 1,
          "depth": 1,
          "split": "price_momentum_12mo",
          "split_condition": -17.1450005,
          "yes": 3,
          "no": 4,
          "missing": 3,
          "gain": 7.27475882,
          "cover": 404,
          "children": [
            {
              "nodeid": 3,
              "leaf": -0.00407986529,
              "cover": 135
            },
            {
              "nodeid": 4,
              "leaf": 0.00978374016,
              "cover": 269
            }
          ]
        },
        {
          "nodeid": 2,
          "depth": 1,
          "split": "price_volatility_6mo",
          "split_condition": 0.0878000036,
          "yes": 5,
          "no": 6,
          "missing": 5,
          "gain": 4.91611958,
          "cover": 241,
          "children": [
            {
              "nodeid": 5,
              "leaf": -0.0240563303,
              "cover": 47
            },
            {
              "nodeid": 6,
              "leaf": -0.00579648232,
              "cover": 194
            }
          ]
        }
      ]
    },
    {
      "nodeid": 0,
      "depth": 0,
      "split": "current_price",
      "split_condition": 6000,
      "yes": 1,
      "no": 2,
      "missing": 2,
      "gain": 11.2956285,
      "cover": 620,
      "children": [
        {
          "nodeid": 1,
          "depth": 1,
          "split": "price_trajectory_24mo",
          "split_condition": 5.99399996,
          "yes": 3,
          "no": 4,
          "missing": 3,
          "gain": 6.16618109,
          "cover": 445,
          "children": [
            {
              "nodeid": 3,
              "leaf": -0.000206680255,
              "cover": 300
            },
            {
              "nodeid": 4,
              "leaf": 0.0120510049,
              "cover": 145
            }
          ]
        },
        {
          "nodeid": 2,
          "depth": 1,
          "split": "price_momentum_12mo",
          "split_condition": 33.1430016,
          "yes": 5,
          "no": 6,
          "missing": 6,
          "gain": 3.91795349,
          "cover": 175,
          "children": [
            {
              "nodeid": 5,
              "leaf": -0.00475329114,
              "cover": 116
            },
            {
              "nodeid": 6,
              "leaf": -0.0212915596,
              "cover": 59
            }
          ]
        }
      ]
    },
    {
      "nodeid": 0,
      "depth": 0,
      "split": "set_age_years",
      "split_condition": 6.24779987,
      "yes": 1,
      "no": 2,
      "missing": 2,
      "gain": 9.87742233,
      "cover": 638,
      "children": [
        {
          "nodeid": 1,
          "depth": 1,
          "split": "price_momentum_12mo",
          "split_condition": -17.9909992,
          "yes": 3,
          "no": 4,
          "missing": 3,
          "gain": 7.2249918,
          "cover": 397,
          "children": [
            {
              "nodeid": 3,
              "leaf": -0.00429742923,
              "cover": 131
            },
            {
              "nodeid": 4,
              "leaf": 0.009678795,
              "cover": 266
            }
          ]
        },
        {
          "nodeid": 2,
          "depth": 1,
          "split": "drawdown_12mo",
          "split_condition": -0.0659999996,
          "yes": 5,
          "no": 6,
          "missing": 6,
          "gain": 2.88433647,
          "cover": 241,
          "children": [
            {
              "nodeid": 5,
              "leaf": -0.00360194151,
              "cover": 169
            },
            {
              "nodeid": 6,
              "leaf": -0.0160404723,
              "cover": 72
            }
          ]
        }
      ]
    },
    {
      "nodeid": 0,
      "depth": 0,
      "split": "price_volatility_12mo",
      "split_condition": 3.36420012,
      "yes": 1,
      "no": 2,
      "missing": 1,
      "gain": 11.0693026,
      "cover": 619,
      "children": [
        {
          "nodeid": 1,
          "leaf": -0.0177985039,
          "cover": 76
        },
        {
          "nodeid": 2,
          "depth": 1,
          "split": "current_price",
          "split_condition": 5850,
          "yes": 3,
          "no": 4,
          "missing": 4,
          "gain": 5.89858627,
          "cover": 543,
          "children": [
            {
              "nodeid": 3,
              "leaf": 0.00523228524,
              "cover": 395
            },
            {
              "nodeid": 4,
              "leaf": -0.00623967266,
              "cover": 148
            }
          ]
        }
      ]
    },
    {
      "nodeid": 0,
      "depth": 0,
      "split": "google_trends_score",
      "split_condition": 92,
      "yes": 1,
      "no": 2,
      "missing": 2,
      "gain": 7.77903795,
      "cover": 615,
      "children": [
        {
          "nodeid": 1,
          "depth": 1,
          "split": "price_volatility_12mo",
          "split_condition": 2.9691,
          "yes": 3,
          "no": 4,
          "missing": 3,
          "gain": 6.30434752,
          "cover": 575,
          "children": [
            {
              "nodeid": 3,
              "leaf": -0.0143327042,
              "cover": 77
            },
            {
              "nodeid": 4,
              "leaf": 0.000552680751,
              "cover": 498
            }
          ]
        },
        {
          "nodeid": 2,
          "leaf": 0.020116305,
          "cover": 40
        }
      ]
    },
    {
      "nodeid": 0,
      "depth": 0,
      "split": "market_cycle_score",
      "split_condition": 63,
      "yes": 1,
      "no": 2,
      "missing": 2,
      "gain": 8.28245163,
      "cover": 619,
      "children": [
        {
          "nodeid": 1,
          "depth": 1,
          "split": "drawdown_12mo",
          "split_condition": -46,
          "yes": 3,
          "no": 4,
          "missing": 4,
          "gain": 2.73508048,
          "cover": 296,
          "children": [
            {
              "nodeid": 3,
              "leaf": 0.00676381169,
              "cover": 31
            },
            {
              "nodeid": 4,
              "leaf": -0.00746149197,
              "cover": 265
            }
          ]
        },
        {
          "nodeid": 2,
          "depth": 1,
          "split": "set_age_years",
          "split_condition": 17.7521992,
          "yes": 5,
          "no": 6,
          "missing": 6,
          "gain": 10.6223917,
          "cover": 323,
          "children": [
            {
              "nodeid": 5,
              "leaf": 0.0121328626,
              "cover": 216
            },
            {
              "nodeid": 6,
              "leaf": -0.00662169373,
              "cover": 107
            }
          ]
        }
      ]
    },
    {
      "nodeid": 0,
      "depth": 0,
      "split": "price_volatility_12mo",
      "split_condition": 3.36420012,
      "yes": 1,
      "no": 2,
      "missing": 1,
      "gain": 10.5153913,
      "cover": 602,
      "children": [
        {
          "nodeid": 1,
          "leaf": -0.0168163609,
          "cover": 75
        },
        {
          "nodeid": 2,
          "depth": 1,
          "split": "market_cycle_score",
          "split_condition": 63,
          "yes": 3,
          "no": 4,
          "missing": 4,
          "gain": 8.35314941,
          "cover": 527,
          "children": [
            {
              "nodeid": 3,
              "leaf": -0.00425747037,
              "cover": 233
            },
            {
              "nodeid": 4,
              "leaf": 0.00822634529,
              "cover": 294
            }
          ]
        }
      ]
    },
    {
      "nodeid": 0,
      "depth": 0,
      "split": "chase_card_count",
      "split_condition": 5,
      "yes": 1,
      "no": 2,
      "missing": 2,
      "gain": 9.14546585,
      "cover": 605,
      "children": [
        {
          "nodeid": 1,
          "depth": 1,
          "split": "price_momentum_12mo",
          "split_condition": 112.132004,
          "yes": 3,
          "no": 4,
          "missing": 4,
          "gain": 6.8660841,
          "cover": 473,
          "children": [
            {
              "nodeid": 3,
              "leaf": 0.00131756265,
              "cover": 322
            },
            {
              "nodeid": 4,
              "leaf": -0.0113430722,
              "cover": 151
            }
          ]
        },
        {
          "nodeid": 2,
          "depth": 1,
          "split": "market_cycle_score",
          "split_condition": 67,
          "yes": 5,
          "no": 6,
          "missing": 6,
          "gain": 2.94455385,
          "cover": 132,
          "children": [
            {
              "nodeid": 5,
              "leaf": 0.00418947823,
              "cover": 76
            },
            {
              "nodeid": 6,
              "leaf": 0.0204354059,
              "cover": 56
            }
          ]
        }
      ]
    },
    {
      "nodeid": 0,
      "depth": 0,
      "split": "price_volatility_6mo",
      "split_condition": 0.0878000036,
      "yes": 1,
      "no": 2,
      "missing": 1,
      "gain": 9.93842888,
      "cover": 625,
      "children": [
        {
          "nodeid": 1,
          "leaf": -0.0167751051,
          "cover": 76
        },
        {
          "nodeid": 2,
          "depth": 1,
          "split": "google_trends_score",
          "split_condition": 89,
          "yes": 3,
          "no": 4,
          "missing": 4,
          "gain": 5.97197437,
          "cover": 549,
          "children": [
            {
              "nodeid": 3,
              "leaf": 0.000370906055,
              "cover": 512
            },
            {
              "nodeid": 4,
              "leaf": 0.020112535,
              "cover": 37
            }
          ]
        }
      ]
    },
    {
      "nodeid": 0,
      "depth": 0,
      "split": "market_cycle_score",
      "split_condition": 63,
      "yes": 1,
      "no": 2,
      "missing": 2,
      "gain": 5.20272398,
      "cover": 619,
      "children": [
        {
          "nodeid": 1,
          "depth": 1,
          "split": "drawdown_12mo",
          "split_condition": -45.2029991,
          "yes": 3,
          "no": 4,
          "missing": 4,
          "gain": 3.63115311,
          "cover": 297,
          "children": [
            {
              "nodeid": 3,
              "leaf": 0.0092671914,
              "cover": 31
            },
            {
              "nodeid": 4,
              "leaf": -0.00726812473,
              "cover": 266
            }
          ]
        },
        {
          "nodeid": 2,
          "depth": 1,
          "split": "market_cycle_score",
          "split_condition": 92,
          "yes": 5,
          "no": 6,
          "missing": 6,
          "gain": 8.36569881,
          "cover": 322,
          "children": [
            {
              "nodeid": 5,
              "leaf": 0.00708542904,
              "cover": 281
            },
            {
              "nodeid": 6,
              "leaf": -0.0157157201,
              "cover": 41
            }
          ]
        }
      ]
    },
    {
      "nodeid": 0,
      "depth": 0,
      "split": "set_age_years",
      "split_condition": 6.24779987,
      "yes": 1,
      "no": 2,
      "missing": 2,
      "gain": 6.07315683,
      "cover": 640,
      "children": [
        {
          "nodeid": 1,
          "depth": 1,
          "split": "most_expensive_card_price",
          "split_condition": 110,
          "yes": 3,
          "no": 4,
          "missing": 4,
          "gain": 4.27586794,
          "cover": 406,
          "children": [
            {
              "nodeid": 3,
              "leaf": -0.00436033169,
              "cover": 108
            },
            {
              "nodeid": 4,
              "leaf": 0.00687138131,
              "cover": 298
            }
          ]
        },
        {
          "nodeid": 2,
          "depth": 1,
          "split": "price_trajectory_6mo",
          "split_condition": -2.73600006,
          "yes": 5,
          "no": 6,
          "missing": 6,
          "gain": 2.60104799,
          "cover": 234,
          "children": [
            {
              "nodeid": 5,
              "leaf": 0.00167091086,
              "cover": 63
            },
            {
              "nodeid": 6,
              "leaf": -0.00945398677,
              "cover": 171
            }
          ]
        }
      ]
    },
    {
      "nodeid": 0,
      "depth": 0,
      "split": "google_trends_score",
      "split_condition": 80,
      "yes": 1,
      "no": 2,
      "missing": 2,
      "gain": 5.8193531,
      "cover": 631,
      "children": [
        {
          "nodeid": 1,
          "depth": 1,
          "split": "popularity_score",
          "split_condition": 75,
          "yes": 3,
          "no": 4,
          "missing": 4,
          "gain": 5.57044315,
          "cover": 471,
          "children": [
            {
              "nodeid": 3,
              "leaf": 0.000715051719,
              "cover": 308
            },
            {
              "nodeid": 4,
              "leaf": -0.0104633234,
              "cover": 163
            }
          ]
        },
        {
          "nodeid": 2,
          "depth": 1,
          "split": "market_cycle_score",
          "split_condition": 67,
          "yes": 5,
          "no": 6,
          "missing": 6,
          "gain": 3.03964782,
          "cover": 160,
          "children": [
            {
              "nodeid": 5,
              "leaf": 0.00163973996,
              "cover": 100
            },
            {
              "nodeid": 6,
              "leaf": 0.0163023602,
              "cover": 60
            }
          ]
        }
      ]
    },
    {
      "nodeid": 0,
      "depth": 0,
      "split": "price_volatility_6mo",
      "split_condition": 0.934400022,
      "yes": 1,
      "no": 2,
      "missing": 1,
      "gain": 6.41456413,
      "cover": 602,
      "children": [
        {
          "nodeid": 1,
          "leaf": -0.0130715957,
          "cover": 77
        },
        {
          "nodeid": 2,
          "depth": 1,
          "split": "google_trends_score",
          "split_condition": 89,
          "yes": 3,
          "no": 4,
          "missing": 4,
          "gain": 3.02408767,
          "cover": 525,
          "children": [
            {
              "nodeid": 3,
              "leaf": 0.00078946969,
              "cover": 492
            },
            {
              "nodeid": 4,
              "leaf": 0.0156237064,
              "cover": 33
            }
          ]
        }
      ]
    },
    {
      "nodeid": 0,
      "depth": 0,
      "split": "era_encoded",
      "split_condition": 2,
      "yes": 1,
      "no": 2,
      "missing": 2,
      "gain": 6.5063448,
      "cover": 640,
      "children": [
        {
          "nodeid": 1,
          "depth": 1,
          "split": "google_trends_score",
          "split_condition": 92,
          "yes": 3,
          "no": 4,
          "missing": 4,
          "gain": 3.58952284,
          "cover": 411,
          "children": [
            {
              "nodeid": 3,
              "leaf": 0.00152780628,
              "cover": 368
            },
            {
              "nodeid": 4,
              "leaf": 0.0163618065,
              "cover": 43
            }
          ]
        },
        {
          "nodeid": 2,
          "depth": 1,
          "split": "drawdown_12mo",
          "split_condition": -0.0329999998,
          "yes": 5,
          "no": 6,
          "missing": 6,
          "gain": 2.55929375,
          "cover": 229,
          "children": [
            {
              "nodeid": 5,
              "leaf": -0.00267776079,
              "cover": 152
            },
            {
              "nodeid": 6,
              "leaf": -0.0143338991,
              "cover": 77
            }
          ]
        }
      ]
    },
    {
      "nodeid": 0,
      "depth": 0,
      "split": "market_cycle_score",
      "split_condition": 63,
      "yes": 1,
      "no": 2,
      "missing": 2,
      "gain": 6.6437192,
      "cover": 604,
      "children": [
        {
          "nodeid": 1,
          "depth": 1,
          "split": "drawdown_12mo",
          "split_condition": -46,
          "yes": 3,
          "no": 4,
          "missing": 4,
          "gain": 2.65076041,
          "cover": 303,
          "children": [
            {
              "nodeid": 3,
              "leaf": 0.00753093977,
              "cover": 30
            },
            {
              "nodeid": 4,
              "leaf": -0.00664920965,
              "cover": 273
            }
          ]
        },
        {
          "nodeid": 2,
          "depth": 1,
          "split": "set_age_years",
          "split_condition": 17.7521992,
          "yes": 5,
          "no": 6,
          "missing": 6,
          "gain": 7.83138371,
          "cover": 301,
          "children": [
            {
              "nodeid": 5,
              "leaf": 0.0110140871,
              "cover": 203
            },
            {
              "nodeid": 6,
              "leaf": -0.00567282969,
              "cover": 98
            }
          ]
        }
      ]
    },
    {
      "nodeid": 0,
      "depth": 0,
      "split": "current_price",
      "split_condition": 6000,
      "yes": 1,
      "no": 2,
      "missing": 2,
      "gain": 4.5679245,
      "cover": 634,
      "children": [
        {
          "nodeid": 1,
          "depth": 1,
          "split": "price_momentum_12mo",
          "split_condition": 27.2189999,
          "yes": 3,
          "no": 4,
          "missing": 3,
          "gain": 3.60023499,
          "cover": 454,
          "children": [
            {
              "nodeid": 3,
              "leaf": -0.00113212899,
              "cover": 301
            },
            {
              "nodeid": 4,
              "leaf": 0.00807027798,
              "cover": 153
            }
          ]
        },
        {
          "nodeid": 2,
          "depth": 1,
          "split": "set_age_years",
          "split_condition": 25.1005993,
          "yes": 5,
          "no": 6,
          "missing": 6,
          "gain": 2.37544537,
          "cover": 180,
          "children": [
            {
              "nodeid": 5,
              "leaf": -0.00984852761,
              "cover": 153
            },
            {
              "nodeid": 6,
              "leaf": 0.0044919597,
              "cover": 27
            }
          ]
        }
      ]
    },
    {
      "nodeid": 0,
      "depth": 0,
      "split": "current_price",
      "split_condition": 6000,
      "yes": 1,
      "no": 2,
      "missing": 2,
      "gain": 5.77592087,
      "cover": 623,
      "children": [
        {
          "nodeid": 1,
          "depth": 1,
          "split": "popularity_score",
          "split_condition": 90,
          "yes": 3,
          "no": 4,
          "missing": 4,
          "gain": 3.55710435,
          "cover": 451,
          "children": [
            {
              "nodeid": 3,
              "leaf": 0.000972551876,
              "cover": 379
            },
            {
              "nodeid": 4,
              "leaf": 0.0129778227,
              "cover": 72
            }
          ]
        },
        {
          "nodeid": 2,
          "depth": 1,
          "split": "set_age_years",
          "split_condition": 22.0151005,
          "yes": 5,
          "no": 6,
          "missing": 6,
          "gain": 2.64650536,
          "cover": 172,
          "children": [
            {
              "nodeid": 5,
              "leaf": -0.0244731326,
              "cover": 17
            },
            {
              "nodeid": 6,
              "leaf": -0.0046389997,
              "cover": 155
            }
          ]
        }
      ]
    },
    {
      "nodeid": 0,
      "depth": 0,
      "split": "google_trends_score",
      "split_condition": 92,
      "yes": 1,
      "no": 2,
      "missing": 2,
      "gain": 4.76893425,
      "cover": 636,
      "children": [
        {
          "nodeid": 1,
          "depth": 1,
          "split": "price_trajectory_6mo",
          "split_condition": 97.2289963,
          "yes": 3,
          "no": 4,
          "missing": 4,
          "gain": 4.08297491,
          "cover": 595,
          "children": [
            {
              "nodeid": 3,
              "leaf": 0.000718624447,
              "cover": 482
            },
            {
              "nodeid": 4,
              "leaf": -0.00958792027,
              "cover": 113
            }
          ]
        },
        {
          "nodeid": 2,
          "leaf": 0.0154854404,
          "cover": 41
        }
      ]
    },
    {
      "nodeid": 0,
      "depth": 0,
      "split": "current_price",
      "split_condition": 6000,
      "yes": 1,
      "no": 2,
      "missing": 2,
      "gain": 4.35416937,
      "cover": 629,
      "children": [
        {
          "nodeid": 1,
          "depth": 1,
          "split": "market_cycle_score",
          "split_condition": 67,
          "yes": 3,
          "no": 4,
          "missing": 4,
          "gain": 5.71166372,
          "cover": 453,
          "children": [
            {
              "nodeid": 3,
              "leaf": -0.00152066711,
              "cover": 294
            },
            {
              "nodeid": 4,
              "leaf": 0.0100008314,
              "cover": 159
            }
          ]
        },
        {
          "nodeid": 2,
          "depth": 1,
          "split": "set_age_years",
          "split_condition": 21.9575996,
          "yes": 5,
          "no": 6,
          "missing": 6,
          "gain": 2.62274718,
          "cover": 176,
          "children": [
            {
              "nodeid": 5,
              "leaf": -0.0230325423,
              "cover": 18
            },
            {
              "nodeid": 6,
              "leaf": -0.0038584657,
              "cover": 158
            }
          ]
        }
      ]
    },
    {
      "nodeid": 0,
      "depth": 0,
      "split": "market_cycle_score",
      "split_condition": 63,
      "yes": 1,
      "no": 2,
      "missing": 2,
      "gain": 5.67352676,
      "cover": 637,
      "children": [
        {
          "nodeid": 1,
          "depth": 1,
          "split": "drawdown_12mo",
          "split_condition": -45.2029991,
          "yes": 3,
          "no": 4,
          "missing": 4,
          "gain": 4.43521214,
          "cover": 305,
          "children": [
            {
              "nodeid": 3,
              "leaf": 0.0116075827,
              "cover": 31
            },
            {
              "nodeid": 4,
              "leaf": -0.00674001267,
              "cover": 274
            }
          ]
        },
        {
          "nodeid": 2,
          "depth": 1,
          "split": "market_cycle_score",
          "split_condition": 92,
          "yes": 5,
          "no": 6,
          "missing": 6,
          "gain": 7.17676783,
          "cover": 332,
          "children": [
            {
              "nodeid": 5,
              "leaf": 0.00788345281,
              "cover": 286
            },
            {
              "nodeid": 6,
              "leaf": -0.0122411251,
              "cover": 46
            }
          ]
        }
      ]
    },
    {
      "nodeid": 0,
      "depth": 0,
      "split": "market_cycle_score",
      "split_condition": 63,
      "yes": 1,
      "no": 2,
      "missing": 2,
      "gain": 4.38500595,
      "cover": 618,
      "children": [
        {
          "nodeid": 1,
          "leaf": -0.00459639262,
          "cover": 302
        },
        {
          "nodeid": 2,
          "depth": 1,
          "split": "set_age_years",
          "split_condition": 17.7521992,
          "yes": 3,
          "no": 4,
          "missing": 4,
          "gain": 4.73296309,
          "cover": 316,
          "children": [
            {
              "nodeid": 3,
              "leaf": 0.00788756367,
              "cover": 218
            },
            {
              "nodeid": 4,
              "leaf": -0.00490189157,
              "cover": 98
            }
          ]
        }
      ]
    },
    {
      "nodeid": 0,
      "depth": 0,
      "split": "google_trends_score",
      "split_condition": 92,
      "yes": 1,
      "no": 2,
      "missing": 2,
      "gain": 5.03914452,
      "cover": 626,
      "children": [
        {
          "nodeid": 1,
          "depth": 1,
          "split": "price_momentum_12mo",
          "split_condition": 208.391006,
          "yes": 3,
          "no": 4,
          "missing": 4,
          "gain": 4.44404984,
          "cover": 582,
          "children": [
            {
              "nodeid": 3,
              "leaf": 0.00113157171,
              "cover": 410
            },
            {
              "nodeid": 4,
              "leaf": -0.00826657098,
              "cover": 172
            }
          ]
        },
        {
          "nodeid": 2,
          "leaf": 0.0150640681,
          "cover": 44
        }
      ]
    },
    {
      "nodeid": 0,
      "depth": 0,
      "split": "market_cycle_score",
      "split_condition": 92,
      "yes": 1,
      "no": 2,
      "missing": 2,
      "gain": 4.46916246,
      "cover": 619,
      "children": [
        {
          "nodeid": 1,
          "depth": 1,
          "split": "market_cycle_score",
          "split_condition": 67,
          "yes": 3,
          "no": 4,
          "missing": 4,
          "gain": 7.09501123,
          "cover": 580,
          "children": [
            {
              "nodeid": 3,
              "leaf": -0.00247092289,
              "cover": 383
            },
            {
              "nodeid": 4,
              "leaf": 0.00904092845,
              "cover": 197
            }
          ]
        },
        {
          "nodeid": 2,
          "leaf": -0.0151111437,
          "cover": 39
        }
      ]
    },
    {
      "nodeid": 0,
      "depth": 0,
      "split": "google_trends_score",
      "split_condition": 92,
      "yes": 1,
      "no": 2,
      "missing": 2,
      "gain": 4.2827673,
      "cover": 625,
      "children": [
        {
          "nodeid": 1,
          "depth": 1,
          "split": "market_cycle_score",
          "split_condition": 92,
          "yes": 3,
          "no": 4,
          "missing": 4,
          "gain": 2.39765477,
          "cover": 583,
          "children": [
            {
              "nodeid": 3,
              "leaf": 0.000255878753,
              "cover": 544
            },
            {
              "nodeid": 4,
              "leaf": -0.0118155638,
              "cover": 39
            }
          ]
        },
        {
          "nodeid": 2,
          "leaf": 0.0150847184,
          "cover": 42
        }
      ]
    },
    {
      "nodeid": 0,
      "depth": 0,
      "split": "market_cycle_score",
      "split_condition": 63,
      "yes": 1,
      "no": 2,
      "missing": 2,
      "gain": 3.99805617,
      "cover": 606,
      "children": [
        {
          "nodeid": 1,
          "depth": 1,
          "split": "drawdown_12mo",
          "split_condition": -45.2029991,
          "yes": 3,
          "no": 4,
          "missing": 4,
          "gain": 2.74220538,
          "cover": 279,
          "children": [
            {
              "nodeid": 3,
              "leaf": 0.00870797783,
              "cover": 29
            },
            {
              "nodeid": 4,
              "leaf": -0.00603514072,
              "cover": 250
            }
          ]
        },
        {
          "nodeid": 2,
          "depth": 1,
          "split": "market_cycle_score",
          "split_condition": 92,
          "yes": 5,
          "no": 6,
          "missing": 6,
          "gain": 5.97641945,
          "cover": 327,
          "children": [
            {
              "nodeid": 5,
              "leaf": 0.00658612186,
              "cover": 286
            },
            {
              "nodeid": 6,
              "leaf": -0.0126027344,
              "cover": 41
            }
          ]
        }
      ]
    },
    {
      "nodeid": 0,
      "depth": 0,
      "split": "market_cycle_score",
      "split_condition": 63,
      "yes": 1,
      "no": 2,
      "missing": 2,
      "gain": 3.26153755,
      "cover": 642,
      "children": [
        {
          "nodeid": 1,
          "leaf": -0.00291474117,
          "cover": 293
        },
        {
          "nodeid": 2,
          "depth": 1,
          "split": "price_trajectory_6mo",
          "split_condition": -24.0809994,
          "yes": 3,
          "no": 4,
          "missing": 3,
          "gain": 4.28224421,
          "cover": 349,
          "children": [
            {
              "nodeid": 3,
              "leaf": -0.00883298088,
              "cover": 47
            },
            {
              "nodeid": 4,
              "leaf": 0.00644126767,
              "cover": 302
            }
          ]
        }
      ]
    },
    {
      "nodeid": 0,
      "depth": 0,
      "split": "price_volatility_12mo",
      "split_condition": 2.9691,
      "yes": 1,
      "no": 2,
      "missing": 1,
      "gain": 4.96591806,
      "cover": 618,
      "children": [
        {
          "nodeid": 1,
          "leaf": -0.0120099662,
          "cover": 77
        },
        {
          "nodeid": 2,
          "depth": 1,
          "split": "market_cycle_score",
          "split_condition": 67,
          "yes": 3,
          "no": 4,
          "missing": 4,
          "gain": 3.38651085,
          "cover": 541,
          "children": [
            {
              "nodeid": 3,
              "leaf": -0.00187534548,
              "cover": 331
            },
            {
              "nodeid": 4,
              "leaf": 0.00610684743,
              "cover": 210
            }
          ]
        }
      ]
    },
    {
      "nodeid": 0,
      "depth": 0,
      "split": "current_price",
      "split_condition": 6000,
      "yes": 1,
      "no": 2,
      "missing": 2,
      "gain": 3.75247788,
      "cover": 641,
      "children": [
        {
          "nodeid": 1,
          "depth": 1,
          "split": "popularity_score",
          "split_condition": 90,
          "yes": 3,
          "no": 4,
          "missing": 4,
          "gain": 2.49197531,
          "cover": 470,
          "children": [
            {
              "nodeid": 3,
              "leaf": 0.000876925536,
              "cover": 396
            },
            {
              "nodeid": 4,
              "leaf": 0.0108170873,
              "cover": 74
            }
          ]
        },
        {
          "nodeid": 2,
          "depth": 1,
          "split": "set_age_years",
          "split_condition": 21.6044006,
          "yes": 5,
          "no": 6,
          "missing": 6,
          "gain": 2.2186501,
          "cover": 171,
          "children": [
            {
              "nodeid": 5,
              "leaf": -0.0250359029,
              "cover": 10
            },
            {
              "nodeid": 6,
              "leaf": -0.00368021778,
              "cover": 161
            }
          ]
        }
      ]
    },
    {
      "nodeid": 0,
      "depth": 0,
      "split": "popularity_score",
      "split_condition": 86,
      "yes": 1,
      "no": 2,
      "missing": 2,
      "gain": 3.55934954,
      "cover": 638,
      "children": [
        {
          "nodeid": 1,
          "depth": 1,
          "split": "popularity_score",
          "split_condition": 75,
          "yes": 3,
          "no": 4,
          "missing": 4,
          "gain": 4.65060663,
          "cover": 478,
          "children": [
            {
              "nodeid": 3,
              "leaf": 0.00176037196,
              "cover": 306
            },
            {
              "nodeid": 4,
              "leaf": -0.00831832085,
              "cover": 172
            }
          ]
        },
        {
          "nodeid": 2,
          "leaf": 0.00667996332,
          "cover": 160
        }
      ]
    },
    {
      "nodeid": 0,
      "depth": 0,
      "split": "google_trends_score",
      "split_condition": 80,
      "yes": 1,
      "no": 2,
      "missing": 2,
      "gain": 2.29522181,
      "cover": 575,
      "children": [
        {
          "nodeid": 1,
          "leaf": -0.00223059556,
          "cover": 427
        },
        {
          "nodeid": 2,
          "leaf": 0.00487562409,
          "cover": 148
        }
      ]
    },
    {
      "nodeid": 0,
      "depth": 0,
      "split": "current_price",
      "split_condition": 6000,
      "yes": 1,
      "no": 2,
      "missing": 2,
      "gain": 3.33105326,
      "cover": 626,
      "children": [
        {
          "nodeid": 1,
          "leaf": 0.00297245011,
          "cover": 451
        },
        {
          "nodeid": 2,
          "leaf": -0.00502907578,
          "cover": 175
        }
      ]
    },
    {
      "nodeid": 0,
      "depth": 0,
      "split": "google_trends_score",
      "split_condition": 92,
      "yes": 1,
      "no": 2,
      "missing": 2,
      "gain": 3.20110273,
      "cover": 614,
      "children": [
        {
          "nodeid": 1,
          "depth": 1,
          "split": "history_window_missing_flag",
          "split_condition": 1,
          "yes": 3,
          "no": 4,
          "missing": 4,
          "gain": 3.05920076,
          "cover": 570,
          "children": [
            {
              "nodeid": 3,
              "leaf": 0.000928280817,
              "cover": 421
            },
            {
              "nodeid": 4,
              "leaf": -0.00723367278,
              "cover": 149
            }
          ]
        },
        {
          "nodeid": 2,
          "leaf": 0.0121439965,
          "cover": 44
        }
      ]
    },
    {
      "nodeid": 0,
      "depth": 0,
      "split": "market_cycle_score",
      "split_condition": 63,
      "yes": 1,
      "no": 2,
      "missing": 2,
      "gain": 4.03441525,
      "cover": 616,
      "children": [
        {
          "nodeid": 1,
          "leaf": -0.00454667909,
          "cover": 305
        },
        {
          "nodeid": 2,
          "depth": 1,
          "split": "era_encoded",
          "split_condition": 2,
          "yes": 3,
          "no": 4,
          "missing": 4,
          "gain": 2.58079648,
          "cover": 311,
          "children": [
            {
              "nodeid": 3,
              "leaf": 0.00659855828,
              "cover": 212
            },
            {
              "nodeid": 4,
              "leaf": -0.00276362477,
              "cover": 99
            }
          ]
        }
      ]
    },
    {
      "nodeid": 0,
      "depth": 0,
      "split": "chase_card_count",
      "split_condition": 5,
      "yes": 1,
      "no": 2,
      "missing": 2,
      "gain": 3.27472138,
      "cover": 609,
      "children": [
        {
          "nodeid": 1,
          "depth": 1,
          "split": "price_volatility_6mo",
          "split_condition": 0.0878000036,
          "yes": 3,
          "no": 4,
          "missing": 3,
          "gain": 2.82525778,
          "cover": 477,
          "children": [
            {
              "nodeid": 3,
              "leaf": -0.01182744,
              "cover": 63
            },
            {
              "nodeid": 4,
              "leaf": -0.000645024586,
              "cover": 414
            }
          ]
        },
        {
          "nodeid": 2,
          "leaf": 0.00640834216,
          "cover": 132
        }
      ]
    },
    {
      "nodeid": 0,
      "depth": 0,
      "split": "google_trends_score",
      "split_condition": 80,
      "yes": 1,
      "no": 2,
      "missing": 2,
      "gain": 2.86954832,
      "cover": 589,
      "children": [
        {
          "nodeid": 1,
          "depth": 1,
          "split": "popularity_score",
          "split_condition": 75,
          "yes": 3,
          "no": 4,
          "missing": 4,
          "gain": 3.27047396,
          "cover": 440,
          "children": [
            {
              "nodeid": 3,
              "leaf": 0.00177133363,
              "cover": 287
            },
            {
              "nodeid": 4,
              "leaf": -0.00709261233,
              "cover": 153
            }
          ]
        },
        {
          "nodeid": 2,
          "leaf": 0.00663542328,
          "cover": 149
        }
      ]
    },
    {
      "nodeid": 0,
      "depth": 0,
      "split": "current_price",
      "split_condition": 6000,
      "yes": 1,
      "no": 2,
      "missing": 2,
      "gain": 2.83528495,
      "cover": 619,
      "children": [
        {
          "nodeid": 1,
          "depth": 1,
          "split": "market_cycle_score",
          "split_condition": 67,
          "yes": 3,
          "no": 4,
          "missing": 4,
          "gain": 3.529459,
          "cover": 444,
          "children": [
            {
              "nodeid": 3,
              "leaf": -0.000783381343,
              "cover": 272
            },
            {
              "nodeid": 4,
              "leaf": 0.00813705008,
              "cover": 172
            }
          ]
        },
        {
          "nodeid": 2,
          "leaf": -0.0047909054,
          "cover": 175
        }
      ]
    },
    {
      "nodeid": 0,
      "depth": 0,
      "split": "price_trajectory_6mo",
      "split_condition": 185.710007,
      "yes": 1,
      "no": 2,
      "missing": 2,
      "gain": 2.2344532,
      "cover": 640,
      "children": [
        {
          "nodeid": 1,
          "leaf": 0.00113110873,
          "cover": 547
        },
        {
          "nodeid": 2,
          "leaf": -0.00705688214,
          "cover": 93
        }
      ]
    },
    {
      "nodeid": 0,
      "depth": 0,
      "split": "market_cycle_score",
      "split_condition": 92,
      "yes": 1,
      "no": 2,
      "missing": 2,
      "gain": 2.79274893,
      "cover": 644,
      "children": [
        {
          "nodeid": 1,
          "depth": 1,
          "split": "market_cycle_score",
          "split_condition": 67,
          "yes": 3,
          "no": 4,
          "missing": 4,
          "gain": 4.01495838,
          "cover": 607,
          "children": [
            {
              "nodeid": 3,
              "leaf": -0.002416756,
              "cover": 401
            },
            {
              "nodeid": 4,
              "leaf": 0.00606730627,
              "cover": 206
            }
          ]
        },
        {
          "nodeid": 2,
          "leaf": -0.0128830541,
          "cover": 37
        }
      ]
    },
    {
      "nodeid": 0,
      "depth": 0,
      "split": "google_trends_score",
      "split_condition": 80,
      "yes": 1,
      "no": 2,
      "missing": 2,
      "gain": 2.15190482,
      "cover": 613,
      "children": [
        {
          "nodeid": 1,
          "depth": 1,
          "split": "popularity_score",
          "split_condition": 75,
          "yes": 3,
          "no": 4,
          "missing": 4,
          "gain": 3.86564279,
          "cover": 465,
          "children": [
            {
              "nodeid": 3,
              "leaf": 0.0012715616,
              "cover": 298
            },
            {
              "nodeid": 4,
              "leaf": -0.00802374817,
              "cover": 167
            }
          ]
        },
        {
          "nodeid": 2,
          "leaf": 0.00479807472,
          "cover": 148
        }
      ]
    },
    {
      "nodeid": 0,
      "depth": 0,
      "split": "current_price",
      "split_condition": 6000,
      "yes": 1,
      "no": 2,
      "missing": 2,
      "gain": 2.87355304,
      "cover": 640,
      "children": [
        {
          "nodeid": 1,
          "leaf": 0.00203705649,
          "cover": 466
        },
        {
          "nodeid": 2,
          "leaf": -0.00540505722,
          "cover": 174
        }
      ]
    },
    {
      "nodeid": 0,
      "leaf": -0.000550060591,
      "cover": 634
    },
    {
      "nodeid": 0,
      "depth": 0,
      "split": "current_price",
      "split_condition": 10955.0801,
      "yes": 1,
      "no": 2,
      "missing": 2,
      "gain": 3.32616973,
      "cover": 626,
      "children": [
        {
          "nodeid": 1,
          "leaf": 0.000617439684,
          "cover": 578
        },
        {
          "nodeid": 2,
          "leaf": -0.0124319782,
          "cover": 48
        }
      ]
    },
    {
      "nodeid": 0,
      "depth": 0,
      "split": "chase_card_count",
      "split_condition": 5,
      "yes": 1,
      "no": 2,
      "missing": 2,
      "gain": 2.42238092,
      "cover": 631,
      "children": [
        {
          "nodeid": 1,
          "leaf": -0.00178918988,
          "cover": 490
        },
        {
          "nodeid": 2,
          "leaf": 0.00553479185,
          "cover": 141
        }
      ]
    },
    {
      "nodeid": 0,
      "leaf": 0.000191600921,
      "cover": 627
    },
    {
      "nodeid": 0,
      "leaf": 0.000172677581,
      "cover": 619
    },
    {
      "nodeid": 0,
      "depth": 0,
      "split": "current_price",
      "split_condition": 10955.0801,
      "yes": 1,
      "no": 2,
      "missing": 2,
      "gain": 3.24610019,
      "cover": 623,
      "children": [
        {
          "nodeid": 1,
          "depth": 1,
          "split": "market_cycle_score",
          "split_condition": 67,
          "yes": 3,
          "no": 4,
          "missing": 4,
          "gain": 2.33703113,
          "cover": 576,
          "children": [
            {
              "nodeid": 3,
              "leaf": -0.000992155285,
              "cover": 360
            },
            {
              "nodeid": 4,
              "leaf": 0.00544972997,
              "cover": 216
            }
          ]
        },
        {
          "nodeid": 2,
          "leaf": -0.011655679,
          "cover": 47
        }
      ]
    },
    {
      "nodeid": 0,
      "leaf": 0.000106607855,
      "cover": 621
    },
    {
      "nodeid": 0,
      "depth": 0,
      "split": "current_price",
      "split_condition": 11901.75,
      "yes": 1,
      "no": 2,
      "missing": 2,
      "gain": 2.0074501,
      "cover": 629,
      "children": [
        {
          "nodeid": 1,
          "leaf": 0.0011944233,
          "cover": 586
        },
        {
          "nodeid": 2,
          "leaf": -0.00940031279,
          "cover": 43
        }
      ]
    },
    {
      "nodeid": 0,
      "depth": 0,
      "split": "google_trends_score",
      "split_condition": 80,
      "yes": 1,
      "no": 2,
      "missing": 2,
      "gain": 2.93104243,
      "cover": 595,
      "children": [
        {
          "nodeid": 1,
          "depth": 1,
          "split": "popularity_score",
          "split_condition": 75,
          "yes": 3,
          "no": 4,
          "missing": 4,
          "gain": 3.26573801,
          "cover": 446,
          "children": [
            {
              "nodeid": 3,
              "leaf": 0.000872919627,
              "cover": 279
            },
            {
              "nodeid": 4,
              "leaf": -0.00774617726,
              "cover": 167
            }
          ]
        },
        {
          "nodeid": 2,
          "leaf": 0.00568367494,
          "cover": 149
        }
      ]
    },
    {
      "nodeid": 0,
      "leaf": -5.46642186e-05,
      "cover": 634
    },
    {
      "nodeid": 0,
      "depth": 0,
      "split": "google_trends_score",
      "split_condition": 80,
      "yes": 1,
      "no": 2,
      "missing": 2,
      "gain": 2.14996529,
      "cover": 648,
      "children": [
        {
          "nodeid": 1,
          "depth": 1,
          "split": "popularity_score",
          "split_condition": 75,
          "yes": 3,
          "no": 4,
          "missing": 4,
          "gain": 4.32886028,
          "cover": 475,
          "children": [
            {
              "nodeid": 3,
              "leaf": 0.00203981646,
              "cover": 305
            },
            {
              "nodeid": 4,
              "leaf": -0.00773535622,
              "cover": 170
            }
          ]
        },
        {
          "nodeid": 2,
          "leaf": 0.00501745753,
          "cover": 173
        }
      ]
    },
    {
      "nodeid": 0,
      "depth": 0,
      "split": "market_cycle_score",
      "split_condition": 63,
      "yes": 1,
      "no": 2,
      "missing": 2,
      "gain": 2.0915668,
      "cover": 617,
      "children": [
        {
          "nodeid": 1,
          "leaf": -0.0030123943,
          "cover": 302
        },
        {
          "nodeid": 2,
          "depth": 1,
          "split": "market_cycle_score",
          "split_condition": 92,
          "yes": 3,
          "no": 4,
          "missing": 4,
          "gain": 2.67395926,
          "cover": 315,
          "children": [
            {
              "nodeid": 3,
              "leaf": 0.00470510917,
              "cover": 273
            },
            {
              "nodeid": 4,
              "leaf": -0.00795406941,
              "cover": 42
            }
          ]
        }
      ]
    },
    {
      "nodeid": 0,
      "leaf": 0.000294441677,
      "cover": 629
    },
    {
      "nodeid": 0,
      "leaf": 0,
      "cover": 597
    },
    {
      "nodeid": 0,
      "leaf": -0.000163782432,
      "cover": 628
    },
    {
      "nodeid": 0,
      "depth": 0,
      "split": "current_price",
      "split_condition": 10955.0801,
      "yes": 1,
      "no": 2,
      "missing": 2,
      "gain": 2.05161738,
      "cover": 632,
      "children": [
        {
          "nodeid": 1,
          "leaf": 0.0004341772,
          "cover": 579
        },
        {
          "nodeid": 2,
          "leaf": -0.00938636065,
          "cover": 53
        }
      ]
    },
    {
      "nodeid": 0,
      "depth": 0,
      "split": "google_trends_score",
      "split_condition": 80,
      "yes": 1,
      "no": 2,
      "missing": 2,
      "gain": 2.51084042,
      "cover": 635,
      "children": [
        {
          "nodeid": 1,
          "depth": 1,
          "split": "popularity_score",
          "split_condition": 75,
          "yes": 3,
          "no": 4,
          "missing": 4,
          "gain": 2.68556452,
          "cover": 473,
          "children": [
            {
              "nodeid": 3,
              "leaf": 0.0014659852,
              "cover": 308
            },
            {
              "nodeid": 4,
              "leaf": -0.00627415394,
              "cover": 165
            }
          ]
        },
        {
          "nodeid": 2,
          "leaf": 0.00592012377,
          "cover": 162
        }
      ]
    },
    {
      "nodeid": 0,
      "leaf": 0.000184264412,
      "cover": 636
    },
    {
      "nodeid": 0,
      "depth": 0,
      "split": "chase_card_count",
      "split_condition": 5,
      "yes": 1,
      "no": 2,
      "missing": 2,
      "gain": 2.14635801,
      "cover": 625,
      "children": [
        {
          "nodeid": 1,
          "depth": 1,
          "split": "drawdown_12mo",
          "split_condition": -14.6829996,
          "yes": 3,
          "no": 4,
          "missing": 4,
          "gain": 2.34996581,
          "cover": 492,
          "children": [
            {
              "nodeid": 3,
              "leaf": 0.00342380628,
              "cover": 150
            },
            {
              "nodeid": 4,
              "leaf": -0.00388839515,
              "cover": 342
            }
          ]
        },
        {
          "nodeid": 2,
          "depth": 1,
          "split": "most_expensive_card_price",
          "split_condition": 220,
          "yes": 5,
          "no": 6,
          "missing": 6,
          "gain": 2.27694726,
          "cover": 133,
          "children": [
            {
              "nodeid": 5,
              "leaf": 0.0143359927,
              "cover": 43
            },
            {
              "nodeid": 6,
              "leaf": 0.000222410541,
              "cover": 90
            }
          ]
        }
      ]
    },
    {
      "nodeid": 0,
      "leaf": 9.56965869e-06,
      "cover": 632
    },
    {
      "nodeid": 0,
      "depth": 0,
      "split": "market_cycle_score",
      "split_condition": 92,
      "yes": 1,
      "no": 2,
      "missing": 2,
      "gain": 2.19433546,
      "cover": 639,
      "children": [
        {
          "nodeid": 1,
          "depth": 1,
          "split": "market_cycle_score",
          "split_condition": 63,
          "yes": 3,
          "no": 4,
          "missing": 4,
          "gain": 3.45902681,
          "cover": 598,
          "children": [
            {
              "nodeid": 3,
              "leaf": -0.00262363651,
              "cover": 319
            },
            {
              "nodeid": 4,
              "leaf": 0.00489964196,
              "cover": 279
            }
          ]
        },
        {
          "nodeid": 2,
          "leaf": -0.0105142957,
          "cover": 41
        }
      ]
    },
    {
      "nodeid": 0,
      "leaf": 0.000538449211,
      "cover": 638
    },
    {
      "nodeid": 0,
      "leaf": -0.000109491593,
      "cover": 606
    },
    {
      "nodeid": 0,
      "leaf": -0.000169526247,
      "cover": 616
    },
    {
      "nodeid": 0,
      "leaf": -0.000135536509,
      "cover": 631
    },
    {
      "nodeid": 0,
      "depth": 0,
      "split": "current_price",
      "split_condition": 10955.0801,
      "yes": 1,
      "no": 2,
      "missing": 2,
      "gain": 2.01320577,
      "cover": 639,
      "children": [
        {
          "nodeid": 1,
          "leaf": 0.000577157305,
          "cover": 587
        },
        {
          "nodeid": 2,
          "leaf": -0.00923765916,
          "cover": 52
        }
      ]
    },
    {
      "nodeid": 0,
      "leaf": -0.000314383273,
      "cover": 627
    },
    {
      "nodeid": 0,
      "leaf": -0.000130730841,
      "cover": 614
    },
    {
      "nodeid": 0,
      "depth": 0,
      "split": "chase_card_index_score",
      "split_condition": 84,
      "yes": 1,
      "no": 2,
      "missing": 2,
      "gain": 2.02114916,
      "cover": 618,
      "children": [
        {
          "nodeid": 1,
          "leaf": -0.00162405986,
          "cover": 427
        },
        {
          "nodeid": 2,
          "leaf": 0.00448317453,
          "cover": 191
        }
      ]
    },
    {
      "nodeid": 0,
      "leaf": -0.000508189958,
      "cover": 630
    },
    {
      "nodeid": 0,
      "leaf": -0.000647669076,
      "cover": 623
    },
    {
      "nodeid": 0,
      "leaf": 6.38383572e-05,
      "cover": 626
    },
    {
      "nodeid": 0,
      "leaf": -8.26534888e-05,
      "cover": 625
    },
    {
      "nodeid": 0,
      "depth": 0,
      "split": "market_cycle_score",
      "split_condition": 63,
      "yes": 1,
      "no": 2,
      "missing": 2,
      "gain": 2.05984068,
      "cover": 637,
      "children": [
        {
          "nodeid": 1,
          "leaf": -0.00299861631,
          "cover": 308
        },
        {
          "nodeid": 2,
          "leaf": 0.00264419219,
          "cover": 329
        }
      ]
    },
    {
      "nodeid": 0,
      "depth": 0,
      "split": "current_price",
      "split_condition": 52,
      "yes": 1,
      "no": 2,
      "missing": 2,
      "gain": 2.3859086,
      "cover": 635,
      "children": [
        {
          "nodeid": 1,
          "leaf": 0.0105750142,
          "cover": 43
        },
        {
          "nodeid": 2,
          "depth": 1,
          "split": "price_trajectory_6mo",
          "split_condition": 97.2289963,
          "yes": 3,
          "no": 4,
          "missing": 4,
          "gain": 2.34321213,
          "cover": 592,
          "children": [
            {
              "nodeid": 3,
              "leaf": 0.000474566215,
              "cover": 476
            },
            {
              "nodeid": 4,
              "leaf": -0.00724378927,
              "cover": 116
            }
          ]
        }
      ]
    },
    {
      "nodeid": 0,
      "leaf": 0.000147047118,
      "cover": 606
    },
    {
      "nodeid": 0,
      "leaf": 1.81504274e-05,
      "cover": 652
    },
    {
      "nodeid": 0,
      "leaf": 0,
      "cover": 618
    },
    {
      "nodeid": 0,
      "leaf": 0.000472554151,
      "cover": 628
    },
    {
      "nodeid": 0,
      "leaf": 0.000148010382,
      "cover": 629
    },
    {
      "nodeid": 0,
      "leaf": 0.000162627592,
      "cover": 636
    },
    {
      "nodeid": 0,
      "leaf": -0.000428721134,
      "cover": 617
    },
    {
      "nodeid": 0,
      "leaf": -0.000541364017,
      "cover": 627
    },
    {
      "nodeid": 0,
      "depth": 0,
      "split": "price_momentum_1mo",
      "split_condition": 16.8859997,
      "yes": 1,
      "no": 2,
      "missing": 2,
      "gain": 2.13316369,
      "cover": 621,
      "children": [
        {
          "nodeid": 1,
          "leaf": 0.00105888105,
          "cover": 539
        },
        {
          "nodeid": 2,
          "leaf": -0.00736824563,
          "cover": 82
        }
      ]
    },
    {
      "nodeid": 0,
      "leaf": -0.000396703108,
      "cover": 629
    },
    {
      "nodeid": 0,
      "leaf": 0,
      "cover": 627
    },
    {
      "nodeid": 0,
      "leaf": 0,
      "cover": 660
    },
    {
      "nodeid": 0,
      "leaf": 5.39415632e-05,
      "cover": 654
    },
    {
      "nodeid": 0,
      "leaf": -0.000349614129,
      "cover": 614
    },
    {
      "nodeid": 0,
      "depth": 0,
      "split": "google_trends_score",
      "split_condition": 80,
      "yes": 1,
      "no": 2,
      "missing": 2,
      "gain": 2.36386061,
      "cover": 608,
      "children": [
        {
          "nodeid": 1,
          "depth": 1,
          "split": "popularity_score",
          "split_condition": 75,
          "yes": 3,
          "no": 4,
          "missing": 4,
          "gain": 2.51837301,
          "cover": 453,
          "children": [
            {
              "nodeid": 3,
              "leaf": 0.00110900763,
              "cover": 293
            },
            {
              "nodeid": 4,
              "leaf": -0.00650229258,
              "cover": 160
            }
          ]
        },
        {
          "nodeid": 2,
          "leaf": 0.00553179532,
          "cover": 155
        }
      ]
    }
  ],
  "treeCount": 100,
  "trainingRows": 892,
  "crossValidation": {
    "folds": 5.0,
    "rmse": 2103.9593,
    "mae": 904.83,
    "mape": 29.8492,
    "returnRmse": 0.462683,
    "returnMae": 0.34953,
    "strategy": "time_series_split"
  },
  "meanTargetPrice": 3643.2646,
  "meanTargetReturnPercent": 57.4771,
  "historicalErrorPercent": 29.8492,
  "maeShareOfMeanTarget": 0.2484,
  "targetTransform": {
    "train": "np.log",
    "inference": "np.exp"
  },
  "validationStrategy": "time_series_split",
  "minimumTrainingRowsForApproval": 24,
  "deploymentApproved": true,
  "manualReviewReasons": [],
  "globalImportance": [
    {
      "key": "era_encoded",
      "name": "era_encoded",
      "gain": 14.222314,
      "influence": 15.6736
    },
    {
      "key": "price_volatility_12mo",
      "name": "price_volatility_12mo",
      "gain": 8.573833,
      "influence": 9.4487
    },
    {
      "key": "price_trajectory_24mo",
      "name": "price_trajectory_24mo",
      "gain": 8.473607,
      "influence": 9.3383
    },
    {
      "key": "set_age_years",
      "name": "set_age_years",
      "gain": 8.148451,
      "influence": 8.9799
    },
    {
      "key": "market_cycle_score",
      "name": "market_cycle_score",
      "gain": 6.556241,
      "influence": 7.2253
    },
    {
      "key": "price_volatility_6mo",
      "name": "price_volatility_6mo",
      "gain": 6.117723,
      "influence": 6.742
    },
    {
      "key": "price_momentum_12mo",
      "name": "price_momentum_12mo",
      "gain": 5.601823,
      "influence": 6.1734
    },
    {
      "key": "current_price",
      "name": "current_price",
      "gain": 4.484762,
      "influence": 4.9424
    },
    {
      "key": "chase_card_count",
      "name": "chase_card_count",
      "gain": 4.247231,
      "influence": 4.6806
    },
    {
      "key": "google_trends_score",
      "name": "google_trends_score",
      "gain": 3.79677,
      "influence": 4.1842
    },
    {
      "key": "popularity_score",
      "name": "popularity_score",
      "gain": 3.614921,
      "influence": 3.9838
    },
    {
      "key": "most_expensive_card_price",
      "name": "most_expensive_card_price",
      "gain": 3.276408,
      "influence": 3.6107
    },
    {
      "key": "drawdown_12mo",
      "name": "drawdown_12mo",
      "gain": 3.262491,
      "influence": 3.5954
    },
    {
      "key": "price_trajectory_6mo",
      "name": "price_trajectory_6mo",
      "gain": 3.150509,
      "influence": 3.472
    },
    {
      "key": "history_window_missing_flag",
      "name": "history_window_missing_flag",
      "gain": 3.059201,
      "influence": 3.3714
    },
    {
      "key": "price_momentum_1mo",
      "name": "price_momentum_1mo",
      "gain": 2.133164,
      "influence": 2.3508
    },
    {
      "key": "chase_card_index_score",
      "name": "chase_card_index_score",
      "gain": 2.021149,
      "influence": 2.2274
    }
  ]
}