{
  "generatedAt": "2026-04-20T18:35:57.608908+00:00",
  "horizon": "1yr",
  "targetColumn": "price_1yr_later",
  "featureNames": [
    "current_price",
    "most_expensive_card_price",
    "chase_card_count",
    "chase_card_index_score",
    "set_age_years",
    "google_trends_score",
    "print_run_type_encoded",
    "price_trajectory_6mo",
    "price_trajectory_24mo",
    "collector_demand_ratio",
    "market_cycle_score",
    "popularity_score",
    "product_type_encoded",
    "era_encoded"
  ],
  "baseScore": 6.8098736,
  "trees": [
    {
      "nodeid": 0,
      "depth": 0,
      "split": "current_price",
      "split_condition": 757.150024,
      "yes": 1,
      "no": 2,
      "missing": 2,
      "gain": 1922.72498,
      "cover": 729,
      "children": [
        {
          "nodeid": 1,
          "depth": 1,
          "split": "current_price",
          "split_condition": 175,
          "yes": 3,
          "no": 4,
          "missing": 4,
          "gain": 200.805969,
          "cover": 419,
          "children": [
            {
              "nodeid": 3,
              "depth": 2,
              "split": "current_price",
              "split_condition": 88,
              "yes": 7,
              "no": 8,
              "missing": 8,
              "gain": 51.3848877,
              "cover": 292,
              "children": [
                {
                  "nodeid": 7,
                  "depth": 3,
                  "split": "market_cycle_score",
                  "split_condition": 67,
                  "yes": 15,
                  "no": 16,
                  "missing": 16,
                  "gain": 13.5712891,
                  "cover": 140,
                  "children": [
                    {
                      "nodeid": 15,
                      "leaf": -0.130763829,
                      "cover": 78
                    },
                    {
                      "nodeid": 16,
                      "leaf": -0.0936654881,
                      "cover": 62
                    }
                  ]
                },
                {
                  "nodeid": 8,
                  "depth": 3,
                  "split": "popularity_score",
                  "split_condition": 90,
                  "yes": 17,
                  "no": 18,
                  "missing": 18,
                  "gain": 10.0586548,
                  "cover": 152,
                  "children": [
                    {
                      "nodeid": 17,
                      "leaf": -0.0757717192,
                      "cover": 139
                    },
                    {
                      "nodeid": 18,
                      "leaf": -0.0264352094,
                      "cover": 13
                    }
                  ]
                }
              ]
            },
            {
              "nodeid": 4,
              "depth": 2,
              "split": "current_price",
              "split_condition": 329.640015,
              "yes": 9,
              "no": 10,
              "missing": 10,
              "gain": 15.3328934,
              "cover": 127,
              "children": [
                {
                  "nodeid": 9,
                  "depth": 3,
                  "split": "set_age_years",
                  "split_condition": 0.884299994,
                  "yes": 19,
                  "no": 20,
                  "missing": 20,
                  "gain": 4.55398369,
                  "cover": 50,
                  "children": [
                    {
                      "nodeid": 19,
                      "leaf": -0.0705573484,
                      "cover": 9
                    },
                    {
                      "nodeid": 20,
                      "leaf": -0.0300800595,
                      "cover": 41
                    }
                  ]
                },
                {
                  "nodeid": 10,
                  "depth": 3,
                  "split": "price_trajectory_24mo",
                  "split_condition": 288.229004,
                  "yes": 21,
                  "no": 22,
                  "missing": 21,
                  "gain": 3.03722978,
                  "cover": 77,
                  "children": [
                    {
                      "nodeid": 21,
                      "leaf": -0.00630517304,
                      "cover": 71
                    },
                    {
                      "nodeid": 22,
                      "leaf": 0.0281440709,
                      "cover": 6
                    }
                  ]
                }
              ]
            }
          ]
        },
        {
          "nodeid": 2,
          "depth": 1,
          "split": "current_price",
          "split_condition": 2798.22998,
          "yes": 5,
          "no": 6,
          "missing": 6,
          "gain": 141.755981,
          "cover": 310,
          "children": [
            {
              "nodeid": 5,
              "depth": 2,
              "split": "current_price",
              "split_condition": 1479.15002,
              "yes": 11,
              "no": 12,
              "missing": 12,
              "gain": 4.79349518,
              "cover": 93,
              "children": [
                {
                  "nodeid": 11,
                  "depth": 3,
                  "split": "price_trajectory_24mo",
                  "split_condition": 1698.854,
                  "yes": 23,
                  "no": 24,
                  "missing": 23,
                  "gain": 1.68336487,
                  "cover": 53,
                  "children": [
                    {
                      "nodeid": 23,
                      "leaf": 0.0329221338,
                      "cover": 49
                    },
                    {
                      "nodeid": 24,
                      "leaf": 0,
                      "cover": 4
                    }
                  ]
                },
                {
                  "nodeid": 12,
                  "depth": 3,
                  "split": "collector_demand_ratio",
                  "split_condition": 0.899999976,
                  "yes": 25,
                  "no": 26,
                  "missing": 26,
                  "gain": 2.47656631,
                  "cover": 40,
                  "children": [
                    {
                      "nodeid": 25,
                      "leaf": 0.0695184097,
                      "cover": 19
                    },
                    {
                      "nodeid": 26,
                      "leaf": 0.0391158275,
                      "cover": 21
                    }
                  ]
                }
              ]
            },
            {
              "nodeid": 6,
              "depth": 2,
              "split": "chase_card_index_score",
              "split_condition": 95,
              "yes": 13,
              "no": 14,
              "missing": 14,
              "gain": 8.38623047,
              "cover": 217,
              "children": [
                {
                  "nodeid": 13,
                  "leaf": 0.109322444,
                  "cover": 177
                },
                {
                  "nodeid": 14,
                  "leaf": 0.141966611,
                  "cover": 40
                }
              ]
            }
          ]
        }
      ]
    },
    {
      "nodeid": 0,
      "depth": 0,
      "split": "set_age_years",
      "split_condition": 4.66260004,
      "yes": 1,
      "no": 2,
      "missing": 2,
      "gain": 1537.505,
      "cover": 714,
      "children": [
        {
          "nodeid": 1,
          "depth": 1,
          "split": "most_expensive_card_price",
          "split_condition": 450,
          "yes": 3,
          "no": 4,
          "missing": 4,
          "gain": 187.041443,
          "cover": 396,
          "children": [
            {
              "nodeid": 3,
              "depth": 2,
              "split": "market_cycle_score",
              "split_condition": 63,
              "yes": 7,
              "no": 8,
              "missing": 8,
              "gain": 47.4258423,
              "cover": 312,
              "children": [
                {
                  "nodeid": 7,
                  "depth": 3,
                  "split": "most_expensive_card_price",
                  "split_condition": 175,
                  "yes": 15,
                  "no": 16,
                  "missing": 16,
                  "gain": 19.9782715,
                  "cover": 148,
                  "children": [
                    {
                      "nodeid": 15,
                      "leaf": -0.121795751,
                      "cover": 80
                    },
                    {
                      "nodeid": 16,
                      "leaf": -0.0811091438,
                      "cover": 68
                    }
                  ]
                },
                {
                  "nodeid": 8,
                  "depth": 3,
                  "split": "product_type_encoded",
                  "split_condition": 3,
                  "yes": 17,
                  "no": 18,
                  "missing": 18,
                  "gain": 21.4006653,
                  "cover": 164,
                  "children": [
                    {
                      "nodeid": 17,
                      "leaf": -0.0451818481,
                      "cover": 85
                    },
                    {
                      "nodeid": 18,
                      "leaf": -0.0826425254,
                      "cover": 79
                    }
                  ]
                }
              ]
            },
            {
              "nodeid": 4,
              "depth": 2,
              "split": "set_age_years",
              "split_condition": 2.43120003,
              "yes": 9,
              "no": 10,
              "missing": 10,
              "gain": 13.1424923,
              "cover": 84,
              "children": [
                {
                  "nodeid": 9,
                  "depth": 3,
                  "split": "set_age_years",
                  "split_condition": 2.09450006,
                  "yes": 19,
                  "no": 20,
                  "missing": 20,
                  "gain": 0.625368595,
                  "cover": 32,
                  "children": [
                    {
                      "nodeid": 19,
                      "leaf": -0.0282573234,
                      "cover": 23
                    },
                    {
                      "nodeid": 20,
                      "leaf": -0.0100481743,
                      "cover": 9
                    }
                  ]
                },
                {
                  "nodeid": 10,
                  "depth": 3,
                  "split": "most_expensive_card_price",
                  "split_condition": 1000,
                  "yes": 21,
                  "no": 22,
                  "missing": 22,
                  "gain": 3.03337002,
                  "cover": 52,
                  "children": [
                    {
                      "nodeid": 21,
                      "leaf": 0.00135606399,
                      "cover": 21
                    },
                    {
                      "nodeid": 22,
                      "leaf": 0.0261426847,
                      "cover": 31
                    }
                  ]
                }
              ]
            }
          ]
        },
        {
          "nodeid": 2,
          "depth": 1,
          "split": "era_encoded",
          "split_condition": 3,
          "yes": 5,
          "no": 6,
          "missing": 6,
          "gain": 202.531067,
          "cover": 318,
          "children": [
            {
              "nodeid": 5,
              "depth": 2,
              "split": "popularity_score",
              "split_condition": 86,
              "yes": 11,
              "no": 12,
              "missing": 12,
              "gain": 46.7050056,
              "cover": 107,
              "children": [
                {
                  "nodeid": 11,
                  "depth": 3,
                  "split": "set_age_years",
                  "split_condition": 7.24709988,
                  "yes": 23,
                  "no": 24,
                  "missing": 24,
                  "gain": 16.1043873,
                  "cover": 81,
                  "children": [
                    {
                      "nodeid": 23,
                      "leaf": -0.0173240881,
                      "cover": 37
                    },
                    {
                      "nodeid": 24,
                      "leaf": 0.0268698633,
                      "cover": 44
                    }
                  ]
                },
                {
                  "nodeid": 12,
                  "depth": 3,
                  "split": "set_age_years",
                  "split_condition": 5.16359997,
                  "yes": 25,
                  "no": 26,
                  "missing": 26,
                  "gain": 0.115394592,
                  "cover": 26,
                  "children": [
                    {
                      "nodeid": 25,
                      "leaf": 0.053429842,
                      "cover": 7
                    },
                    {
                      "nodeid": 26,
                      "leaf": 0.0901195258,
                      "cover": 19
                    }
                  ]
                }
              ]
            },
            {
              "nodeid": 6,
              "depth": 2,
              "split": "most_expensive_card_price",
              "split_condition": 300,
              "yes": 13,
              "no": 14,
              "missing": 14,
              "gain": 5.3092041,
              "cover": 211,
              "children": [
                {
                  "nodeid": 13,
                  "leaf": 0.104548991,
                  "cover": 171
                },
                {
                  "nodeid": 14,
                  "leaf": 0.132859275,
                  "cover": 40
                }
              ]
            }
          ]
        }
      ]
    },
    {
      "nodeid": 0,
      "depth": 0,
      "split": "current_price",
      "split_condition": 757.150024,
      "yes": 1,
      "no": 2,
      "missing": 2,
      "gain": 1566.67126,
      "cover": 720,
      "children": [
        {
          "nodeid": 1,
          "depth": 1,
          "split": "current_price",
          "split_condition": 175,
          "yes": 3,
          "no": 4,
          "missing": 4,
          "gain": 168.678345,
          "cover": 414,
          "children": [
            {
              "nodeid": 3,
              "depth": 2,
              "split": "current_price",
              "split_condition": 80.9899979,
              "yes": 7,
              "no": 8,
              "missing": 8,
              "gain": 42.9760132,
              "cover": 291,
              "children": [
                {
                  "nodeid": 7,
                  "depth": 3,
                  "split": "current_price",
                  "split_condition": 23.7099991,
                  "yes": 15,
                  "no": 16,
                  "missing": 16,
                  "gain": 5.29656982,
                  "cover": 130,
                  "children": [
                    {
                      "nodeid": 15,
                      "leaf": -0.0362270139,
                      "cover": 4
                    },
                    {
                      "nodeid": 16,
                      "leaf": -0.109430984,
                      "cover": 126
                    }
                  ]
                },
                {
                  "nodeid": 8,
                  "depth": 3,
                  "split": "google_trends_score",
                  "split_condition": 80,
                  "yes": 17,
                  "no": 18,
                  "missing": 18,
                  "gain": 6.65289307,
                  "cover": 161,
                  "children": [
                    {
                      "nodeid": 17,
                      "leaf": -0.07093063,
                      "cover": 146
                    },
                    {
                      "nodeid": 18,
                      "leaf": -0.0320265032,
                      "cover": 15
                    }
                  ]
                }
              ]
            },
            {
              "nodeid": 4,
              "depth": 2,
              "split": "set_age_years",
              "split_condition": 2.23130012,
              "yes": 9,
              "no": 10,
              "missing": 10,
              "gain": 11.798131,
              "cover": 123,
              "children": [
                {
                  "nodeid": 9,
                  "depth": 3,
                  "split": "set_age_years",
                  "split_condition": 0.884299994,
                  "yes": 19,
                  "no": 20,
                  "missing": 20,
                  "gain": 3.93184853,
                  "cover": 43,
                  "children": [
                    {
                      "nodeid": 19,
                      "leaf": -0.0655145943,
                      "cover": 9
                    },
                    {
                      "nodeid": 20,
                      "leaf": -0.0270758998,
                      "cover": 34
                    }
                  ]
                },
                {
                  "nodeid": 10,
                  "depth": 3,
                  "split": "chase_card_index_score",
                  "split_condition": 90,
                  "yes": 21,
                  "no": 22,
                  "missing": 22,
                  "gain": 4.02184963,
                  "cover": 80,
                  "children": [
                    {
                      "nodeid": 21,
                      "leaf": -0.00940292981,
                      "cover": 66
                    },
                    {
                      "nodeid": 22,
                      "leaf": 0.0192046668,
                      "cover": 14
                    }
                  ]
                }
              ]
            }
          ]
        },
        {
          "nodeid": 2,
          "depth": 1,
          "split": "set_age_years",
          "split_condition": 21.5221996,
          "yes": 5,
          "no": 6,
          "missing": 6,
          "gain": 110.469849,
          "cover": 306,
          "children": [
            {
              "nodeid": 5,
              "depth": 2,
              "split": "current_price",
              "split_condition": 886.72998,
              "yes": 11,
              "no": 12,
              "missing": 12,
              "gain": 5.10891724,
              "cover": 105,
              "children": [
                {
                  "nodeid": 11,
                  "depth": 3,
                  "split": "price_trajectory_6mo",
                  "split_condition": 35.105999,
                  "yes": 23,
                  "no": 24,
                  "missing": 24,
                  "gain": 0.855831385,
                  "cover": 24,
                  "children": [
                    {
                      "nodeid": 23,
                      "leaf": 0.0245593823,
                      "cover": 19
                    },
                    {
                      "nodeid": 24,
                      "leaf": 0.000319368846,
                      "cover": 5
                    }
                  ]
                },
                {
                  "nodeid": 12,
                  "depth": 3,
                  "split": "chase_card_count",
                  "split_condition": 4,
                  "yes": 25,
                  "no": 26,
                  "missing": 26,
                  "gain": 4.48483276,
                  "cover": 81,
                  "children": [
                    {
                      "nodeid": 25,
                      "leaf": 0.0337473899,
                      "cover": 39
                    },
                    {
                      "nodeid": 26,
                      "leaf": 0.0596869998,
                      "cover": 42
                    }
                  ]
                }
              ]
            },
            {
              "nodeid": 6,
              "depth": 2,
              "split": "chase_card_index_score",
              "split_condition": 83,
              "yes": 13,
              "no": 14,
              "missing": 14,
              "gain": 3.5980835,
              "cover": 201,
              "children": [
                {
                  "nodeid": 13,
                  "leaf": 0.100375608,
                  "cover": 166
                },
                {
                  "nodeid": 14,
                  "leaf": 0.127102569,
                  "cover": 35
                }
              ]
            }
          ]
        }
      ]
    },
    {
      "nodeid": 0,
      "depth": 0,
      "split": "current_price",
      "split_condition": 826.450012,
      "yes": 1,
      "no": 2,
      "missing": 2,
      "gain": 1510.85095,
      "cover": 743,
      "children": [
        {
          "nodeid": 1,
          "depth": 1,
          "split": "current_price",
          "split_condition": 175,
          "yes": 3,
          "no": 4,
          "missing": 4,
          "gain": 166.305359,
          "cover": 444,
          "children": [
            {
              "nodeid": 3,
              "depth": 2,
              "split": "current_price",
              "split_condition": 88,
              "yes": 7,
              "no": 8,
              "missing": 8,
              "gain": 42.2412109,
              "cover": 304,
              "children": [
                {
                  "nodeid": 7,
                  "depth": 3,
                  "split": "current_price",
                  "split_condition": 23.7099991,
                  "yes": 15,
                  "no": 16,
                  "missing": 16,
                  "gain": 11.7919312,
                  "cover": 149,
                  "children": [
                    {
                      "nodeid": 15,
                      "leaf": -0.019298112,
                      "cover": 5
                    },
                    {
                      "nodeid": 16,
                      "leaf": -0.103155792,
                      "cover": 144
                    }
                  ]
                },
                {
                  "nodeid": 8,
                  "depth": 3,
                  "split": "popularity_score",
                  "split_condition": 90,
                  "yes": 17,
                  "no": 18,
                  "missing": 18,
                  "gain": 6.45628357,
                  "cover": 155,
                  "children": [
                    {
                      "nodeid": 17,
                      "leaf": -0.0650976151,
                      "cover": 143
                    },
                    {
                      "nodeid": 18,
                      "leaf": -0.0235450678,
                      "cover": 12
                    }
                  ]
                }
              ]
            },
            {
              "nodeid": 4,
              "depth": 2,
              "split": "set_age_years",
              "split_condition": 2.34629989,
              "yes": 9,
              "no": 10,
              "missing": 10,
              "gain": 14.3033848,
              "cover": 140,
              "children": [
                {
                  "nodeid": 9,
                  "depth": 3,
                  "split": "set_age_years",
                  "split_condition": 0.884299994,
                  "yes": 19,
                  "no": 20,
                  "missing": 20,
                  "gain": 4.7041626,
                  "cover": 50,
                  "children": [
                    {
                      "nodeid": 19,
                      "leaf": -0.0649044663,
                      "cover": 11
                    },
                    {
                      "nodeid": 20,
                      "leaf": -0.0267831665,
                      "cover": 39
                    }
                  ]
                },
                {
                  "nodeid": 10,
                  "depth": 3,
                  "split": "google_trends_score",
                  "split_condition": 84,
                  "yes": 21,
                  "no": 22,
                  "missing": 22,
                  "gain": 3.50447178,
                  "cover": 90,
                  "children": [
                    {
                      "nodeid": 21,
                      "leaf": -0.00761587638,
                      "cover": 75
                    },
                    {
                      "nodeid": 22,
                      "leaf": 0.0180984102,
                      "cover": 15
                    }
                  ]
                }
              ]
            }
          ]
        },
        {
          "nodeid": 2,
          "depth": 1,
          "split": "current_price",
          "split_condition": 2798.22998,
          "yes": 5,
          "no": 6,
          "missing": 6,
          "gain": 76.5163574,
          "cover": 299,
          "children": [
            {
              "nodeid": 5,
              "depth": 2,
              "split": "price_trajectory_24mo",
              "split_condition": 99.0920029,
              "yes": 11,
              "no": 12,
              "missing": 11,
              "gain": 3.0440979,
              "cover": 74,
              "children": [
                {
                  "nodeid": 11,
                  "depth": 3,
                  "split": "set_age_years",
                  "split_condition": 18.4997005,
                  "yes": 23,
                  "no": 24,
                  "missing": 24,
                  "gain": 0.664293289,
                  "cover": 46,
                  "children": [
                    {
                      "nodeid": 23,
                      "leaf": 0.0358412974,
                      "cover": 28
                    },
                    {
                      "nodeid": 24,
                      "leaf": 0.0200623106,
                      "cover": 18
                    }
                  ]
                },
                {
                  "nodeid": 12,
                  "depth": 3,
                  "split": "current_price",
                  "split_condition": 864.679993,
                  "yes": 25,
                  "no": 26,
                  "missing": 26,
                  "gain": 2.35038757,
                  "cover": 28,
                  "children": [
                    {
                      "nodeid": 25,
                      "leaf": 0,
                      "cover": 2
                    },
                    {
                      "nodeid": 26,
                      "leaf": 0.0572941564,
                      "cover": 26
                    }
                  ]
                }
              ]
            },
            {
              "nodeid": 6,
              "depth": 2,
              "split": "google_trends_score",
              "split_condition": 88,
              "yes": 13,
              "no": 14,
              "missing": 14,
              "gain": 3.80767822,
              "cover": 225,
              "children": [
                {
                  "nodeid": 13,
                  "depth": 3,
                  "split": "price_trajectory_6mo",
                  "split_condition": 185.710007,
                  "yes": 27,
                  "no": 28,
                  "missing": 27,
                  "gain": 0.619384766,
                  "cover": 185,
                  "children": [
                    {
                      "nodeid": 27,
                      "leaf": 0.0947817862,
                      "cover": 183
                    },
                    {
                      "nodeid": 28,
                      "leaf": 0.0328147076,
                      "cover": 2
                    }
                  ]
                },
                {
                  "nodeid": 14,
                  "leaf": 0.118905187,
                  "cover": 40
                }
              ]
            }
          ]
        }
      ]
    },
    {
      "nodeid": 0,
      "depth": 0,
      "split": "current_price",
      "split_condition": 790.210022,
      "yes": 1,
      "no": 2,
      "missing": 2,
      "gain": 1339.17737,
      "cover": 732,
      "children": [
        {
          "nodeid": 1,
          "depth": 1,
          "split": "current_price",
          "split_condition": 218.229996,
          "yes": 3,
          "no": 4,
          "missing": 4,
          "gain": 146.064575,
          "cover": 432,
          "children": [
            {
              "nodeid": 3,
              "depth": 2,
              "split": "current_price",
              "split_condition": 88,
              "yes": 7,
              "no": 8,
              "missing": 8,
              "gain": 41.0500488,
              "cover": 321,
              "children": [
                {
                  "nodeid": 7,
                  "depth": 3,
                  "split": "most_expensive_card_price",
                  "split_condition": 450,
                  "yes": 15,
                  "no": 16,
                  "missing": 16,
                  "gain": 10.2603149,
                  "cover": 149,
                  "children": [
                    {
                      "nodeid": 15,
                      "leaf": -0.0969418734,
                      "cover": 144
                    },
                    {
                      "nodeid": 16,
                      "leaf": -0.0184940249,
                      "cover": 5
                    }
                  ]
                },
                {
                  "nodeid": 8,
                  "depth": 3,
                  "split": "market_cycle_score",
                  "split_condition": 63,
                  "yes": 17,
                  "no": 18,
                  "missing": 18,
                  "gain": 7.9954071,
                  "cover": 172,
                  "children": [
                    {
                      "nodeid": 17,
                      "leaf": -0.0686075091,
                      "cover": 89
                    },
                    {
                      "nodeid": 18,
                      "leaf": -0.0451702699,
                      "cover": 83
                    }
                  ]
                }
              ]
            },
            {
              "nodeid": 4,
              "depth": 2,
              "split": "set_age_years",
              "split_condition": 1.84259999,
              "yes": 9,
              "no": 10,
              "missing": 10,
              "gain": 4.69240856,
              "cover": 111,
              "children": [
                {
                  "nodeid": 9,
                  "depth": 3,
                  "split": "set_age_years",
                  "split_condition": 0.429800004,
                  "yes": 19,
                  "no": 20,
                  "missing": 20,
                  "gain": 0.768640041,
                  "cover": 20,
                  "children": [
                    {
                      "nodeid": 19,
                      "leaf": -0.0473424383,
                      "cover": 5
                    },
                    {
                      "nodeid": 20,
                      "leaf": -0.0209209155,
                      "cover": 15
                    }
                  ]
                },
                {
                  "nodeid": 10,
                  "depth": 3,
                  "split": "price_trajectory_24mo",
                  "split_condition": 264.403992,
                  "yes": 21,
                  "no": 22,
                  "missing": 21,
                  "gain": 1.82699633,
                  "cover": 91,
                  "children": [
                    {
                      "nodeid": 21,
                      "leaf": -0.00564729003,
                      "cover": 83
                    },
                    {
                      "nodeid": 22,
                      "leaf": 0.0179987103,
                      "cover": 8
                    }
                  ]
                }
              ]
            }
          ]
        },
        {
          "nodeid": 2,
          "depth": 1,
          "split": "current_price",
          "split_condition": 2798.22998,
          "yes": 5,
          "no": 6,
          "missing": 6,
          "gain": 73.6206665,
          "cover": 300,
          "children": [
            {
              "nodeid": 5,
              "depth": 2,
              "split": "price_trajectory_24mo",
              "split_condition": 31.1110001,
              "yes": 11,
              "no": 12,
              "missing": 12,
              "gain": 2.89334106,
              "cover": 81,
              "children": [
                {
                  "nodeid": 11,
                  "leaf": 0.015158481,
                  "cover": 14
                },
                {
                  "nodeid": 12,
                  "depth": 3,
                  "split": "current_price",
                  "split_condition": 959.98999,
                  "yes": 23,
                  "no": 24,
                  "missing": 24,
                  "gain": 2.39196396,
                  "cover": 67,
                  "children": [
                    {
                      "nodeid": 23,
                      "leaf": 0.0239358805,
                      "cover": 18
                    },
                    {
                      "nodeid": 24,
                      "leaf": 0.0482745282,
                      "cover": 49
                    }
                  ]
                }
              ]
            },
            {
              "nodeid": 6,
              "depth": 2,
              "split": "chase_card_index_score",
              "split_condition": 95,
              "yes": 13,
              "no": 14,
              "missing": 14,
              "gain": 4.9710083,
              "cover": 219,
              "children": [
                {
                  "nodeid": 13,
                  "depth": 3,
                  "split": "price_trajectory_6mo",
                  "split_condition": 232.169998,
                  "yes": 25,
                  "no": 26,
                  "missing": 26,
                  "gain": 0.396118164,
                  "cover": 178,
                  "children": [
                    {
                      "nodeid": 25,
                      "leaf": 0.0915673599,
                      "cover": 154
                    },
                    {
                      "nodeid": 26,
                      "leaf": 0.0702569112,
                      "cover": 24
                    }
                  ]
                },
                {
                  "nodeid": 14,
                  "leaf": 0.114702977,
                  "cover": 41
                }
              ]
            }
          ]
        }
      ]
    },
    {
      "nodeid": 0,
      "depth": 0,
      "split": "current_price",
      "split_condition": 826.450012,
      "yes": 1,
      "no": 2,
      "missing": 2,
      "gain": 1216.17578,
      "cover": 752,
      "children": [
        {
          "nodeid": 1,
          "depth": 1,
          "split": "current_price",
          "split_condition": 175,
          "yes": 3,
          "no": 4,
          "missing": 4,
          "gain": 135.323486,
          "cover": 434,
          "children": [
            {
              "nodeid": 3,
              "depth": 2,
              "split": "current_price",
              "split_condition": 88,
              "yes": 7,
              "no": 8,
              "missing": 8,
              "gain": 28.1342163,
              "cover": 285,
              "children": [
                {
                  "nodeid": 7,
                  "depth": 3,
                  "split": "current_price",
                  "split_condition": 23.7099991,
                  "yes": 15,
                  "no": 16,
                  "missing": 16,
                  "gain": 8.98840332,
                  "cover": 136,
                  "children": [
                    {
                      "nodeid": 15,
                      "leaf": -0.0177234374,
                      "cover": 5
                    },
                    {
                      "nodeid": 16,
                      "leaf": -0.0914626047,
                      "cover": 131
                    }
                  ]
                },
                {
                  "nodeid": 8,
                  "depth": 3,
                  "split": "popularity_score",
                  "split_condition": 90,
                  "yes": 17,
                  "no": 18,
                  "missing": 18,
                  "gain": 7.22276306,
                  "cover": 149,
                  "children": [
                    {
                      "nodeid": 17,
                      "leaf": -0.0598872975,
                      "cover": 135
                    },
                    {
                      "nodeid": 18,
                      "leaf": -0.0197491478,
                      "cover": 14
                    }
                  ]
                }
              ]
            },
            {
              "nodeid": 4,
              "depth": 2,
              "split": "set_age_years",
              "split_condition": 2.23130012,
              "yes": 9,
              "no": 10,
              "missing": 10,
              "gain": 13.0796137,
              "cover": 149,
              "children": [
                {
                  "nodeid": 9,
                  "depth": 3,
                  "split": "set_age_years",
                  "split_condition": 0.884299994,
                  "yes": 19,
                  "no": 20,
                  "missing": 20,
                  "gain": 3.88892174,
                  "cover": 49,
                  "children": [
                    {
                      "nodeid": 19,
                      "leaf": -0.0600741766,
                      "cover": 11
                    },
                    {
                      "nodeid": 20,
                      "leaf": -0.0251410343,
                      "cover": 38
                    }
                  ]
                },
                {
                  "nodeid": 10,
                  "depth": 3,
                  "split": "most_expensive_card_price",
                  "split_condition": 1100,
                  "yes": 21,
                  "no": 22,
                  "missing": 22,
                  "gain": 3.62043691,
                  "cover": 100,
                  "children": [
                    {
                      "nodeid": 21,
                      "leaf": -0.00566304615,
                      "cover": 92
                    },
                    {
                      "nodeid": 22,
                      "leaf": 0.0275120176,
                      "cover": 8
                    }
                  ]
                }
              ]
            }
          ]
        },
        {
          "nodeid": 2,
          "depth": 1,
          "split": "current_price",
          "split_condition": 2798.22998,
          "yes": 5,
          "no": 6,
          "missing": 6,
          "gain": 74.4702148,
          "cover": 318,
          "children": [
            {
              "nodeid": 5,
              "depth": 2,
              "split": "set_age_years",
              "split_condition": 18.4997005,
              "yes": 11,
              "no": 12,
              "missing": 12,
              "gain": 1.78728104,
              "cover": 80,
              "children": [
                {
                  "nodeid": 11,
                  "depth": 3,
                  "split": "set_age_years",
                  "split_condition": 4.3586998,
                  "yes": 23,
                  "no": 24,
                  "missing": 24,
                  "gain": 2.54400253,
                  "cover": 57,
                  "children": [
                    {
                      "nodeid": 23,
                      "leaf": 0.0205165427,
                      "cover": 17
                    },
                    {
                      "nodeid": 24,
                      "leaf": 0.0461945012,
                      "cover": 40
                    }
                  ]
                },
                {
                  "nodeid": 12,
                  "depth": 3,
                  "split": "set_age_years",
                  "split_condition": 20.5858994,
                  "yes": 25,
                  "no": 26,
                  "missing": 26,
                  "gain": 0.21169734,
                  "cover": 23,
                  "children": [
                    {
                      "nodeid": 25,
                      "leaf": 0.0168908499,
                      "cover": 21
                    },
                    {
                      "nodeid": 26,
                      "leaf": 0.0375123881,
                      "cover": 2
                    }
                  ]
                }
              ]
            },
            {
              "nodeid": 6,
              "depth": 2,
              "split": "collector_demand_ratio",
              "split_condition": 0.860000014,
              "yes": 13,
              "no": 14,
              "missing": 14,
              "gain": 4.27166748,
              "cover": 238,
              "children": [
                {
                  "nodeid": 13,
                  "leaf": 0.0837410912,
                  "cover": 159
                },
                {
                  "nodeid": 14,
                  "depth": 3,
                  "split": "set_age_years",
                  "split_condition": 22.8938999,
                  "yes": 27,
                  "no": 28,
                  "missing": 28,
                  "gain": 0.268463135,
                  "cover": 79,
                  "children": [
                    {
                      "nodeid": 27,
                      "leaf": 0.0843203142,
                      "cover": 26
                    },
                    {
                      "nodeid": 28,
                      "leaf": 0.110314451,
                      "cover": 53
                    }
                  ]
                }
              ]
            }
          ]
        }
      ]
    },
    {
      "nodeid": 0,
      "depth": 0,
      "split": "set_age_years",
      "split_condition": 4.66260004,
      "yes": 1,
      "no": 2,
      "missing": 2,
      "gain": 974.841736,
      "cover": 727,
      "children": [
        {
          "nodeid": 1,
          "depth": 1,
          "split": "most_expensive_card_price",
          "split_condition": 450,
          "yes": 3,
          "no": 4,
          "missing": 4,
          "gain": 126.238953,
          "cover": 396,
          "children": [
            {
              "nodeid": 3,
              "depth": 2,
              "split": "market_cycle_score",
              "split_condition": 63,
              "yes": 7,
              "no": 8,
              "missing": 8,
              "gain": 29.2261963,
              "cover": 313,
              "children": [
                {
                  "nodeid": 7,
                  "depth": 3,
                  "split": "most_expensive_card_price",
                  "split_condition": 175,
                  "yes": 15,
                  "no": 16,
                  "missing": 16,
                  "gain": 13.5890808,
                  "cover": 149,
                  "children": [
                    {
                      "nodeid": 15,
                      "leaf": -0.0962140858,
                      "cover": 80
                    },
                    {
                      "nodeid": 16,
                      "leaf": -0.0630243123,
                      "cover": 69
                    }
                  ]
                },
                {
                  "nodeid": 8,
                  "depth": 3,
                  "split": "price_trajectory_6mo",
                  "split_condition": 25.184,
                  "yes": 17,
                  "no": 18,
                  "missing": 17,
                  "gain": 15.2671967,
                  "cover": 164,
                  "children": [
                    {
                      "nodeid": 17,
                      "leaf": -0.0618855469,
                      "cover": 102
                    },
                    {
                      "nodeid": 18,
                      "leaf": -0.0294445939,
                      "cover": 62
                    }
                  ]
                }
              ]
            },
            {
              "nodeid": 4,
              "depth": 2,
              "split": "set_age_years",
              "split_condition": 2.43120003,
              "yes": 9,
              "no": 10,
              "missing": 10,
              "gain": 8.37607193,
              "cover": 83,
              "children": [
                {
                  "nodeid": 9,
                  "depth": 3,
                  "split": "price_trajectory_6mo",
                  "split_condition": 13.1049995,
                  "yes": 19,
                  "no": 20,
                  "missing": 20,
                  "gain": 0.776783466,
                  "cover": 29,
                  "children": [
                    {
                      "nodeid": 19,
                      "leaf": 0.00185444264,
                      "cover": 4
                    },
                    {
                      "nodeid": 20,
                      "leaf": -0.0203047339,
                      "cover": 25
                    }
                  ]
                },
                {
                  "nodeid": 10,
                  "depth": 3,
                  "split": "most_expensive_card_price",
                  "split_condition": 1000,
                  "yes": 21,
                  "no": 22,
                  "missing": 22,
                  "gain": 2.60662985,
                  "cover": 54,
                  "children": [
                    {
                      "nodeid": 21,
                      "leaf": 0.00202556374,
                      "cover": 22
                    },
                    {
                      "nodeid": 22,
                      "leaf": 0.0246091206,
                      "cover": 32
                    }
                  ]
                }
              ]
            }
          ]
        },
        {
          "nodeid": 2,
          "depth": 1,
          "split": "era_encoded",
          "split_condition": 3,
          "yes": 5,
          "no": 6,
          "missing": 6,
          "gain": 116.074829,
          "cover": 331,
          "children": [
            {
              "nodeid": 5,
              "depth": 2,
              "split": "google_trends_score",
              "split_condition": 80,
              "yes": 11,
              "no": 12,
              "missing": 12,
              "gain": 27.7735691,
              "cover": 107,
              "children": [
                {
                  "nodeid": 11,
                  "depth": 3,
                  "split": "set_age_years",
                  "split_condition": 7.49350023,
                  "yes": 23,
                  "no": 24,
                  "missing": 24,
                  "gain": 10.1702719,
                  "cover": 80,
                  "children": [
                    {
                      "nodeid": 23,
                      "leaf": -0.0118391803,
                      "cover": 37
                    },
                    {
                      "nodeid": 24,
                      "leaf": 0.0234587844,
                      "cover": 43
                    }
                  ]
                },
                {
                  "nodeid": 12,
                  "depth": 3,
                  "split": "price_trajectory_24mo",
                  "split_condition": 188.014999,
                  "yes": 25,
                  "no": 26,
                  "missing": 26,
                  "gain": 0.370197296,
                  "cover": 27,
                  "children": [
                    {
                      "nodeid": 25,
                      "leaf": 0.0449027568,
                      "cover": 10
                    },
                    {
                      "nodeid": 26,
                      "leaf": 0.073687844,
                      "cover": 17
                    }
                  ]
                }
              ]
            },
            {
              "nodeid": 6,
              "depth": 2,
              "split": "most_expensive_card_price",
              "split_condition": 300,
              "yes": 13,
              "no": 14,
              "missing": 14,
              "gain": 5.93157959,
              "cover": 224,
              "children": [
                {
                  "nodeid": 13,
                  "depth": 3,
                  "split": "set_age_years",
                  "split_condition": 21.6044006,
                  "yes": 27,
                  "no": 28,
                  "missing": 28,
                  "gain": 0.0960083008,
                  "cover": 182,
                  "children": [
                    {
                      "nodeid": 27,
                      "leaf": 0.0548050478,
                      "cover": 10
                    },
                    {
                      "nodeid": 28,
                      "leaf": 0.0817359239,
                      "cover": 172
                    }
                  ]
                },
                {
                  "nodeid": 14,
                  "leaf": 0.106308058,
                  "cover": 42
                }
              ]
            }
          ]
        }
      ]
    },
    {
      "nodeid": 0,
      "depth": 0,
      "split": "current_price",
      "split_condition": 798.869995,
      "yes": 1,
      "no": 2,
      "missing": 2,
      "gain": 965.392761,
      "cover": 732,
      "children": [
        {
          "nodeid": 1,
          "depth": 1,
          "split": "current_price",
          "split_condition": 175,
          "yes": 3,
          "no": 4,
          "missing": 4,
          "gain": 108.974915,
          "cover": 419,
          "children": [
            {
              "nodeid": 3,
              "depth": 2,
              "split": "current_price",
              "split_condition": 88,
              "yes": 7,
              "no": 8,
              "missing": 8,
              "gain": 27.2831421,
              "cover": 286,
              "children": [
                {
                  "nodeid": 7,
                  "depth": 3,
                  "split": "chase_card_index_score",
                  "split_condition": 78,
                  "yes": 15,
                  "no": 16,
                  "missing": 16,
                  "gain": 4.89950562,
                  "cover": 131,
                  "children": [
                    {
                      "nodeid": 15,
                      "leaf": -0.0919116139,
                      "cover": 83
                    },
                    {
                      "nodeid": 16,
                      "leaf": -0.0665228888,
                      "cover": 48
                    }
                  ]
                },
                {
                  "nodeid": 8,
                  "depth": 3,
                  "split": "popularity_score",
                  "split_condition": 86,
                  "yes": 17,
                  "no": 18,
                  "missing": 18,
                  "gain": 4.83273315,
                  "cover": 155,
                  "children": [
                    {
                      "nodeid": 17,
                      "leaf": -0.0542894565,
                      "cover": 139
                    },
                    {
                      "nodeid": 18,
                      "leaf": -0.0226270501,
                      "cover": 16
                    }
                  ]
                }
              ]
            },
            {
              "nodeid": 4,
              "depth": 2,
              "split": "set_age_years",
              "split_condition": 2.43120003,
              "yes": 9,
              "no": 10,
              "missing": 10,
              "gain": 8.2949791,
              "cover": 133,
              "children": [
                {
                  "nodeid": 9,
                  "depth": 3,
                  "split": "chase_card_index_score",
                  "split_condition": 84,
                  "yes": 19,
                  "no": 20,
                  "missing": 20,
                  "gain": 2.82021713,
                  "cover": 49,
                  "children": [
                    {
                      "nodeid": 19,
                      "leaf": -0.0405977741,
                      "cover": 22
                    },
                    {
                      "nodeid": 20,
                      "leaf": -0.0153447976,
                      "cover": 27
                    }
                  ]
                },
                {
                  "nodeid": 10,
                  "depth": 3,
                  "split": "most_expensive_card_price",
                  "split_condition": 1100,
                  "yes": 21,
                  "no": 22,
                  "missing": 22,
                  "gain": 1.21593285,
                  "cover": 84,
                  "children": [
                    {
                      "nodeid": 21,
                      "leaf": -0.00322117028,
                      "cover": 79
                    },
                    {
                      "nodeid": 22,
                      "leaf": 0.0200652461,
                      "cover": 5
                    }
                  ]
                }
              ]
            }
          ]
        },
        {
          "nodeid": 2,
          "depth": 1,
          "split": "current_price",
          "split_condition": 2798.22998,
          "yes": 5,
          "no": 6,
          "missing": 6,
          "gain": 65.5482788,
          "cover": 313,
          "children": [
            {
              "nodeid": 5,
              "depth": 2,
              "split": "set_age_years",
              "split_condition": 18.4997005,
              "yes": 11,
              "no": 12,
              "missing": 12,
              "gain": 2.55012512,
              "cover": 85,
              "children": [
                {
                  "nodeid": 11,
                  "depth": 3,
                  "split": "set_age_years",
                  "split_condition": 4.44350004,
                  "yes": 23,
                  "no": 24,
                  "missing": 24,
                  "gain": 2.63731575,
                  "cover": 63,
                  "children": [
                    {
                      "nodeid": 23,
                      "leaf": 0.0195436757,
                      "cover": 24
                    },
                    {
                      "nodeid": 24,
                      "leaf": 0.0424688123,
                      "cover": 39
                    }
                  ]
                },
                {
                  "nodeid": 12,
                  "depth": 3,
                  "split": "price_trajectory_6mo",
                  "split_condition": -69.2020035,
                  "yes": 25,
                  "no": 26,
                  "missing": 26,
                  "gain": 0.550606489,
                  "cover": 22,
                  "children": [
                    {
                      "nodeid": 25,
                      "leaf": 0.0345087275,
                      "cover": 2
                    },
                    {
                      "nodeid": 26,
                      "leaf": 0.00929292385,
                      "cover": 20
                    }
                  ]
                }
              ]
            },
            {
              "nodeid": 6,
              "depth": 2,
              "split": "most_expensive_card_price",
              "split_condition": 175,
              "yes": 13,
              "no": 14,
              "missing": 14,
              "gain": 1.97296143,
              "cover": 228,
              "children": [
                {
                  "nodeid": 13,
                  "leaf": 0.0740051642,
                  "cover": 124
                },
                {
                  "nodeid": 14,
                  "depth": 3,
                  "split": "price_trajectory_24mo",
                  "split_condition": 137.313995,
                  "yes": 27,
                  "no": 28,
                  "missing": 28,
                  "gain": 0.272735596,
                  "cover": 104,
                  "children": [
                    {
                      "nodeid": 27,
                      "leaf": 0.100356773,
                      "cover": 37
                    },
                    {
                      "nodeid": 28,
                      "leaf": 0.0807728693,
                      "cover": 67
                    }
                  ]
                }
              ]
            }
          ]
        }
      ]
    },
    {
      "nodeid": 0,
      "depth": 0,
      "split": "current_price",
      "split_condition": 826.450012,
      "yes": 1,
      "no": 2,
      "missing": 2,
      "gain": 902.894104,
      "cover": 737,
      "children": [
        {
          "nodeid": 1,
          "depth": 1,
          "split": "current_price",
          "split_condition": 175,
          "yes": 3,
          "no": 4,
          "missing": 4,
          "gain": 114.700592,
          "cover": 431,
          "children": [
            {
              "nodeid": 3,
              "depth": 2,
              "split": "current_price",
              "split_condition": 80.9899979,
              "yes": 7,
              "no": 8,
              "missing": 8,
              "gain": 26.583252,
              "cover": 287,
              "children": [
                {
                  "nodeid": 7,
                  "depth": 3,
                  "split": "most_expensive_card_price",
                  "split_condition": 450,
                  "yes": 15,
                  "no": 16,
                  "missing": 16,
                  "gain": 6.79205322,
                  "cover": 128,
                  "children": [
                    {
                      "nodeid": 15,
                      "leaf": -0.0845489204,
                      "cover": 124
                    },
                    {
                      "nodeid": 16,
                      "leaf": -0.013092841,
                      "cover": 4
                    }
                  ]
                },
                {
                  "nodeid": 8,
                  "depth": 3,
                  "split": "popularity_score",
                  "split_condition": 90,
                  "yes": 17,
                  "no": 18,
                  "missing": 18,
                  "gain": 4.56539917,
                  "cover": 159,
                  "children": [
                    {
                      "nodeid": 17,
                      "leaf": -0.0533313267,
                      "cover": 147
                    },
                    {
                      "nodeid": 18,
                      "leaf": -0.0185098425,
                      "cover": 12
                    }
                  ]
                }
              ]
            },
            {
              "nodeid": 4,
              "depth": 2,
              "split": "set_age_years",
              "split_condition": 1.36070001,
              "yes": 9,
              "no": 10,
              "missing": 10,
              "gain": 9.66302967,
              "cover": 144,
              "children": [
                {
                  "nodeid": 9,
                  "depth": 3,
                  "split": "most_expensive_card_price",
                  "split_condition": 350,
                  "yes": 19,
                  "no": 20,
                  "missing": 20,
                  "gain": 0.352511406,
                  "cover": 16,
                  "children": [
                    {
                      "nodeid": 19,
                      "leaf": -0.0514947288,
                      "cover": 12
                    },
                    {
                      "nodeid": 20,
                      "leaf": -0.0212415978,
                      "cover": 4
                    }
                  ]
                },
                {
                  "nodeid": 10,
                  "depth": 3,
                  "split": "popularity_score",
                  "split_condition": 70,
                  "yes": 21,
                  "no": 22,
                  "missing": 22,
                  "gain": 3.71133423,
                  "cover": 128,
                  "children": [
                    {
                      "nodeid": 21,
                      "leaf": -0.0254649799,
                      "cover": 19
                    },
                    {
                      "nodeid": 22,
                      "leaf": -0.00193993782,
                      "cover": 109
                    }
                  ]
                }
              ]
            }
          ]
        },
        {
          "nodeid": 2,
          "depth": 1,
          "split": "current_price",
          "split_condition": 2798.22998,
          "yes": 5,
          "no": 6,
          "missing": 6,
          "gain": 52.5512695,
          "cover": 306,
          "children": [
            {
              "nodeid": 5,
              "depth": 2,
              "split": "set_age_years",
              "split_condition": 18.4997005,
              "yes": 11,
              "no": 12,
              "missing": 12,
              "gain": 1.59705734,
              "cover": 84,
              "children": [
                {
                  "nodeid": 11,
                  "depth": 3,
                  "split": "set_age_years",
                  "split_condition": 4.5229001,
                  "yes": 23,
                  "no": 24,
                  "missing": 24,
                  "gain": 2.14328957,
                  "cover": 61,
                  "children": [
                    {
                      "nodeid": 23,
                      "leaf": 0.021727914,
                      "cover": 24
                    },
                    {
                      "nodeid": 24,
                      "leaf": 0.0431677848,
                      "cover": 37
                    }
                  ]
                },
                {
                  "nodeid": 12,
                  "depth": 3,
                  "split": "market_cycle_score",
                  "split_condition": 63,
                  "yes": 25,
                  "no": 26,
                  "missing": 26,
                  "gain": 0.755911827,
                  "cover": 23,
                  "children": [
                    {
                      "nodeid": 25,
                      "leaf": 0.028903408,
                      "cover": 9
                    },
                    {
                      "nodeid": 26,
                      "leaf": 0.0090364404,
                      "cover": 14
                    }
                  ]
                }
              ]
            },
            {
              "nodeid": 6,
              "depth": 2,
              "split": "collector_demand_ratio",
              "split_condition": 0.949999988,
              "yes": 13,
              "no": 14,
              "missing": 14,
              "gain": 3.99035645,
              "cover": 222,
              "children": [
                {
                  "nodeid": 13,
                  "depth": 3,
                  "split": "set_age_years",
                  "split_condition": 23.3539009,
                  "yes": 27,
                  "no": 28,
                  "missing": 28,
                  "gain": 0.446563721,
                  "cover": 181,
                  "children": [
                    {
                      "nodeid": 27,
                      "leaf": 0.0665093139,
                      "cover": 88
                    },
                    {
                      "nodeid": 28,
                      "leaf": 0.0790608004,
                      "cover": 93
                    }
                  ]
                },
                {
                  "nodeid": 14,
                  "leaf": 0.0955695733,
                  "cover": 41
                }
              ]
            }
          ]
        }
      ]
    },
    {
      "nodeid": 0,
      "depth": 0,
      "split": "set_age_years",
      "split_condition": 4.66260004,
      "yes": 1,
      "no": 2,
      "missing": 2,
      "gain": 690.390503,
      "cover": 729,
      "children": [
        {
          "nodeid": 1,
          "depth": 1,
          "split": "most_expensive_card_price",
          "split_condition": 450,
          "yes": 3,
          "no": 4,
          "missing": 4,
          "gain": 89.5319824,
          "cover": 408,
          "children": [
            {
              "nodeid": 3,
              "depth": 2,
              "split": "market_cycle_score",
              "split_condition": 63,
              "yes": 7,
              "no": 8,
              "missing": 8,
              "gain": 25.9272461,
              "cover": 319,
              "children": [
                {
                  "nodeid": 7,
                  "depth": 3,
                  "split": "most_expensive_card_price",
                  "split_condition": 120,
                  "yes": 15,
                  "no": 16,
                  "missing": 16,
                  "gain": 11.7290955,
                  "cover": 144,
                  "children": [
                    {
                      "nodeid": 15,
                      "leaf": -0.0914621577,
                      "cover": 49
                    },
                    {
                      "nodeid": 16,
                      "leaf": -0.058850795,
                      "cover": 95
                    }
                  ]
                },
                {
                  "nodeid": 8,
                  "depth": 3,
                  "split": "product_type_encoded",
                  "split_condition": 3,
                  "yes": 17,
                  "no": 18,
                  "missing": 18,
                  "gain": 11.3837051,
                  "cover": 175,
                  "children": [
                    {
                      "nodeid": 17,
                      "leaf": -0.028886959,
                      "cover": 95
                    },
                    {
                      "nodeid": 18,
                      "leaf": -0.0552607477,
                      "cover": 80
                    }
                  ]
                }
              ]
            },
            {
              "nodeid": 4,
              "depth": 2,
              "split": "set_age_years",
              "split_condition": 2.43120003,
              "yes": 9,
              "no": 10,
              "missing": 10,
              "gain": 6.21941328,
              "cover": 89,
              "children": [
                {
                  "nodeid": 9,
                  "depth": 3,
                  "split": "set_age_years",
                  "split_condition": 1.44009995,
                  "yes": 19,
                  "no": 20,
                  "missing": 20,
                  "gain": 0.512541771,
                  "cover": 33,
                  "children": [
                    {
                      "nodeid": 19,
                      "leaf": -0.0238213837,
                      "cover": 11
                    },
                    {
                      "nodeid": 20,
                      "leaf": -0.00939397793,
                      "cover": 22
                    }
                  ]
                },
                {
                  "nodeid": 10,
                  "depth": 3,
                  "split": "most_expensive_card_price",
                  "split_condition": 1000,
                  "yes": 21,
                  "no": 22,
                  "missing": 22,
                  "gain": 1.7493937,
                  "cover": 56,
                  "children": [
                    {
                      "nodeid": 21,
                      "leaf": 0.000365900778,
                      "cover": 21
                    },
                    {
                      "nodeid": 22,
                      "leaf": 0.0187910702,
                      "cover": 35
                    }
                  ]
                }
              ]
            }
          ]
        },
        {
          "nodeid": 2,
          "depth": 1,
          "split": "era_encoded",
          "split_condition": 3,
          "yes": 5,
          "no": 6,
          "missing": 6,
          "gain": 82.3459778,
          "cover": 321,
          "children": [
            {
              "nodeid": 5,
              "depth": 2,
              "split": "google_trends_score",
              "split_condition": 80,
              "yes": 11,
              "no": 12,
              "missing": 12,
              "gain": 16.518795,
              "cover": 103,
              "children": [
                {
                  "nodeid": 11,
                  "depth": 3,
                  "split": "set_age_years",
                  "split_condition": 7.24709988,
                  "yes": 23,
                  "no": 24,
                  "missing": 24,
                  "gain": 7.28965092,
                  "cover": 81,
                  "children": [
                    {
                      "nodeid": 23,
                      "leaf": -0.0110962633,
                      "cover": 31
                    },
                    {
                      "nodeid": 24,
                      "leaf": 0.0193326157,
                      "cover": 50
                    }
                  ]
                },
                {
                  "nodeid": 12,
                  "depth": 3,
                  "split": "market_cycle_score",
                  "split_condition": 63,
                  "yes": 25,
                  "no": 26,
                  "missing": 26,
                  "gain": 0.131774902,
                  "cover": 22,
                  "children": [
                    {
                      "nodeid": 25,
                      "leaf": 0.0198066067,
                      "cover": 2
                    },
                    {
                      "nodeid": 26,
                      "leaf": 0.0581366681,
                      "cover": 20
                    }
                  ]
                }
              ]
            },
            {
              "nodeid": 6,
              "depth": 2,
              "split": "set_age_years",
              "split_condition": 22.809,
              "yes": 13,
              "no": 14,
              "missing": 14,
              "gain": 3.01184082,
              "cover": 218,
              "children": [
                {
                  "nodeid": 13,
                  "leaf": 0.0612082258,
                  "cover": 70
                },
                {
                  "nodeid": 14,
                  "depth": 3,
                  "split": "collector_demand_ratio",
                  "split_condition": 0.860000014,
                  "yes": 27,
                  "no": 28,
                  "missing": 28,
                  "gain": 1.69497681,
                  "cover": 148,
                  "children": [
                    {
                      "nodeid": 27,
                      "leaf": 0.0714621544,
                      "cover": 100
                    },
                    {
                      "nodeid": 28,
                      "leaf": 0.0897667482,
                      "cover": 48
                    }
                  ]
                }
              ]
            }
          ]
        }
      ]
    },
    {
      "nodeid": 0,
      "depth": 0,
      "split": "set_age_years",
      "split_condition": 4.66260004,
      "yes": 1,
      "no": 2,
      "missing": 2,
      "gain": 675.31073,
      "cover": 745,
      "children": [
        {
          "nodeid": 1,
          "depth": 1,
          "split": "most_expensive_card_price",
          "split_condition": 450,
          "yes": 3,
          "no": 4,
          "missing": 4,
          "gain": 92.5605774,
          "cover": 424,
          "children": [
            {
              "nodeid": 3,
              "depth": 2,
              "split": "market_cycle_score",
              "split_condition": 63,
              "yes": 7,
              "no": 8,
              "missing": 8,
              "gain": 25.592926,
              "cover": 335,
              "children": [
                {
                  "nodeid": 7,
                  "depth": 3,
                  "split": "most_expensive_card_price",
                  "split_condition": 120,
                  "yes": 15,
                  "no": 16,
                  "missing": 16,
                  "gain": 12.9108887,
                  "cover": 160,
                  "children": [
                    {
                      "nodeid": 15,
                      "leaf": -0.0879182443,
                      "cover": 61
                    },
                    {
                      "nodeid": 16,
                      "leaf": -0.0565346777,
                      "cover": 99
                    }
                  ]
                },
                {
                  "nodeid": 8,
                  "depth": 3,
                  "split": "price_trajectory_6mo",
                  "split_condition": 35.855999,
                  "yes": 17,
                  "no": 18,
                  "missing": 17,
                  "gain": 14.3411102,
                  "cover": 175,
                  "children": [
                    {
                      "nodeid": 17,
                      "leaf": -0.050242018,
                      "cover": 121
                    },
                    {
                      "nodeid": 18,
                      "leaf": -0.0186223388,
                      "cover": 54
                    }
                  ]
                }
              ]
            },
            {
              "nodeid": 4,
              "depth": 2,
              "split": "set_age_years",
              "split_condition": 2.34629989,
              "yes": 9,
              "no": 10,
              "missing": 10,
              "gain": 6.28135872,
              "cover": 89,
              "children": [
                {
                  "nodeid": 9,
                  "depth": 3,
                  "split": "set_age_years",
                  "split_condition": 1.44009995,
                  "yes": 19,
                  "no": 20,
                  "missing": 20,
                  "gain": 0.363048792,
                  "cover": 30,
                  "children": [
                    {
                      "nodeid": 19,
                      "leaf": -0.0229034573,
                      "cover": 11
                    },
                    {
                      "nodeid": 20,
                      "leaf": -0.00981786009,
                      "cover": 19
                    }
                  ]
                },
                {
                  "nodeid": 10,
                  "depth": 3,
                  "split": "price_trajectory_24mo",
                  "split_condition": 1698.854,
                  "yes": 21,
                  "no": 22,
                  "missing": 22,
                  "gain": 1.78558564,
                  "cover": 59,
                  "children": [
                    {
                      "nodeid": 21,
                      "leaf": 0.0229932442,
                      "cover": 23
                    },
                    {
                      "nodeid": 22,
                      "leaf": 0.00495879492,
                      "cover": 36
                    }
                  ]
                }
              ]
            }
          ]
        },
        {
          "nodeid": 2,
          "depth": 1,
          "split": "era_encoded",
          "split_condition": 3,
          "yes": 5,
          "no": 6,
          "missing": 6,
          "gain": 72.4102783,
          "cover": 321,
          "children": [
            {
              "nodeid": 5,
              "depth": 2,
              "split": "google_trends_score",
              "split_condition": 80,
              "yes": 11,
              "no": 12,
              "missing": 12,
              "gain": 17.3302765,
              "cover": 97,
              "children": [
                {
                  "nodeid": 11,
                  "depth": 3,
                  "split": "set_age_years",
                  "split_condition": 7.24709988,
                  "yes": 23,
                  "no": 24,
                  "missing": 24,
                  "gain": 6.6942277,
                  "cover": 74,
                  "children": [
                    {
                      "nodeid": 23,
                      "leaf": -0.0118149547,
                      "cover": 32
                    },
                    {
                      "nodeid": 24,
                      "leaf": 0.0181015879,
                      "cover": 42
                    }
                  ]
                },
                {
                  "nodeid": 12,
                  "depth": 3,
                  "split": "set_age_years",
                  "split_condition": 5.24849987,
                  "yes": 25,
                  "no": 26,
                  "missing": 26,
                  "gain": 0.521224976,
                  "cover": 23,
                  "children": [
                    {
                      "nodeid": 25,
                      "leaf": 0.0376397111,
                      "cover": 11
                    },
                    {
                      "nodeid": 26,
                      "leaf": 0.0649122819,
                      "cover": 12
                    }
                  ]
                }
              ]
            },
            {
              "nodeid": 6,
              "depth": 2,
              "split": "set_age_years",
              "split_condition": 22.809,
              "yes": 13,
              "no": 14,
              "missing": 14,
              "gain": 3.17684937,
              "cover": 224,
              "children": [
                {
                  "nodeid": 13,
                  "leaf": 0.0576217175,
                  "cover": 71
                },
                {
                  "nodeid": 14,
                  "depth": 3,
                  "split": "collector_demand_ratio",
                  "split_condition": 0.860000014,
                  "yes": 27,
                  "no": 28,
                  "missing": 28,
                  "gain": 1.6053772,
                  "cover": 153,
                  "children": [
                    {
                      "nodeid": 27,
                      "leaf": 0.0680362955,
                      "cover": 104
                    },
                    {
                      "nodeid": 28,
                      "leaf": 0.0854003727,
                      "cover": 49
                    }
                  ]
                }
              ]
            }
          ]
        }
      ]
    },
    {
      "nodeid": 0,
      "depth": 0,
      "split": "set_age_years",
      "split_condition": 4.74469995,
      "yes": 1,
      "no": 2,
      "missing": 2,
      "gain": 585.390442,
      "cover": 709,
      "children": [
        {
          "nodeid": 1,
          "depth": 1,
          "split": "most_expensive_card_price",
          "split_condition": 450,
          "yes": 3,
          "no": 4,
          "missing": 4,
          "gain": 73.3113708,
          "cover": 400,
          "children": [
            {
              "nodeid": 3,
              "depth": 2,
              "split": "product_type_encoded",
              "split_condition": 3,
              "yes": 7,
              "no": 8,
              "missing": 8,
              "gain": 25.7614746,
              "cover": 320,
              "children": [
                {
                  "nodeid": 7,
                  "depth": 3,
                  "split": "set_age_years",
                  "split_condition": 1.30869997,
                  "yes": 15,
                  "no": 16,
                  "missing": 16,
                  "gain": 12.7753754,
                  "cover": 155,
                  "children": [
                    {
                      "nodeid": 15,
                      "leaf": -0.0487914085,
                      "cover": 81
                    },
                    {
                      "nodeid": 16,
                      "leaf": -0.0195435379,
                      "cover": 74
                    }
                  ]
                },
                {
                  "nodeid": 8,
                  "depth": 3,
                  "split": "chase_card_index_score",
                  "split_condition": 78,
                  "yes": 17,
                  "no": 18,
                  "missing": 18,
                  "gain": 12.4798584,
                  "cover": 165,
                  "children": [
                    {
                      "nodeid": 17,
                      "leaf": -0.0762247518,
                      "cover": 95
                    },
                    {
                      "nodeid": 18,
                      "leaf": -0.0465623476,
                      "cover": 70
                    }
                  ]
                }
              ]
            },
            {
              "nodeid": 4,
              "depth": 2,
              "split": "set_age_years",
              "split_condition": 2.67759991,
              "yes": 9,
              "no": 10,
              "missing": 10,
              "gain": 6.01709461,
              "cover": 80,
              "children": [
                {
                  "nodeid": 9,
                  "depth": 3,
                  "split": "set_age_years",
                  "split_condition": 2.09450006,
                  "yes": 19,
                  "no": 20,
                  "missing": 20,
                  "gain": 0.876652122,
                  "cover": 37,
                  "children": [
                    {
                      "nodeid": 19,
                      "leaf": -0.0181970168,
                      "cover": 20
                    },
                    {
                      "nodeid": 20,
                      "leaf": -0.00237630447,
                      "cover": 17
                    }
                  ]
                },
                {
                  "nodeid": 10,
                  "depth": 3,
                  "split": "most_expensive_card_price",
                  "split_condition": 1100,
                  "yes": 21,
                  "no": 22,
                  "missing": 22,
                  "gain": 1.48764372,
                  "cover": 43,
                  "children": [
                    {
                      "nodeid": 21,
                      "leaf": 0.00893645734,
                      "cover": 30
                    },
                    {
                      "nodeid": 22,
                      "leaf": 0.0296007004,
                      "cover": 13
                    }
                  ]
                }
              ]
            }
          ]
        },
        {
          "nodeid": 2,
          "depth": 1,
          "split": "era_encoded",
          "split_condition": 3,
          "yes": 5,
          "no": 6,
          "missing": 6,
          "gain": 67.5774536,
          "cover": 309,
          "children": [
            {
              "nodeid": 5,
              "depth": 2,
              "split": "google_trends_score",
              "split_condition": 80,
              "yes": 11,
              "no": 12,
              "missing": 12,
              "gain": 13.3109236,
              "cover": 95,
              "children": [
                {
                  "nodeid": 11,
                  "depth": 3,
                  "split": "set_age_years",
                  "split_condition": 7.24709988,
                  "yes": 23,
                  "no": 24,
                  "missing": 24,
                  "gain": 6.0241785,
                  "cover": 74,
                  "children": [
                    {
                      "nodeid": 23,
                      "leaf": -0.0102315946,
                      "cover": 31
                    },
                    {
                      "nodeid": 24,
                      "leaf": 0.0182580445,
                      "cover": 43
                    }
                  ]
                },
                {
                  "nodeid": 12,
                  "leaf": 0.0507986248,
                  "cover": 21
                }
              ]
            },
            {
              "nodeid": 6,
              "depth": 2,
              "split": "set_age_years",
              "split_condition": 25.1005993,
              "yes": 13,
              "no": 14,
              "missing": 14,
              "gain": 2.78051758,
              "cover": 214,
              "children": [
                {
                  "nodeid": 13,
                  "depth": 3,
                  "split": "most_expensive_card_price",
                  "split_condition": 175,
                  "yes": 25,
                  "no": 26,
                  "missing": 26,
                  "gain": 1.02633667,
                  "cover": 188,
                  "children": [
                    {
                      "nodeid": 25,
                      "leaf": 0.0580401793,
                      "cover": 98
                    },
                    {
                      "nodeid": 26,
                      "leaf": 0.0704703629,
                      "cover": 90
                    }
                  ]
                },
                {
                  "nodeid": 14,
                  "leaf": 0.0870482326,
                  "cover": 26
                }
              ]
            }
          ]
        }
      ]
    },
    {
      "nodeid": 0,
      "depth": 0,
      "split": "current_price",
      "split_condition": 826.450012,
      "yes": 1,
      "no": 2,
      "missing": 2,
      "gain": 603.045105,
      "cover": 748,
      "children": [
        {
          "nodeid": 1,
          "depth": 1,
          "split": "current_price",
          "split_condition": 175,
          "yes": 3,
          "no": 4,
          "missing": 4,
          "gain": 77.8528442,
          "cover": 437,
          "children": [
            {
              "nodeid": 3,
              "depth": 2,
              "split": "current_price",
              "split_condition": 83.6800003,
              "yes": 7,
              "no": 8,
              "missing": 8,
              "gain": 17.6488647,
              "cover": 290,
              "children": [
                {
                  "nodeid": 7,
                  "depth": 3,
                  "split": "collector_demand_ratio",
                  "split_condition": 0.720000029,
                  "yes": 15,
                  "no": 16,
                  "missing": 16,
                  "gain": 7.12059021,
                  "cover": 136,
                  "children": [
                    {
                      "nodeid": 15,
                      "leaf": -0.0705265328,
                      "cover": 117
                    },
                    {
                      "nodeid": 16,
                      "leaf": -0.0340562686,
                      "cover": 19
                    }
                  ]
                },
                {
                  "nodeid": 8,
                  "depth": 3,
                  "split": "google_trends_score",
                  "split_condition": 80,
                  "yes": 17,
                  "no": 18,
                  "missing": 18,
                  "gain": 1.93015289,
                  "cover": 154,
                  "children": [
                    {
                      "nodeid": 17,
                      "leaf": -0.0422532521,
                      "cover": 138
                    },
                    {
                      "nodeid": 18,
                      "leaf": -0.0210143309,
                      "cover": 16
                    }
                  ]
                }
              ]
            },
            {
              "nodeid": 4,
              "depth": 2,
              "split": "set_age_years",
              "split_condition": 1.75769997,
              "yes": 9,
              "no": 10,
              "missing": 10,
              "gain": 5.40249538,
              "cover": 147,
              "children": [
                {
                  "nodeid": 9,
                  "depth": 3,
                  "split": "set_age_years",
                  "split_condition": 0.884299994,
                  "yes": 19,
                  "no": 20,
                  "missing": 20,
                  "gain": 1.27342319,
                  "cover": 32,
                  "children": [
                    {
                      "nodeid": 19,
                      "leaf": -0.0404195413,
                      "cover": 10
                    },
                    {
                      "nodeid": 20,
                      "leaf": -0.0170550607,
                      "cover": 22
                    }
                  ]
                },
                {
                  "nodeid": 10,
                  "depth": 3,
                  "split": "price_trajectory_24mo",
                  "split_condition": 264.403992,
                  "yes": 21,
                  "no": 22,
                  "missing": 21,
                  "gain": 1.70083857,
                  "cover": 115,
                  "children": [
                    {
                      "nodeid": 21,
                      "leaf": -0.00442891615,
                      "cover": 105
                    },
                    {
                      "nodeid": 22,
                      "leaf": 0.0161816832,
                      "cover": 10
                    }
                  ]
                }
              ]
            }
          ]
        },
        {
          "nodeid": 2,
          "depth": 1,
          "split": "current_price",
          "split_condition": 2798.22998,
          "yes": 5,
          "no": 6,
          "missing": 6,
          "gain": 33.9673462,
          "cover": 311,
          "children": [
            {
              "nodeid": 5,
              "depth": 2,
              "split": "set_age_years",
              "split_condition": 19.4223003,
              "yes": 11,
              "no": 12,
              "missing": 12,
              "gain": 2.02433395,
              "cover": 81,
              "children": [
                {
                  "nodeid": 11,
                  "depth": 3,
                  "split": "current_price",
                  "split_condition": 886.72998,
                  "yes": 23,
                  "no": 24,
                  "missing": 24,
                  "gain": 0.663776398,
                  "cover": 68,
                  "children": [
                    {
                      "nodeid": 23,
                      "leaf": 0.0127864527,
                      "cover": 9
                    },
                    {
                      "nodeid": 24,
                      "leaf": 0.0306926053,
                      "cover": 59
                    }
                  ]
                },
                {
                  "nodeid": 12,
                  "depth": 3,
                  "split": "current_price",
                  "split_condition": 1479.15002,
                  "yes": 25,
                  "no": 26,
                  "missing": 26,
                  "gain": 0.12668322,
                  "cover": 13,
                  "children": [
                    {
                      "nodeid": 25,
                      "leaf": 0.00817263499,
                      "cover": 11
                    },
                    {
                      "nodeid": 26,
                      "leaf": -0.00287090777,
                      "cover": 2
                    }
                  ]
                }
              ]
            },
            {
              "nodeid": 6,
              "depth": 2,
              "split": "most_expensive_card_price",
              "split_condition": 300,
              "yes": 13,
              "no": 14,
              "missing": 14,
              "gain": 3.33981323,
              "cover": 230,
              "children": [
                {
                  "nodeid": 13,
                  "depth": 3,
                  "split": "price_trajectory_24mo",
                  "split_condition": 273.669006,
                  "yes": 27,
                  "no": 28,
                  "missing": 28,
                  "gain": 0.869232178,
                  "cover": 183,
                  "children": [
                    {
                      "nodeid": 27,
                      "leaf": 0.0653529093,
                      "cover": 82
                    },
                    {
                      "nodeid": 28,
                      "leaf": 0.0536621995,
                      "cover": 101
                    }
                  ]
                },
                {
                  "nodeid": 14,
                  "leaf": 0.0777187645,
                  "cover": 47
                }
              ]
            }
          ]
        }
      ]
    },
    {
      "nodeid": 0,
      "depth": 0,
      "split": "current_price",
      "split_condition": 659.570007,
      "yes": 1,
      "no": 2,
      "missing": 2,
      "gain": 546.862732,
      "cover": 720,
      "children": [
        {
          "nodeid": 1,
          "depth": 1,
          "split": "current_price",
          "split_condition": 95.8000031,
          "yes": 3,
          "no": 4,
          "missing": 4,
          "gain": 41.7185059,
          "cover": 377,
          "children": [
            {
              "nodeid": 3,
              "depth": 2,
              "split": "market_cycle_score",
              "split_condition": 67,
              "yes": 7,
              "no": 8,
              "missing": 8,
              "gain": 6.96711731,
              "cover": 162,
              "children": [
                {
                  "nodeid": 7,
                  "depth": 3,
                  "split": "current_price",
                  "split_condition": 62.9799995,
                  "yes": 15,
                  "no": 16,
                  "missing": 16,
                  "gain": 1.26521301,
                  "cover": 88,
                  "children": [
                    {
                      "nodeid": 15,
                      "leaf": -0.0793145224,
                      "cover": 46
                    },
                    {
                      "nodeid": 16,
                      "leaf": -0.0595137589,
                      "cover": 42
                    }
                  ]
                },
                {
                  "nodeid": 8,
                  "depth": 3,
                  "split": "popularity_score",
                  "split_condition": 86,
                  "yes": 17,
                  "no": 18,
                  "missing": 18,
                  "gain": 5.18424225,
                  "cover": 74,
                  "children": [
                    {
                      "nodeid": 17,
                      "leaf": -0.0566871874,
                      "cover": 51
                    },
                    {
                      "nodeid": 18,
                      "leaf": -0.0257974621,
                      "cover": 23
                    }
                  ]
                }
              ]
            },
            {
              "nodeid": 4,
              "depth": 2,
              "split": "current_price",
              "split_condition": 192.25,
              "yes": 9,
              "no": 10,
              "missing": 10,
              "gain": 13.6954079,
              "cover": 215,
              "children": [
                {
                  "nodeid": 9,
                  "depth": 3,
                  "split": "market_cycle_score",
                  "split_condition": 63,
                  "yes": 19,
                  "no": 20,
                  "missing": 20,
                  "gain": 3.51439667,
                  "cover": 139,
                  "children": [
                    {
                      "nodeid": 19,
                      "leaf": -0.0441288128,
                      "cover": 71
                    },
                    {
                      "nodeid": 20,
                      "leaf": -0.0269235075,
                      "cover": 68
                    }
                  ]
                },
                {
                  "nodeid": 10,
                  "depth": 3,
                  "split": "set_age_years",
                  "split_condition": 1.36070001,
                  "yes": 21,
                  "no": 22,
                  "missing": 22,
                  "gain": 2.10443187,
                  "cover": 76,
                  "children": [
                    {
                      "nodeid": 21,
                      "leaf": -0.032315284,
                      "cover": 8
                    },
                    {
                      "nodeid": 22,
                      "leaf": -0.00617533643,
                      "cover": 68
                    }
                  ]
                }
              ]
            }
          ]
        },
        {
          "nodeid": 2,
          "depth": 1,
          "split": "current_price",
          "split_condition": 2798.22998,
          "yes": 5,
          "no": 6,
          "missing": 6,
          "gain": 59.8705139,
          "cover": 343,
          "children": [
            {
              "nodeid": 5,
              "depth": 2,
              "split": "price_trajectory_24mo",
              "split_condition": 99.0920029,
              "yes": 11,
              "no": 12,
              "missing": 11,
              "gain": 4.54533482,
              "cover": 113,
              "children": [
                {
                  "nodeid": 11,
                  "depth": 3,
                  "split": "current_price",
                  "split_condition": 798.869995,
                  "yes": 23,
                  "no": 24,
                  "missing": 24,
                  "gain": 1.42839146,
                  "cover": 75,
                  "children": [
                    {
                      "nodeid": 23,
                      "leaf": 7.85038719e-05,
                      "cover": 32
                    },
                    {
                      "nodeid": 24,
                      "leaf": 0.0141238151,
                      "cover": 43
                    }
                  ]
                },
                {
                  "nodeid": 12,
                  "depth": 3,
                  "split": "set_age_years",
                  "split_condition": 4.5229001,
                  "yes": 25,
                  "no": 26,
                  "missing": 26,
                  "gain": 2.1884222,
                  "cover": 38,
                  "children": [
                    {
                      "nodeid": 25,
                      "leaf": 0.0159134995,
                      "cover": 19
